/*
 * Copyright (c) 2024 EdgeImpulse Inc.
 *
 * Generated by Edge Impulse and licensed under the applicable Edge Impulse
 * Terms of Service. Community and Professional Terms of Service
 * (https://docs.edgeimpulse.com/page/terms-of-service) or Enterprise Terms of
 * Service (https://docs.edgeimpulse.com/page/enterprise-terms-of-service),
 * according to your product plan subscription (the “License”).
 *
 * This software, documentation and other associated files (collectively referred
 * to as the “Software”) is a single SDK variation generated by the Edge Impulse
 * platform and requires an active paid Edge Impulse subscription to use this
 * Software for any purpose.
 *
 * You may NOT use this Software unless you have an active Edge Impulse subscription
 * that meets the eligibility requirements for the applicable License, subject to
 * your full and continued compliance with the terms and conditions of the License,
 * including without limitation any usage restrictions under the applicable License.
 *
 * If you do not have an active Edge Impulse product plan subscription, or if use
 * of this Software exceeds the usage limitations of your Edge Impulse product plan
 * subscription, you are not permitted to use this Software and must immediately
 * delete and erase all copies of this Software within your control or possession.
 * Edge Impulse reserves all rights and remedies available to enforce its rights.
 *
 * Unless required by applicable law or agreed to in writing, the Software is
 * distributed on an "AS IS" BASIS, WITHOUT WARRANTIES OR CONDITIONS OF ANY KIND,
 * either express or implied. See the License for the specific language governing
 * permissions, disclaimers and limitations under the License.
 */
// Generated on: 23.10.2024 09:09:52

#include <stdio.h>
#include <stdlib.h>
#include "edge-impulse-sdk/tensorflow/lite/c/builtin_op_data.h"
#include "edge-impulse-sdk/tensorflow/lite/c/common.h"
#include "edge-impulse-sdk/tensorflow/lite/micro/micro_mutable_op_resolver.h"
#include "edge-impulse-sdk/porting/ei_classifier_porting.h"

#if EI_CLASSIFIER_PRINT_STATE
#if defined(__cplusplus) && EI_C_LINKAGE == 1
extern "C" {
    extern void ei_printf(const char *format, ...);
}
#else
extern void ei_printf(const char *format, ...);
#endif
#endif

#if defined (__GNUC__)  /* GNU compiler */
#define ALIGN(X) __attribute__((aligned(X)))
#define DEFINE_SECTION(x) __attribute__((section(x)))
#elif defined (_MSC_VER)
#define ALIGN(X) __declspec(align(X))
#elif defined (__TASKING__) /* TASKING Compiler */
#define ALIGN(X) __align(X)
#define DEFINE_SECTION(x) __attribute__(section(x)))
#elif defined (__ARMCC_VERSION) /* Arm Compiler */
#define ALIGN(X) __ALIGNED(x)
#define DEFINE_SECTION(x) __attribute__((section(x)))
#elif defined (__ICCARM__) /* IAR Compiler */
#define ALIGN(x) __attribute__((aligned(x)))
#define DEFINE_SECTION(x) __attribute__((section(x)))
#elif defined (__clang__) /* LLVM/Clang Compiler */
#define ALIGN(X) __ALIGNED(x)
#define DEFINE_SECTION(x) __attribute__((section(x)))
#endif

#ifndef EI_MAX_SCRATCH_BUFFER_COUNT
#ifndef CONFIG_IDF_TARGET_ESP32S3
#define EI_MAX_SCRATCH_BUFFER_COUNT 4
#else
#define EI_MAX_SCRATCH_BUFFER_COUNT 4
#endif // CONFIG_IDF_TARGET_ESP32S3
#endif // EI_MAX_SCRATCH_BUFFER_COUNT

#ifndef EI_MAX_OVERFLOW_BUFFER_COUNT
#define EI_MAX_OVERFLOW_BUFFER_COUNT 10
#endif // EI_MAX_OVERFLOW_BUFFER_COUNT

using namespace tflite;
using namespace tflite::ops;
using namespace tflite::ops::micro;

namespace {

#if defined(EI_CLASSIFIER_ALLOCATION_STATIC_HIMAX) || defined(EI_CLASSIFIER_ALLOCATION_STATIC_HIMAX_GNU)
constexpr int kTensorArenaSize = 2400;
#else
constexpr int kTensorArenaSize = 1376;
#endif

#if defined(EI_CLASSIFIER_ALLOCATION_STATIC)
#if defined (EI_TENSOR_ARENA_LOCATION)
#define STRINGIZE(x) #x
#define STRINGIZE_VALUE_OF(x) STRINGIZE(x)
uint8_t tensor_arena[kTensorArenaSize] ALIGN(16) DEFINE_SECTION(STRINGIZE_VALUE_OF(EI_TENSOR_ARENA_LOCATION));
#else
uint8_t tensor_arena[kTensorArenaSize] ALIGN(16);
#endif
#elif defined(EI_CLASSIFIER_ALLOCATION_STATIC_HIMAX)
#pragma Bss(".tensor_arena")
uint8_t tensor_arena[kTensorArenaSize] ALIGN(16);
#pragma Bss()
#elif defined(EI_CLASSIFIER_ALLOCATION_STATIC_HIMAX_GNU)
uint8_t tensor_arena[kTensorArenaSize] ALIGN(16) __attribute__((section(".tensor_arena")));
#else
#define EI_CLASSIFIER_ALLOCATION_HEAP 1
uint8_t* tensor_arena = NULL;
#endif

static uint8_t* tensor_boundary;
static uint8_t* current_location;

template <int SZ, class T> struct TfArray {
  int sz; T elem[SZ];
};

enum used_operators_e {
  OP_FULLY_CONNECTED, OP_SOFTMAX,  OP_LAST
};

struct TensorInfo_t { // subset of TfLiteTensor used for initialization from constant memory
  TfLiteAllocationType allocation_type;
  void* data;
  TfLiteIntArray* dims;
  size_t bytes;
};

typedef struct {
  TfLiteTensor tensor;
  int16_t index;
} TfLiteTensorWithIndex;

typedef struct {
  TfLiteEvalTensor tensor;
  int16_t index;
} TfLiteEvalTensorWithIndex;

TfLiteContext ctx{};
static const int MAX_TFL_TENSOR_COUNT = 4;
static TfLiteTensorWithIndex tflTensors[MAX_TFL_TENSOR_COUNT];
static const int MAX_TFL_EVAL_COUNT = 4;
static TfLiteEvalTensorWithIndex tflEvalTensors[MAX_TFL_EVAL_COUNT];
TfLiteRegistration registrations[OP_LAST];

namespace g0 {
const TfArray<2, int> tensor_dimension0 = { 2, { 1,222 } };
const ALIGN(16) float tensor_data1[20] = { -0.0041858414188027382, -0.057694260030984879, 0.026371287181973457, 0, -0.14308555424213409, -0.026126746088266373, 0.023607777431607246, -0.11404522508382797, -0.022094013169407845, -0.041713308542966843, -0.035753529518842697, 0.058993343263864517, 0.026266982778906822, -0.042869661003351212, 0.015789244323968887, -0.034345202147960663, 0.036595791578292847, -0.075973726809024811, -0.0431026890873909, 0.062298867851495743, };
const TfArray<1, int> tensor_dimension1 = { 1, { 20 } };
const ALIGN(16) float tensor_data2[40] = { -0.030738584697246552, -0.026893500238656998, -0.059705115854740143, 0.024303492158651352, -0.037494875490665436, 0, -0.037144225090742111, 0.012544086202979088, -0.013988128863275051, -0.025368900969624519, -0.052600279450416565, -0.048510760068893433, -0.01114996150135994, -0.037968836724758148, 0.0097262859344482422, -0.06354185938835144, 0.056550212204456329, -0.002313252305611968, -0.046113509684801102, -0.016699926927685738, -0.072236523032188416, 0.084488473832607269, -0.025544356554746628, -0.043284028768539429, -0.038529817014932632, -0.03924376517534256, -0.018863283097743988, -0.0034411144442856312, 0.00081254099495708942, -0.027779066935181618, -0.034971699118614197, 0.06470305472612381, -0.0079257814213633537, -0.048582371324300766, -0.025837572291493416, -0.039420872926712036, -0.016624430194497108, -0.037758730351924896, -0.0079614166170358658, -0.028614314272999763, };
const TfArray<1, int> tensor_dimension2 = { 1, { 40 } };
const ALIGN(16) float tensor_data3[4] = { 0.5388302206993103, -0.013664844445884228, 0.14372995495796204, -0.7275574803352356, };
const TfArray<1, int> tensor_dimension3 = { 1, { 4 } };
const ALIGN(16) float tensor_data4[40*222] = { 
  -0.043957743793725967, -0.030808791518211365, 0.042421087622642517, 0.0041961711831390858, 0.0053832335397601128, -0.075097791850566864, -0.19557200372219086, -0.10172991454601288, -0.047709688544273376, -0.15478406846523285, 0.059993218630552292, 0.068517580628395081, -0.19147945940494537, -0.11060042679309845, -0.13409808278083801, 0.01027230080217123, 0.069480143487453461, -0.16285897791385651, -0.11341448128223419, -0.035288136452436447, 0.05308837816119194, -0.13014718890190125, -0.1424691379070282, -0.064363136887550354, -0.10187426954507828, -0.038655564188957214, 0.055914193391799927, -0.14058931171894073, 0.1229761466383934, 0.13036681711673737, 0.056950923055410385, 0.01334407739341259, -0.022882595658302307, -0.010173224844038486, 0.12044990062713623, 0.021675970405340195, -0.096958152949810028, -0.072160117328166962, 0.16104011237621307, 0.036329615861177444, 0.011912041343748569, -0.059923335909843445, -0.087873667478561401, -0.20969755947589874, -0.17332181334495544, -0.013470994308590889, -0.14743255078792572, -0.092119857668876648, 0.06036391481757164, -0.19326582551002502, -0.083442427217960358, -0.035735901445150375, -0.097637169063091278, -0.10045120120048523, -0.11665286123752594, 0.091095127165317535, -0.014132387936115265, -0.093179807066917419, -0.08380618691444397, -0.1488577276468277, 0.065497398376464844, 0.019573606550693512, -0.15355095267295837, 0.075911276042461395, 0.1085781529545784, -0.13597247004508972, 0.12941741943359375, 0.12046189606189728, -0.0045644938945770264, -0.032408833503723145, 0.061165947467088699, -0.094673193991184235, -0.054545260965824127, -0.037724696099758148, -0.12927848100662231, -0.036050934344530106, -0.068299874663352966, 0.0085480501875281334, 0.073068201541900635, -0.21120099723339081, -0.0097687589004635811, -0.14728805422782898, -0.12877003848552704, -0.18084146082401276, 0.011276684701442719, -0.17441368103027344, -0.12339112162590027, -0.12098753452301025, 0.0098566245287656784, -0.18055330216884613, -0.074871554970741272, -0.21667708456516266, -0.050707004964351654, -0.12620635330677032, 0.02792905829846859, 0.097903870046138763, -0.019777802750468254, 0.032051004469394684, -0.13775396347045898, -0.1660696417093277, -0.079951249063014984, 0.097259216010570526, 0.006652340292930603, 0.071106992661952972, 0.023446051403880119, 0.10823836922645569, -0.057853765785694122, -0.079518899321556091, -0.071612648665904999, -0.071339026093482971, 0.019199753180146217, 0.036791950464248657, 0.083307839930057526, -0.026982842013239861, -0.18568891286849976, -0.073219805955886841, -0.11324254423379898, -0.17920723557472229, 0.079459652304649353, 0.063089430332183838, -0.11274445056915283, 0.020078215748071671, 0.057417150586843491, -0.13580811023712158, -0.11905988305807114, -0.0085738599300384521, -0.084922738373279572, -0.19481748342514038, -0.066515281796455383, -0.13194380700588226, -0.044522207230329514, -0.13195741176605225, -0.076057069003582001, -0.069782167673110962, 0.04757421463727951, 0.018429024145007133, -0.078316241502761841, -0.082292735576629639, -0.18790717422962189, -0.091790452599525452, 0.070576518774032593, -0.039354905486106873, -0.15187358856201172, -0.16364023089408875, -0.11943299323320389, -0.093062169849872589, -0.03424728661775589, 0.067540176212787628, -0.054307214915752411, 0.036134488880634308, 0.0020144644659012556, -0.013412208296358585, 0.031889814883470535, 0.088116176426410675, 0.0056131491437554359, -0.095503091812133789, -0.067792952060699463, -0.050346288830041885, -0.058420058339834213, -0.051705170422792435, 0.0051838066428899765, -0.054517939686775208, -0.024502547457814217, -0.079349532723426819, -0.061215739697217941, -0.1120477169752121, -0.18858864903450012, -0.073502637445926666, -0.081945888698101044, -0.18961237370967865, -0.18671099841594696, -0.006559120025485754, -0.11744388192892075, -0.15435144305229187, -0.024317573755979538, 0.046793665736913681, -0.17040504515171051, -0.019473735243082047, -0.079093925654888153, 0.019208963960409164, -0.094885751605033875, 0.016136681661009789, -0.00030684890225529671, -0.16540996730327606, -0.12878303229808807, -0.010915373452007771, 0.083091400563716888, 0.018018873408436775, -0.1848168671131134, 0.010735757648944855, 0.020171733573079109, -0.11044737696647644, 0.071648932993412018, -0.084634639322757721, 0.03701554611325264, 0.015604846179485321, -0.16650284826755524, -0.027443377301096916, -0.091234050691127777, -0.016278559342026711, -0.093186341226100922, -0.02069791778922081, -0.03712739422917366, 0.036384742707014084, -0.055853232741355896, -0.029381429776549339, -0.033164575695991516, -0.10452428460121155, 0.090662121772766113, 0.09183097630739212, 0.040868163108825684, -0.1516527384519577, 0.055453278124332428, 0.070706926286220551, -0.15948198735713959, 0.077565133571624756, 0.073910936713218689, -0.1874835193157196, 0.070030778646469116, -0.13427793979644775, -0.14083370566368103, -0.084208376705646515, 
  -0.17977331578731537, 0.13275833427906036, -0.10634814202785492, 0.022281870245933533, 0.042773626744747162, -0.10413958877325058, 0.017195520922541618, 0.081346206367015839, 0.11199023574590683, 0.15046429634094238, -0.028336511924862862, 0.14064833521842957, 0.076244734227657318, -0.021039275452494621, -0.045925382524728775, -0.029981467872858047, 0.13187615573406219, 0.11828707903623581, -0.10010930150747299, 0.052400492131710052, -0.051644191145896912, 0.16040870547294617, 0.10526099801063538, 0.13137897849082947, 0.031504437327384949, -0.11925111711025238, 0.024298163130879402, 0.0025883619673550129, -0.11630166321992874, 0.14701716601848602, -0.003976892214268446, -0.035300537943840027, -0.013412809930741787, 0.1370140016078949, 0.10986350476741791, 0.1605713963508606, 0.1171858012676239, -0.0043132887221872807, -0.032134249806404114, -0.026511028409004211, -0.047085009515285492, -0.10458249598741531, 0.060709096491336823, -0.035955894738435745, 0.0081215202808380127, 0.021176261827349663, 0.1127823144197464, -0.011635632254183292, -0.07126886397600174, 0.027823664247989655, 0.045845445245504379, 0.025016361847519875, -0.058309279382228851, 0.14615052938461304, 0.018226997926831245, -0.0029904835391789675, 0.18887880444526672, 0.0003209981950931251, 0.087961673736572266, -0.068017691373825073, 0.081164762377738953, -0.0047422032803297043, 0.11744573712348938, 0.041604887694120407, -0.078363470733165741, -0.010461818426847458, 0.12242958694696426, 0.18178029358386993, -0.04938323050737381, 0.021220831200480461, -0.099933743476867676, 0.026130188256502151, 0.052720338106155396, 0.12605153024196625, -0.098318345844745636, -0.014641998335719109, -0.10691022127866745, -0.08524477481842041, 0.060992345213890076, -0.099601157009601593, -0.10545595735311508, 0.056731142103672028, -0.15388466417789459, -0.14082325994968414, -0.15397903323173523, -0.051630165427923203, 0.04189218208193779, -0.028811711817979813, 0.066219374537467957, -0.070578105747699738, -0.074448980391025543, 0.083370864391326904, -0.019320160150527954, -0.0030161864124238491, 0.1034645214676857, 0.13134279847145081, 0.13580626249313354, -0.010752071626484394, -0.063252262771129608, -0.10897453129291534, 0.13364645838737488, -0.098107457160949707, -0.055159397423267365, 0.11228707432746887, 0.10312826931476593, -0.059103071689605713, 0.017947584390640259, -0.084548823535442352, 0.075337916612625122, 0.010635497979819775, -0.082704834640026093, -0.0015465803444385529, 0.069297276437282562, -0.077075771987438202, -0.092012323439121246, 0.1200905442237854, 0.085763044655323029, -0.12547165155410767, -0.02634415403008461, -0.053223341703414917, -0.17299638688564301, -0.0028626667335629463, -0.049638811498880386, -0.041956372559070587, 0.0096693532541394234, 0.023204900324344635, -0.021070655435323715, 0.11418511718511581, -0.089587680995464325, -0.15268711745738983, -0.18592831492424011, 0.09300580620765686, 0.054201610386371613, -0.1827075332403183, 0.092082597315311432, -0.12271925806999207, 0.050398465245962143, 0.10521136969327927, 0.058467064052820206, 0.010438114404678345, -0.13844604790210724, -0.011213012970983982, 0.0075999479740858078, 0.021639272570610046, 0.10507312417030334, -0.012610011734068394, -0.080559611320495605, -0.077971607446670532, -0.072464317083358765, 0.10239744186401367, 0.092935182154178619, -0.073166102170944214, 0.0018694191239774227, -0.11238089948892593, -0.1683243066072464, -0.0026466548442840576, 0.090278454124927521, 0.1014021709561348, 0.078262001276016235, -0.0076562967151403427, -0.072297222912311554, 0.0097800306975841522, 0.085384875535964966, 0.0025171574670821428, 0.068025946617126465, -0.10439859330654144, -0.049772091209888458, 0.057985030114650726, -0.088744156062602997, 0.079999469220638275, 0.086639828979969025, -0.052095226943492889, 0.00091210269602015615, -0.010378588922321796, -0.14873027801513672, 0.11244138330221176, 0.078092209994792938, 0.083214014768600464, -0.080041341483592987, -0.14887742698192596, -0.16357910633087158, 0.10627491772174835, -0.0949435755610466, 0.014304433017969131, -0.17185394465923309, -0.11071426421403885, 0.12174025923013687, -0.089684121310710907, -0.17081780731678009, 0.073701247572898865, -0.14408333599567413, -0.093581110239028931, 0.056852556765079498, -0.043118640780448914, -0.12307728826999664, -0.10138688981533051, -0.082955040037631989, 0.074420861899852753, 0.12267842888832092, -0.072661794722080231, 0.012136439792811871, -0.1173175722360611, -0.014236493036150932, -0.017500462010502815, -0.085524305701255798, 0.11096971482038498, -0.1362854540348053, -0.16583478450775146, -0.040209930390119553, -0.14361770451068878, -0.060370989143848419, 0.10534480959177017, -0.013911954127252102, -0.090192399919033051, -0.024532949551939964, 0.070770777761936188, -0.10816817730665207, 0.10409218817949295, 0.019813016057014465, 0.073867201805114746, 0.064323693513870239, -0.045423902571201324, 
  0.02883005328476429, -0.16557402908802032, 0.034137826412916183, 0.031966626644134521, 0.082918360829353333, -0.17105075716972351, -0.17174592614173889, -0.15112711489200592, -0.021177925169467926, -0.058117389678955078, 0.10094853490591049, 0.054214097559452057, 0.03275487944483757, 0.16946269571781158, -0.042378142476081848, -0.028714245185256004, 0.12730218470096588, 0.027685549110174179, -0.072401277720928192, 0.1437736451625824, 0.13002872467041016, -0.081128805875778198, 0.1105237752199173, -0.021121043711900711, 0.10837044566869736, 0.13348153233528137, 0.030151583254337311, 0.13480077683925629, 0.075074493885040283, 0.074481509625911713, 0.19498330354690552, 0.034774955362081528, 0.015114717185497284, 0.087662152945995331, 0.012729410082101822, 0.049309231340885162, 0.067534379661083221, -0.090520992875099182, -0.17284081876277924, -0.12583313882350922, 0.0047353561967611313, 0.00023387579130940139, -0.045506317168474197, -0.10044929385185242, -0.17804041504859924, -0.16334542632102966, -0.028364598751068115, 0.086481839418411255, -0.013350537978112698, 0.0021711222361773252, -0.19132985174655914, -0.12947124242782593, 0.013402887620031834, 0.095362961292266846, -7.1205729909706861e-05, -0.045343704521656036, 0.050901580601930618, -0.06728941947221756, 0.11539574712514877, 0.016996804624795914, -0.021214799955487251, 0.20266246795654297, 0.18713478744029999, 0.094892054796218872, -0.070605166256427765, 0.13840709626674652, 0.083915874361991882, 0.13239966332912445, -0.013450424186885357, 0.14310568571090698, 0.036669623106718063, 0.19373637437820435, -0.067890502512454987, -0.071314744651317596, -0.11837858706712723, 0.095075450837612152, -0.10438353568315506, 0.0026625022292137146, 0.031203614547848701, 0.059169735759496689, -0.047628745436668396, -0.027287110686302185, -0.065780863165855408, -0.12296461313962936, -0.11232096701860428, -0.17868557572364807, -0.050021093338727951, -0.10457827150821686, 0.035899952054023743, -0.12655456364154816, 0.053342811763286591, -0.018990622833371162, -0.066370770335197449, 0.11695656180381775, 0.12112221866846085, 0.065386377274990082, -0.0046073989942669868, 0.048766627907752991, 0.081661693751811981, -0.056099481880664825, 0.1853056401014328, 0.075865998864173889, -0.07420707494020462, 0.092738091945648193, -0.087883979082107544, 0.16255445778369904, -0.0031243155244737864, 0.14469893276691437, -0.080283351242542267, 0.18142548203468323, 0.042092982679605484, 0.0016442876076325774, -0.10346115380525589, -0.04065144807100296, -0.16022996604442596, -0.047890719026327133, -0.11822944134473801, 0.086490944027900696, 0.0326397605240345, 0.043023154139518738, -0.16327925026416779, -0.19634923338890076, -0.025286190211772919, -0.045369334518909454, 0.068897604942321777, -0.026010915637016296, 0.066591605544090271, 0.029127325862646103, -0.18374888598918915, -0.20877845585346222, -0.00048846227582544088, -0.046032637357711792, -0.12770429253578186, 0.037672765552997589, -0.0016357860295102, -0.0032123876735568047, 0.040733877569437027, -0.050614837557077408, -0.10242956131696701, -0.16142432391643524, 0.032198943197727203, -0.12529340386390686, -0.14962448179721832, -0.030171295627951622, 0.02897883765399456, -0.11546327173709869, 0.08297768235206604, 0.068214088678359985, 0.042868223041296005, 0.14736700057983398, 0.049348127096891403, -0.010966775938868523, -0.060826148837804794, -0.052692670375108719, 0.075628198683261871, -0.13916507363319397, -0.15059350430965424, 0.065099544823169708, 0.080436870455741882, -0.083167269825935364, -0.055094189941883087, -0.054192423820495605, 0.043913669884204865, -0.20989207923412323, -0.14956685900688171, -0.0085798269137740135, -0.026159880682826042, -0.12569102644920349, -0.15601988136768341, -0.077077262103557587, 0.06732216477394104, -0.088548220694065094, 0.059280328452587128, -0.0037848809733986855, 0.021698310971260071, -0.004300546832382679, 0.052425496280193329, -0.15109732747077942, -0.14053270220756531, 0.065074920654296875, -0.16861321032047272, -0.048923507332801819, -0.13527530431747437, -0.096802853047847748, -0.10857725888490677, -0.060111138969659805, -0.17296338081359863, -0.092065185308456421, -0.18454444408416748, -0.18276260793209076, -0.032545130699872971, -0.13679008185863495, -0.13208885490894318, -0.1438603401184082, -0.10912298411130905, -0.1825958639383316, -0.1569402813911438, -0.11279530823230743, 0.069417819380760193, -0.084799103438854218, 0.029929816722869873, 0.044197402894496918, 0.081826597452163696, 0.070349983870983124, -0.096638917922973633, -0.098665013909339905, -0.20960120856761932, 0.022909132763743401, -0.13688893616199493, -0.086488477885723114, 0.068714931607246399, -0.12736859917640686, -0.04491032287478447, -0.03447563573718071, -0.0020884699188172817, -0.0911678746342659, -0.064715780317783356, 0.083713121712207794, -0.070032961666584015, -0.086656048893928528, -0.17702899873256683, 0.086629778146743774, 
  -0.21621070802211761, -0.40737804770469666, -0.12756922841072083, 0.025474471971392632, 0.1232827827334404, 0.059985905885696411, -0.0024060108698904514, -0.0075054732151329517, -0.14606940746307373, 0.036698516458272934, -0.17711357772350311, -0.10136864334344864, 0.057076305150985718, -0.1129767969250679, 0.21341922879219055, -0.13664773106575012, 0.14030902087688446, 0.036139681935310364, 0.15918226540088654, -0.017083192244172096, -0.043763827532529831, -0.084942728281021118, 0.14471724629402161, -0.0024344786070287228, 0.1829911470413208, -0.087875470519065857, -0.063739389181137085, 0.00035747222136706114, -0.13694377243518829, -0.067641094326972961, 0.19459019601345062, 0.10064753890037537, -0.16793341934680939, 0.033850554376840591, -0.17607793211936951, 0.055701829493045807, -0.12692628800868988, 0.16502721607685089, 0.20339177548885345, 0.14839822053909302, 0.0038567371666431427, 0.015136131085455418, -0.032517861574888229, -0.005496160127222538, 0.080833636224269867, 0.095331370830535889, -0.10950802266597748, 0.14475494623184204, -0.22345010936260223, 0.048910379409790039, -0.13156047463417053, -0.010341999121010303, -0.045298490673303604, 0.036677088588476181, -0.014823581092059612, -0.20329438149929047, 0.12753249704837799, 0.056479223072528839, -0.18954238295555115, 0.090152859687805176, -0.083364658057689667, 0.084602050483226776, -0.2710360586643219, -0.10380766540765762, -0.0185701884329319, -0.12790709733963013, 0.0044219573028385639, -0.062285948544740677, -0.23009754717350006, -0.10839271545410156, -0.026217931881546974, -0.016002979129552841, 0.025306258350610733, -0.17559891939163208, -0.07020607590675354, -0.11296895891427994, 0.2736964225769043, -0.097424864768981934, 0.10833374410867691, -0.23013320565223694, -0.069422036409378052, 0.1225152313709259, -0.039802394807338715, 0.061644811183214188, 0.013656280003488064, -0.25189319252967834, -0.14510034024715424, -0.013860635459423065, 0.1499168872833252, 0.10104076564311981, -0.090745933353900909, 0.11910212785005569, -0.10093449801206589, -0.11649906635284424, -0.25208637118339539, -0.11405933648347855, -0.048350617289543152, -0.070274971425533295, -0.12958315014839172, -0.28747296333312988, -0.16642913222312927, -0.26981532573699951, -0.11380554735660553, -0.10342659801244736, -0.11250989139080048, -0.12889304757118225, -0.072321817278862, -0.20452918112277985, -0.19707511365413666, -0.16785553097724915, -0.10474500805139542, 0.077009357511997223, 0.10277418792247772, 0.10362640023231506, -0.10796916484832764, -0.049968913197517395, -0.16029277443885803, -0.11598484218120575, -0.036004111170768738, 0.15336558222770691, 0.017301375046372414, 0.099301591515541077, -0.11489932984113693, 0.011676163412630558, -0.1617242842912674, -0.10037596523761749, -0.040962714701890945, 0.0031652301549911499, -0.1195257380604744, 0.11314229667186737, -0.035241767764091492, 0.070191070437431335, -0.13380834460258484, 0.075991466641426086, -0.067130990326404572, 0.065795831382274628, 0.024480324238538742, -0.12882772088050842, 0.096494793891906738, -0.072912193834781647, 0.10149537771940231, 0.030421096831560135, 0.080878332257270813, 0.037583842873573303, -0.13909545540809631, -0.088778272271156311, -0.17871847748756409, -0.12061384320259094, 0.036403782665729523, 0.54713964462280273, -0.18953330814838409, -0.08083835244178772, -0.13989615440368652, -0.00051302171777933836, 0.14699922502040863, 0.10567626357078552, 0.10034827142953873, 0.20269384980201721, 0.097413912415504456, -0.14098222553730011, -0.11764603853225708, -0.11432943493127823, -0.00177265505772084, 0.081173688173294067, -0.078291833400726318, 0.12182055413722992, 0.030150700360536575, 0.0059443446807563305, 0.054870862513780594, 0.031208215281367302, 0.050896275788545609, -0.098672404885292053, 0.006757375318557024, -0.040804855525493622, -0.12156869471073151, 0.034219089895486832, -0.040648743510246277, 0.0011271694675087929, -0.030537229031324387, 0.042858056724071503, 0.023566221818327904, -0.093933269381523132, 0.03664034977555275, 0.050401754677295685, -0.14694833755493164, 0.034383371472358704, -0.83588433265686035, -0.061102215200662613, 0.0645003542304039, -0.11338625103235245, -0.16157728433609009, -0.14999198913574219, 0.018773198127746582, -0.079769633710384369, -0.0033344910480082035, 0.055200651288032532, -0.07598501443862915, -0.095517538487911224, 0.06484183669090271, 0.13006630539894104, -0.081233426928520203, 0.063827142119407654, -0.084605380892753601, -0.13071858882904053, 0.10380204766988754, 0.031373456120491028, 0.035984039306640625, -0.066549547016620636, -0.035747166723012924, 0.10604386031627655, -0.041454534977674484, -0.099039822816848755, 0.073432892560958862, -0.10603677481412888, -0.15500141680240631, -0.065454058349132538, -0.025379018858075142, 0.026543533429503441, -0.14286254346370697, -0.15677054226398468, -0.012666949070990086, 0.018990039825439453, 
  0.072942830622196198, 0.055409442633390427, -0.16891355812549591, 0.083792537450790405, -0.116985023021698, -0.021621782332658768, -0.071046419441699982, -0.070589333772659302, 0.12072169035673141, 0.021161224693059921, 0.016768289729952812, 0.0032242571469396353, -0.014055204577744007, 0.14161355793476105, -0.10463155806064606, 0.090503387153148651, 0.1557496190071106, -0.015289426781237125, -0.013829230330884457, 0.064495198428630829, 0.03772827610373497, -0.097736306488513947, 0.11646157503128052, 0.14318731427192688, 0.004516401793807745, 0.12844225764274597, -0.082409083843231201, -0.0071444138884544373, 0.12901769578456879, 0.16436341404914856, -0.094836853444576263, 0.16926249861717224, 0.041576448827981949, -0.030807400122284889, -0.11326532065868378, -0.095792695879936218, 0.13684076070785522, 0.015154553577303886, -0.0038140672259032726, -0.026544747874140739, 0.070230357348918915, 0.03108985535800457, 0.070436857640743256, 0.052814051508903503, 0.12098974734544754, -0.034837972372770309, 0.058212604373693466, 0.064588606357574463, 0.060542143881320953, -0.07823394238948822, 0.00025276653468608856, 0.067383699119091034, 0.16790756583213806, -0.10916534066200256, -0.067892350256443024, -0.063514009118080139, -0.055836591869592667, 0.088408112525939941, -0.02424989640712738, -0.046958602964878082, 0.1677338033914566, -0.053848352283239365, -0.094000756740570068, 0.1734999418258667, -0.035043139010667801, -0.013843344524502754, 0.0926966592669487, -0.00039866630686447024, 0.10962970554828644, -0.10456235706806183, 0.079135097563266754, 0.12809392809867859, 0.13361263275146484, 0.14792549610137939, -0.13998481631278992, -0.010153103619813919, -0.052601054310798645, 0.0287647545337677, 0.075349502265453339, 0.16478906571865082, -0.024358855560421944, -0.1034918874502182, -0.11253206431865692, 0.060055725276470184, 0.16811326146125793, -0.007588039617985487, -0.084821708500385284, 0.112245112657547, -0.02577560767531395, -0.016488444060087204, -0.031071845442056656, 0.081439822912216187, 0.067946307361125946, -0.043831169605255127, 0.14876346290111542, 0.15506851673126221, 0.091430038213729858, -0.029423609375953674, 0.021862458437681198, 0.036636225879192352, -0.068725690245628357, 0.051284842193126678, -0.073763728141784668, 0.0047669308260083199, -0.04716082289814949, 0.15223307907581329, 0.076871566474437714, 0.14818790555000305, 0.0076235095039010048, 0.10528305172920227, 0.058059435337781906, -0.011811188422143459, -0.041061282157897949, -0.025714011862874031, -0.10612352937459946, -0.11864820122718811, 0.07427351176738739, 0.15070889890193939, -0.05028509721159935, -0.036368012428283691, 0.16372524201869965, -0.1155896931886673, 0.11423978209495544, 0.09919179230928421, 0.16120024025440216, 0.1530294269323349, 0.081537917256355286, 0.028659138828516006, 0.11545549333095551, 0.093016065657138824, 0.0148714454844594, -0.10551821440458298, 0.11280291527509689, -0.10828591883182526, -0.04342024028301239, 0.055455472320318222, -0.056714992970228195, -0.080602817237377167, 0.050330027937889099, 0.087762057781219482, 0.15179157257080078, 0.04829835519194603, 0.081554308533668518, -0.013774490915238857, 0.10677682608366013, 0.081967584788799286, -0.089008159935474396, 0.12368709594011307, -0.16562472283840179, -0.070508033037185669, 0.032139096409082413, -0.065133094787597656, -0.039724599570035934, -0.1118510365486145, -0.072711363434791565, -0.075104787945747375, -0.027380574494600296, 0.0098724393174052238, 0.073530197143554688, 0.13744783401489258, -0.10168133676052094, 0.1122538149356842, -0.040581580251455307, -0.096778765320777893, 0.16872316598892212, -0.026205848902463913, -0.11599789559841156, -0.029535766690969467, -0.06932840496301651, 0.0035405177623033524, 0.054227154701948166, -0.014354407787322998, 0.16573652625083923, -0.014863702468574047, 0.13221621513366699, -0.053542241454124451, -0.12850719690322876, 0.17019343376159668, 0.13439571857452393, -0.0584239661693573, -0.11950383335351944, -0.081772714853286743, 0.010355599224567413, -0.12921404838562012, 0.028234127908945084, -0.11809252202510834, -0.14851740002632141, -0.060796555131673813, -0.073839709162712097, -0.003927694633603096, 0.044977787882089615, -0.014971214346587658, -0.11102890223264694, 0.020556250587105751, -0.0022024016361683607, 0.059361953288316727, 0.16553735733032227, -0.098383903503417969, -0.020474115386605263, 0.094343818724155426, 0.1571112722158432, 0.017670899629592896, -0.042168319225311279, 0.055671852082014084, -0.10496588796377182, 0.084756761789321899, 0.066927947103977203, -0.10864581912755966, 0.10973408818244934, -0.021666983142495155, 0.026298824697732925, 0.050617046654224396, 0.16166603565216064, 0.15224970877170563, 0.050140298902988434, -0.06826503574848175, -0.045303039252758026, 0.0054095648229122162, 0.075036786496639252, 0.032736171036958694, 0.010628117248415947, 0.0097158914431929588, 
  -0.044691786170005798, 0.026497066020965576, -0.050568729639053345, 0.014500617980957031, -0.058104589581489563, -0.13956642150878906, -0.14767418801784515, 0.02616061270236969, -0.13518062233924866, -0.046115495264530182, -0.11650384217500687, -0.014335870742797852, 0.10947500169277191, 0.040808111429214478, -0.071076996624469757, -0.029084749519824982, 0.11571304500102997, 0.034397467970848083, 0.10187198221683502, 0.061082407832145691, 0.10254649817943573, -0.10327580571174622, 0.02550525963306427, -0.11157706379890442, -0.0045757293701171875, 0.13151715695858002, 0.049489080905914307, 0.066244393587112427, 0.050444826483726501, 0.084320008754730225, 0.038575991988182068, 0.098220318555831909, -0.041309945285320282, -0.054598525166511536, 0.12942396104335785, 0.13943295180797577, 0.1021035760641098, -0.1489371657371521, -0.017766237258911133, 0.095244824886322021, -0.11637149751186371, -0.074193648993968964, -0.012618064880371094, 0.04358208179473877, 0.14773021638393402, 0.018027201294898987, -0.091867700219154358, 0.0060626417398452759, -0.018233329057693481, -0.0025637596845626831, -0.020496577024459839, 0.12072257697582245, 0.032531961798667908, 0.1457241028547287, 0.051269695162773132, -0.015473499894142151, 0.0446443110704422, 0.10507889091968536, 0.073090255260467529, 0.040312841534614563, -0.1480056494474411, -0.11554880440235138, 0.0059636086225509644, -0.024234890937805176, -0.072560966014862061, 0.011456474661827087, -0.094870015978813171, 0.029599785804748535, 0.066189408302307129, 0.1152312308549881, 0.082045421004295349, 0.00044706463813781738, 0.022542595863342285, 0.13185606896877289, 0.12985603511333466, 0.11377303302288055, 0.051735192537307739, 0.10505534708499908, -0.046639882028102875, -0.059159524738788605, 0.085038796067237854, 0.075215116143226624, 0.098090767860412598, 0.14352543652057648, 0.08274686336517334, -0.0082774758338928223, -0.12649515271186829, -0.12441442906856537, -0.11640321463346481, 0.14583165943622589, 0.12484221160411835, -0.14525231719017029, -0.021609857678413391, 0.0057903826236724854, 0.14842928946018219, -0.077908433973789215, 0.074845001101493835, 0.036958202719688416, 0.13562797009944916, 0.10648484528064728, -0.016111582517623901, 0.1026185005903244, -0.13443954288959503, -0.11418065428733826, 0.025964230298995972, 0.060591205954551697, -0.058904297649860382, 0.093257173895835876, -0.095985144376754761, 0.032370254397392273, -0.093661025166511536, -0.050154604017734528, 0.11365069448947906, -0.13907667994499207, -0.10698264837265015, -0.019741177558898926, 0.067352727055549622, -0.13372267782688141, 0.03718237578868866, -0.07791774719953537, 0.1064830869436264, 0.035227313637733459, 0.053225144743919373, 0.13353826105594635, -0.066569790244102478, 0.060079857707023621, 0.059828594326972961, 0.013610810041427612, 0.017459601163864136, 0.08424532413482666, -0.11844555288553238, -0.053982928395271301, -0.018111303448677063, -0.14187063276767731, 0.066067889332771301, 0.015918150544166565, 0.12129051983356476, 0.012534365057945251, -0.035092301666736603, 0.14217881858348846, -0.10194005072116852, -0.13894826173782349, 0.04822404682636261, -0.076892934739589691, -0.0096098035573959351, 0.043924257159233093, -0.11490102857351303, -0.017222553491592407, -0.12178856879472733, -0.13567106425762177, -0.12202940136194229, 0.14969010651111603, -0.052553340792655945, -0.15015688538551331, -0.10363595187664032, 0.14916731417179108, -0.00066769123077392578, -0.10048729181289673, -0.041379287838935852, -0.0075395703315734863, 0.069960609078407288, 0.099819645285606384, 0.11156342923641205, -0.01662774384021759, -0.0060178637504577637, 0.046252384781837463, 0.09110945463180542, 0.12402324378490448, -0.0065853297710418701, 0.081659302115440369, -0.016990840435028076, 0.016274124383926392, -0.11232470721006393, 0.14430452883243561, 0.13647754490375519, -0.018998980522155762, 0.063781112432479858, 0.0023742765188217163, -0.034468367695808411, -0.15079975128173828, -0.022851258516311646, -0.020445063710212708, 0.082953453063964844, 0.025595888495445251, -0.04435710608959198, 0.055158123373985291, -0.087030656635761261, 0.12522141635417938, 0.13687624037265778, -0.048891842365264893, -0.093989640474319458, -0.12678346037864685, -0.13254322111606598, 0.078268155455589294, 0.057282537221908569, 0.13351847231388092, 0.07574068009853363, -0.042386136949062347, 0.084693804383277893, -0.095827147364616394, 0.13112254440784454, 0.051138103008270264, -0.089648358523845673, -0.058867715299129486, 0.038939684629440308, 0.14538969099521637, 0.03326907753944397, 0.0046351850032806396, -0.052318677306175232, -0.0047795027494430542, 0.12717144191265106, 0.065048053860664368, -0.12376177310943604, 0.14228196442127228, 0.019507095217704773, -0.028847344219684601, 0.10422618687152863, -0.064014330506324768, -0.1103803962469101, 0.12632004916667938, -0.013279423117637634, -0.058451607823371887, 
  -0.14077214896678925, 0.098121054470539093, 0.76176756620407104, -0.12532909214496613, -0.1791270524263382, 0.064355440437793732, -0.21104417741298676, -0.099865950644016266, -0.17391568422317505, -0.080684013664722443, -0.13113369047641754, -0.24706104397773743, 0.013455329462885857, 0.19813250005245209, 0.1080089807510376, 0.15684722363948822, -0.00033493642695248127, -0.24630555510520935, -0.097348332405090332, 0.033823017030954361, 0.045573603361845016, 0.071250461041927338, -0.082078419625759125, 0.086547806859016418, 0.021356245502829552, -0.033484894782304764, -0.067912198603153229, 0.05218331515789032, 0.066398501396179199, 0.096769243478775024, -0.077636778354644775, 0.10463734716176987, 0.10601023584604263, -0.22111997008323669, -0.12325772643089294, 0.044869828969240189, -0.008143124170601368, -0.022853845730423927, 0.17025631666183472, -0.17755290865898132, 0.15640120208263397, 0.14726637303829193, -0.064228154718875885, 0.0054399543441832066, -0.10880887508392334, -0.076716460287570953, -0.21145008504390717, -0.1376509815454483, -0.0044513009488582611, -0.14451155066490173, -0.031861521303653717, 0.26298710703849792, -0.015570720657706261, 0.037893213331699371, -0.1246635913848877, 0.010834500193595886, 0.099887177348136902, 0.24635674059391022, 0.17729164659976959, 0.086889021098613739, 0.17472025752067566, -0.13060680031776428, -0.0428016297519207, 0.10368585586547852, 0.19568687677383423, 0.14855228364467621, 0.23873317241668701, 0.26320171356201172, -0.073931865394115448, 0.23560354113578796, 0.25405243039131165, 0.077469192445278168, -0.047200296074151993, 0.15165075659751892, -0.0064051840454339981, -0.64992392063140869, -0.092752732336521149, 0.031876817345619202, 0.16936047375202179, 0.14534296095371246, -0.028971267864108086, -0.15582650899887085, -0.078387252986431122, -0.20756827294826508, -0.13281606137752533, -0.29006916284561157, -0.12324389070272446, -0.0052350335754454136, -0.26475408673286438, 0.16927725076675415, 0.091526731848716736, -0.018429690971970558, 0.040108285844326019, 0.048073787242174149, 0.10361102968454361, 0.31804856657981873, 0.26473388075828552, 0.031183946877717972, 0.29307162761688232, 0.12763294577598572, 0.094196006655693054, 0.021221058443188667, 0.082026876509189606, 0.29390212893486023, 0.19411732256412506, 0.053652040660381317, 0.11315520107746124, -0.14533330500125885, 0.030585326254367828, 0.12137679755687714, 0.058520399034023285, 0.050611577928066254, 1.0142784118652344, 0.37465360760688782, 0.23025941848754883, 0.074920319020748138, 0.17375193536281586, -0.098553359508514404, -0.029745209962129593, -0.1048261970281601, -0.11365063488483429, 0.0064077754504978657, -0.16039562225341797, -0.0075788847170770168, 0.081728145480155945, -0.18754637241363525, -0.082772836089134216, -0.1102292537689209, 0.099357180297374725, 0.10040224343538284, 0.11798634380102158, -0.17771397531032562, 0.11221782118082047, -0.1589042991399765, 0.052174076437950134, -0.13414774835109711, -0.080337986350059509, 0.09488370269536972, -0.070281490683555603, -0.1038900762796402, 0.1394575834274292, 0.18219742178916931, -0.073672562837600708, 0.12996801733970642, 0.00034272170159965754, 0.029252881184220314, 0.014975240454077721, -0.043436441570520401, 0.035981021821498871, -0.010343974456191063, -0.4700663685798645, -0.066033072769641876, 0.15520480275154114, -0.0006326709408313036, -0.14761888980865479, -0.11594314128160477, -0.17707546055316925, -0.044971365481615067, -0.029169857501983643, -0.084863565862178802, -0.054932966828346252, 0.076648935675621033, -0.060046892613172531, 0.097296670079231262, -0.09829847514629364, 0.081129707396030426, 0.058005552738904953, -0.04392702504992485, 0.070872530341148376, -0.015906251966953278, 0.056327391415834427, 0.15089528262615204, 0.28870216012001038, 0.037894316017627716, 0.099879220128059387, 0.18639165163040161, 0.1726670116186142, 0.031976766884326935, 0.10876686125993729, -0.016856066882610321, 0.038324072957038879, -0.073711380362510681, -0.11093172430992126, 0.057724349200725555, 0.18341808021068573, -0.089658603072166443, -0.59213244915008545, -0.257170170545578, -0.048902396112680435, 0.2050081342458725, -0.08503018319606781, -0.029176747426390648, 0.025665283203125, 0.078752376139163971, -0.12784986197948456, -0.071465373039245605, 0.019894730299711227, -0.014612509869039059, 0.064124129712581635, -0.099517486989498138, 0.046368986368179321, -0.09602963924407959, 0.12387165427207947, 0.15756276249885559, -0.0058499742299318314, 0.13826349377632141, -0.019298223778605461, 0.13422311842441559, -0.065813340246677399, 0.097389630973339081, 0.073746807873249054, 0.17836655676364899, -0.096938923001289368, -0.040453318506479263, 0.020706092938780785, 0.10725288838148117, -0.048729199916124344, -0.034556876868009567, -0.045754391700029373, 0.19454073905944824, -0.028828781098127365, 0.026046574115753174, 
  -0.027571083977818489, -0.15019345283508301, 0.46453705430030823, 0.030798045918345451, -0.10126186907291412, 0.056945078074932098, -0.26847907900810242, -0.24930271506309509, -0.15172450244426727, -0.2977275550365448, -0.028058718889951706, -0.21101735532283783, -0.087311550974845886, -0.13690078258514404, -0.19117277860641479, -0.20821455121040344, -0.15318277478218079, -0.36796548962593079, -0.067780584096908569, 0.11494364589452744, 0.0091947289183735847, 0.069097474217414856, -0.015433403663337231, -0.041404642164707184, -0.079045258462429047, -0.14211945235729218, -0.039573796093463898, -0.083199702203273773, -0.11198485642671585, 0.094696827232837677, -0.047540865838527679, 0.01864059641957283, 0.030527012422680855, -0.11257150024175644, -0.15773612260818481, -0.11989025771617889, 0.053858723491430283, 0.068192467093467712, 0.10421895980834961, -0.33101958036422729, 0.16234096884727478, 0.084680885076522827, 0.10845183581113815, 0.0219527967274189, 0.088288843631744385, 0.020015399903059006, -0.1621038019657135, -0.17301087081432343, 0.033372633159160614, 0.041501797735691071, 0.018349830061197281, 0.37534609436988831, 0.052226118743419647, 0.18157719075679779, 0.0078806383535265923, 0.014908500015735626, 0.23512054979801178, 0.5335199236869812, 0.40149736404418945, 0.2923000156879425, 0.50203233957290649, 0.12615147233009338, 0.082492560148239136, 0.16235081851482391, 0.36590901017189026, 0.2447296530008316, 0.47151023149490356, 0.12000216543674469, 0.099975265562534332, 0.17855654656887054, 0.21795810759067535, 0.3466435968875885, 0.27201583981513977, 0.090180017054080963, -0.033778596669435501, -0.22967468202114105, 0.24255231022834778, 0.068791523575782776, -0.10253002494573593, -0.070287503302097321, -0.13518205285072327, -0.0071938927285373211, -0.16765625774860382, -0.1049429327249527, -0.34431344270706177, -0.038723010569810867, -0.27642485499382019, -0.049986585974693298, 0.092024415731430054, 0.29567554593086243, -0.040700826793909073, -0.0250861756503582, 0.0037690582685172558, -0.071022436022758484, 0.2538568377494812, 0.031562983989715576, 0.21066242456436157, 0.08621244877576828, 0.20927836000919342, -0.061022389680147171, 0.06349848210811615, -0.25109228491783142, 0.031244216486811638, -0.0023234107065945864, -0.070358209311962128, 0.041038200259208679, -0.24426132440567017, -0.14660483598709106, 0.15633173286914825, 0.16077123582363129, -0.19600017368793488, -0.04437670111656189, 0.50028938055038452, 0.015015791170299053, -0.079711101949214935, 0.055945392698049545, -0.08096805214881897, -0.052974507212638855, 0.055607225745916367, 0.070593610405921936, 0.063944496214389801, -0.057059459388256073, 0.070583567023277283, -0.18304811418056488, -0.16563926637172699, -0.018330922350287437, -0.11026338487863541, -0.019461924210190773, -0.10323768109083176, -0.15929752588272095, -0.17098110914230347, 0.038206808269023895, -0.14031767845153809, 0.01492784172296524, 0.025121690705418587, -0.0039716269820928574, -0.079964779317378998, 0.014812064357101917, -0.23691552877426147, -0.08578193187713623, -0.025495760142803192, 0.084098570048809052, 0.0804862380027771, -0.052967943251132965, 0.08355124294757843, 0.04598887637257576, -0.13715380430221558, -0.10466668009757996, -0.042996235191822052, 0.60354137420654297, -0.57601690292358398, 0.14939944446086884, 0.13278207182884216, 0.033842917531728745, 0.017079021781682968, -0.046146988868713379, 0.099238522350788116, -0.13421304523944855, 0.081687137484550476, -0.15797877311706543, 0.065620921552181244, 0.064364150166511536, -0.060866445302963257, -0.072791457176208496, 0.084727853536605835, 0.10115014761686325, 0.032427195459604263, 0.15781380236148834, 0.067916207015514374, 0.11106450110673904, 0.21112717688083649, 0.096429720520973206, 0.14507144689559937, 0.089751049876213074, 0.062768027186393738, 0.13458181917667389, 0.2120373547077179, 0.0039398209191858768, -0.078811913728713989, -0.046776913106441498, 0.15744400024414062, 0.18467386066913605, -0.0039332672022283077, -0.1042117103934288, 0.010841084644198418, 0.13511757552623749, -1.0455389022827148, -0.65529972314834595, 0.10798154026269913, -0.0034503075294196606, 0.064250364899635315, -0.12310824543237686, 0.037999857217073441, 0.066199950873851776, -0.10244126617908478, 0.14919726550579071, 0.023192921653389931, 0.10892196744680405, 0.057499736547470093, 0.10033381730318069, -0.020145321264863014, -0.099451333284378052, 0.10719825327396393, 0.010532056912779808, -0.094027511775493622, 0.077900461852550507, 0.066956385970115662, -0.10965747386217117, 0.048646889626979828, 0.036729488521814346, -0.12949879467487335, 0.1886972188949585, 0.038157109171152115, -0.081735946238040924, -0.051358278840780258, -0.061188351362943649, -0.014538925141096115, 0.016911368817090988, 0.058826155960559845, -0.059695526957511902, -0.040633104741573334, 0.041562110185623169, 
  0.046623494476079941, 0.061756771057844162, -0.02745884470641613, -0.047002345323562622, -0.055788543075323105, -0.023127056658267975, 0.039301559329032898, -0.0084419324994087219, 0.056020073592662811, 0.13614287972450256, 0.10855896025896072, 0.11026123911142349, 0.10185312479734421, 0.13144212961196899, 0.18958914279937744, 0.11085040122270584, 0.047220632433891296, -0.085572108626365662, -0.10731164366006851, -0.064134702086448669, -0.054399941116571426, -0.12817467749118805, -0.10060866177082062, -0.0016250238986685872, -0.053020086139440536, -0.127642422914505, 0.12792907655239105, 0.090852834284305573, 0.00099541852250695229, -0.02953755110502243, 0.079336479306221008, 0.10105544328689575, -0.0069531388580799103, 0.11397932469844818, 0.08429601788520813, -0.07498844712972641, 0.014675009064376354, -0.10648434609174728, -0.13644970953464508, -0.14772187173366547, -0.11723750829696655, -0.18661387264728546, 0.068066313862800598, -0.05846303328871727, 0.050372447818517685, -0.026451785117387772, -0.16672007739543915, 0.064390860497951508, 0.080446235835552216, 0.012610302306711674, -0.15663871169090271, -0.094101808965206146, -0.062867246568202972, -0.093152791261672974, -0.053028732538223267, -0.20145080983638763, -0.097006820142269135, -0.029349111020565033, -0.096202090382575989, -0.0023647418711334467, -0.098589859902858734, -0.12162909656763077, 0.0011051873443648219, -0.085159614682197571, -0.24965700507164001, -0.26677423715591431, -0.25206366181373596, -0.15766488015651703, -0.18478462100028992, -0.072203978896141052, 0.02943074144423008, 0.013713506050407887, -0.24665425717830658, -0.056588232517242432, -0.15302768349647522, 0.18616946041584015, -0.092521972954273224, -0.093151979148387909, -0.15861953794956207, 0.027359707280993462, 0.048988360911607742, 0.00608470244333148, -0.034851275384426117, -0.13350144028663635, 0.011069789528846741, 0.10207302868366241, -0.0066204308532178402, 0.077484384179115295, 0.11640078574419022, -0.16226346790790558, -0.16994421184062958, -0.14967170357704163, -0.026316067203879356, -0.15462228655815125, -0.15143431723117828, 0.067803733050823212, -0.011545287445187569, -0.066148824989795685, -0.019784210249781609, -0.14406795799732208, 0.1029636561870575, -0.11996185779571533, 0.051917657256126404, 0.0064336252398788929, 0.092279106378555298, 0.11637214571237564, -0.12124290317296982, 0.097339741885662079, 0.14173950254917145, -0.14623883366584778, 0.081611111760139465, 0.021451013162732124, -0.068478807806968689, -0.026670161634683609, 0.05650889128446579, -0.00076936552068218589, -0.089847542345523834, 0.031656764447689056, -0.0317881740629673, 0.075043037533760071, -0.013695361092686653, 0.13576006889343262, 0.10347668826580048, 0.0058096670545637608, 0.11913765221834183, 0.040020771324634552, 0.12382505089044571, -0.084172531962394714, -0.1303362250328064, 0.1236187145113945, 0.081828966736793518, -0.015723107382655144, 0.099204517900943756, -0.069272838532924652, -0.15156382322311401, 0.13797102868556976, 0.0083159022033214569, 0.091275662183761597, -0.11361784487962723, -0.14553141593933105, -0.095465444028377533, -0.061301447451114655, 0.13286837935447693, 0.013294711709022522, -0.13129939138889313, 0.066714391112327576, 0.13441383838653564, 0.010537137277424335, 0.093399889767169952, -0.011555510573089123, 0.05555189773440361, 0.018295437097549438, -0.089781135320663452, -0.16817891597747803, -0.074591264128684998, -0.076438747346401215, 0.066065050661563873, -0.1159851998090744, -0.13814084231853485, -0.07894451916217804, 0.10906898230314255, 0.11301955580711365, -0.013060894794762135, -0.11950881779193878, 0.035272534936666489, 0.042272184044122696, 0.072017937898635864, -0.14400516450405121, 0.066298164427280426, -0.13743002712726593, 0.14741696417331696, -0.10105473548173904, 0.064758516848087311, -0.066961862146854401, -0.0057753250002861023, 0.065250277519226074, 0.067556612193584442, 0.11255556344985962, -0.13613258302211761, -0.07890869677066803, 0.11740872263908386, -0.085353508591651917, 0.041409850120544434, 0.14829730987548828, -0.013491274788975716, -0.15061880648136139, -0.2461288720369339, -0.12355450540781021, 0.041637364774942398, -0.20478421449661255, 0.041296247392892838, 0.12671174108982086, 0.087776757776737213, 0.1136709451675415, 0.10866580158472061, 0.049024075269699097, 0.098243124783039093, -0.078232213854789734, 0.064961403608322144, -0.010144056752324104, -0.088656097650527954, -0.056783515959978104, -0.16372518241405487, 0.10144580155611038, 0.092286102473735809, -0.0028074004221707582, -0.13303440809249878, -0.030664034187793732, -0.16819782555103302, 0.037190765142440796, 0.037993509322404861, -0.095295242965221405, 0.0049688983708620071, -0.13659894466400146, -0.002660227008163929, 0.09949195384979248, 0.050845250487327576, 0.11261836439371109, 0.10967203229665756, -0.1485854834318161, 0.10239572823047638, -0.045261044055223465, 
  -0.1402260959148407, -0.15109653770923615, -0.11224518716335297, -0.16231431066989899, -0.10775047540664673, -0.10268763452768326, -0.12515123188495636, -0.070349507033824921, 0.0092166969552636147, 0.13135117292404175, -0.0057121566496789455, 0.054808560758829117, 0.17628860473632812, 0.033478032797574997, 0.021367480978369713, -0.040572941303253174, -0.083958141505718231, 0.13090971112251282, 0.12707261741161346, 0.0038040084764361382, 0.059409026056528091, -0.055943090468645096, -0.038081500679254532, 0.12245672196149826, 0.15444175899028778, 0.10292095690965652, -0.11916851252317429, -0.063988648355007172, 0.10965518653392792, -0.11108497530221939, -0.10835830867290497, -0.078649349510669708, 0.027299633249640465, -0.11539624631404877, -0.077363550662994385, -0.068783201277256012, 0.15555180609226227, -0.041953984647989273, 0.11292640119791031, -0.17480877041816711, 0.049916774034500122, -0.15299379825592041, -0.08128838986158371, -0.077508479356765747, 0.097321882843971252, 0.1444743424654007, -0.016567252576351166, 0.042525198310613632, 0.021341493353247643, -0.089916452765464783, 0.11885610222816467, -0.10361123830080032, 0.046678759157657623, -0.12541329860687256, 0.086012892425060272, 0.096524804830551147, -0.038036886602640152, 0.15312935411930084, 0.14402277767658234, 0.12572470307350159, 0.14406470954418182, -0.047336198389530182, -0.056976452469825745, 0.13209669291973114, -0.049542035907506943, -0.043608762323856354, -0.029322776943445206, -0.10153400897979736, 0.15683597326278687, 0.049492418766021729, 0.14097677171230316, 0.080436691641807556, 0.041158579289913177, 0.16219629347324371, -0.16394355893135071, -0.1728455126285553, -0.10039842873811722, 0.10330899059772491, -0.1471869945526123, -0.10412921756505966, -0.0076916469261050224, 0.090473242104053497, 0.030498815700411797, -0.032045800238847733, 0.015557423233985901, 0.054691080003976822, 0.12302212417125702, -0.11290717124938965, 0.035457536578178406, 0.13373559713363647, -0.12575052678585052, 0.10557923465967178, 0.092659622430801392, 0.17169660329818726, -0.0060435566119849682, 0.038318920880556107, -0.041032496839761734, 0.047808226197957993, -0.034935407340526581, -0.11862809211015701, 0.10096891224384308, -0.072590269148349762, 0.083919376134872437, 0.13231396675109863, 0.14421850442886353, 0.033563293516635895, 0.050611622631549835, 0.058317091315984726, 0.10655208677053452, 0.11778009682893753, 0.058814723044633865, -0.16605980694293976, -0.12024189531803131, -0.034371215850114822, -0.014791832305490971, -0.14575441181659698, -0.017550049349665642, -0.053564395755529404, 0.16460871696472168, -0.03038354404270649, -0.024706602096557617, 0.09921642392873764, 0.099217981100082397, -0.0088281575590372086, 0.067200310528278351, -0.025008687749505043, 0.015215866267681122, 0.093011416494846344, -0.07088654488325119, 0.15911771357059479, 0.16103193163871765, 0.11101310700178146, 0.14327684044837952, 0.013731907121837139, -0.0083577856421470642, -0.039041224867105484, 0.17034740746021271, 0.064319632947444916, 0.076512612402439117, 0.15323933959007263, -0.12025829404592514, 0.007570391520857811, 0.062946110963821411, -0.089241825044155121, 0.013707021251320839, 0.056822158396244049, 0.038186457008123398, -0.022902511060237885, -0.1325293630361557, -0.051443219184875488, 0.10998915880918503, 0.071769110858440399, 0.094054676592350006, -0.13127858936786652, -0.048829663544893265, -0.030028365552425385, 0.038373585790395737, -0.032090850174427032, -0.03255775198340416, -0.12237884104251862, -0.094968199729919434, -0.081793822348117828, 0.053746245801448822, 0.013678226619958878, 0.051859468221664429, -0.096755646169185638, -0.0072602289728820324, 0.020124297589063644, -0.086760297417640686, 0.019204072654247284, 0.034536469727754593, -0.067821957170963287, -0.099631838500499725, 0.051137853413820267, -0.13115212321281433, -0.063190743327140808, 0.10561379045248032, 0.018289064988493919, -0.083234213292598724, 0.054860692471265793, 0.062973715364933014, 0.065596155822277069, 0.075934797525405884, 0.14765512943267822, 0.1370299756526947, -0.10105038434267044, -0.093419395387172699, -0.036108586937189102, -0.03020627424120903, 0.10744057595729828, 0.090704828500747681, -0.11253541707992554, 0.14702774584293365, -0.062217973172664642, -0.013271201401948929, 0.073022067546844482, -0.099484317004680634, 0.1089169830083847, -0.028080370277166367, -0.022180378437042236, -0.11623895168304443, 0.12956131994724274, -0.095320373773574829, 0.087595216929912567, 0.095335818827152252, -0.01047358475625515, 0.12813316285610199, 0.12736521661281586, 0.16536916792392731, -0.089234478771686554, 0.0062523428350687027, -0.081978917121887207, 0.08597777783870697, 0.0015071185771375895, 0.079498648643493652, 0.078669100999832153, -0.063475221395492554, -0.014563553035259247, 0.1588170975446701, 0.13255918025970459, 0.10976828634738922, -0.047230057418346405, 
  0.09591655433177948, 0.041838362812995911, -0.159412682056427, 0.035637523978948593, -0.060119140893220901, -0.15104383230209351, 0.0033884481526911259, 0.033764626830816269, -0.038051038980484009, 0.017900066450238228, -0.15577591955661774, -0.15164536237716675, 0.11786088347434998, -0.065912730991840363, 0.11567062139511108, -0.11926095187664032, -0.085137143731117249, 0.20158299803733826, 0.0023676049895584583, -0.056455891579389572, 0.11927986145019531, 0.077744781970977783, 0.019380375742912292, 0.078325644135475159, 0.15963301062583923, 0.023193586617708206, 0.03992200642824173, 0.17645187675952911, -0.027018936350941658, 0.1044071763753891, 0.10982448607683182, 0.16627968847751617, 0.10712738335132599, -0.066497683525085449, 0.13810998201370239, 0.18600380420684814, 0.033034287393093109, -0.051071476191282272, 0.0032728731166571379, -0.0086554856970906258, -0.1139836460351944, -0.0043402407318353653, -0.10298661142587662, -0.091551750898361206, -0.095021098852157593, -0.039906896650791168, 0.033511601388454437, -0.048486039042472839, -0.10670586675405502, -0.14745007455348969, 0.1274915486574173, 0.068950735032558441, 0.092024579644203186, 0.036284733563661575, 0.15279263257980347, 0.010332532227039337, 0.10100919753313065, -0.098195739090442657, 0.019340226426720619, -0.001508982852101326, -0.029050629585981369, -0.025230621919035912, 0.17338395118713379, -0.063531450927257538, 0.13667541742324829, 0.14442212879657745, -0.053526241332292557, 0.10971392691135406, 0.025234894827008247, 0.20031265914440155, -0.010587508790194988, -0.022609658539295197, 0.035403136163949966, 0.025025207549333572, 0.012557327747344971, -0.0081622861325740814, 0.032069027423858643, -0.13230521976947784, -0.10976617783308029, -0.06318509578704834, 0.083677172660827637, 0.079196050763130188, -0.045106623321771622, 0.0047987406142055988, -0.037509944289922714, 0.074896618723869324, -0.094095416367053986, 0.098235540091991425, 0.036596417427062988, 0.043509062379598618, 0.033969804644584656, 0.061263885349035263, -0.027388326823711395, -0.12462066859006882, 0.15275488793849945, -0.088856890797615051, 0.11254601180553436, 0.017054690048098564, -0.020488189533352852, -0.12070095539093018, 0.070079676806926727, 0.085794225335121155, -0.012355197221040726, 0.06280236691236496, 0.077859438955783844, 0.036242760717868805, 0.14875748753547668, 0.073861546814441681, -0.065978497266769409, 0.077348530292510986, 0.030794575810432434, -0.098847068846225739, 0.00036604248452931643, 0.078719556331634521, -0.11523827910423279, -0.095098860561847687, -0.054440274834632874, -0.18190155923366547, 0.011225579306483269, -0.028536463156342506, -0.096815697848796844, -0.13395461440086365, 0.053690727800130844, -0.1386442631483078, -0.12099622935056686, 0.013189748860895634, -0.17752484977245331, -0.079942010343074799, -0.050112761557102203, -0.097270593047142029, -0.18027785420417786, -0.038877815008163452, 0.043208077549934387, -0.076757423579692841, -0.13824358582496643, 0.072264134883880615, -0.17236872017383575, 0.039212793111801147, -0.028493974357843399, 0.080433055758476257, -0.024502895772457123, -0.079149521887302399, 0.0087654227390885353, -0.042240865528583527, 0.08973412960767746, -0.1598750501871109, -0.10645467042922974, -0.17045651376247406, 0.036818485707044601, 0.10463156551122665, -0.10454072803258896, -0.060911118984222412, -0.098433241248130798, 0.052212998270988464, -0.037222404032945633, 0.063302867114543915, -0.10826772451400757, 0.022893708199262619, -0.12963536381721497, -0.029504835605621338, -0.020533641800284386, -0.095163308084011078, 0.037923611700534821, -0.16120001673698425, -0.15229105949401855, -0.18504944443702698, -0.16800984740257263, -0.095151454210281372, -0.13501265645027161, 0.037180583924055099, -0.087039999663829803, -0.14779253304004669, -0.019053986296057701, 0.056911658495664597, 0.064371779561042786, -0.09837670624256134, -0.068152479827404022, 0.10413704067468643, -0.1060686782002449, -0.035270482301712036, 0.024342050775885582, -0.18025682866573334, -0.13761870563030243, -0.15659455955028534, -0.17690218985080719, -0.051526933908462524, 0.01482720673084259, -0.026027336716651917, -0.02136695384979248, -0.088707037270069122, 0.024844756349921227, 0.045136131346225739, 0.078532442450523376, -0.1455390453338623, -0.080698214471340179, -0.036373574286699295, -0.19415807723999023, -0.12259458005428314, -0.051515903323888779, 0.00552033307030797, -0.053011380136013031, -0.026911167427897453, -0.06838371604681015, -0.038752518594264984, -0.10674599558115005, -0.14818742871284485, -0.15669891238212585, 0.076973900198936462, 0.074802622199058533, 0.081299081444740295, 0.052943795919418335, -0.19099651277065277, -0.067236892879009247, -0.090517729520797729, 0.081901200115680695, 0.033783949911594391, 0.083471246063709259, 0.033238109201192856, -0.068501219153404236, -0.048911109566688538, 0.029800554737448692, -0.18369702994823456, 
  -0.10322938114404678, -0.12581764161586761, -0.067900426685810089, 0.062283799052238464, -0.022134566679596901, 0.18724562227725983, -0.1158493310213089, -0.26078560948371887, -0.24949216842651367, 0.016325155273079872, -0.11820343881845474, 0.010971705429255962, 0.014459163881838322, 0.14414295554161072, 0.27727442979812622, -0.0054906848818063736, -0.04548460990190506, -0.064424484968185425, 0.0069312276318669319, 0.21130840480327606, 0.1602538526058197, 0.25865268707275391, 0.033335167914628983, 0.10981036722660065, -0.072053104639053345, -0.070315971970558167, 0.15235176682472229, 0.20612777769565582, 0.16930530965328217, 0.070455156266689301, 0.21495883166790009, -0.0078276004642248154, 0.16819800436496735, 0.049553714692592621, -0.031834878027439117, -0.087350219488143921, 0.05975954607129097, -0.033501878380775452, -0.052877031266689301, -0.096634648740291595, 0.071051731705665588, -0.055818382650613785, -0.18286406993865967, -0.28563818335533142, -0.078737176954746246, 0.035361550748348236, -0.35377770662307739, -0.21817962825298309, 0.034624379128217697, -0.062160264700651169, -0.021591158583760262, 0.23454613983631134, -0.067626126110553741, -0.038906265050172806, -0.12006804347038269, -0.13345430791378021, -0.12119124084711075, -0.24089071154594421, -0.08239736407995224, 0.19542498886585236, 0.20910574495792389, -0.12020529061555862, -0.006718554999679327, 0.041469331830739975, 0.30193918943405151, -0.057021517306566238, 0.27905741333961487, -0.0028059445321559906, -0.035709511488676071, -0.11739303916692734, 0.13717076182365417, 0.075986921787261963, 0.13412506878376007, 0.039095163345336914, -0.26485937833786011, -0.066344723105430603, 0.19887909293174744, -0.058850418776273727, 0.034383669495582581, -0.088637813925743103, -0.075352661311626434, -0.14429937303066254, -0.3654748797416687, -0.21888034045696259, -0.11790304630994797, -0.081042744219303131, 0.058733254671096802, 0.19844503700733185, 0.069123923778533936, 0.1849253922700882, -0.083112195134162903, 0.10117616504430771, 0.12386790663003922, 0.087050646543502808, 0.57267862558364868, 0.28614568710327148, 0.16395124793052673, 0.30452162027359009, 0.35203179717063904, 0.037755463272333145, 0.17550103366374969, 0.19829447567462921, 0.15631505846977234, 0.033641397953033447, 0.18546594679355621, 0.13925972580909729, -0.24529445171356201, -0.049947898834943771, 0.05608455091714859, 0.226597860455513, 0.045030318200588226, -0.063570506870746613, 0.28154867887496948, 0.24093852937221527, 0.094569563865661621, -0.018274445086717606, 0.081509552896022797, -0.0082307159900665283, 0.0045116390101611614, -0.10904136300086975, -0.029150154441595078, -0.13463810086250305, -0.081068485975265503, -0.074715778231620789, -0.053122606128454208, 0.026759324595332146, -0.062314670532941818, -0.2146858423948288, 0.0089173577725887299, 0.066244199872016907, -0.11735431849956512, -0.051557175815105438, -0.02499794028699398, -0.079493455588817596, -0.021963657811284065, -0.18881288170814514, 0.11649852991104126, -0.1372998058795929, 0.031520098447799683, 0.032548997551202774, 0.077013269066810608, 0.1845538318157196, 0.066502228379249573, -0.053196027874946594, 0.067281492054462433, -0.038184475153684616, -0.10991683602333069, -0.064960740506649017, 0.053083699196577072, -0.07696998119354248, -0.079513728618621826, 0.037835408002138138, 0.20156589150428772, -0.046247873455286026, 0.06362316757440567, -0.023753859102725983, -0.058910049498081207, -0.22250726819038391, -0.099841423332691193, -0.13948731124401093, -0.098971098661422729, 0.043062016367912292, 0.047087352722883224, 0.077558912336826324, -0.15707693994045258, -0.10224900394678116, 0.11096049845218658, -0.0034540770575404167, -0.028340995311737061, 0.10618182271718979, 0.0093352850526571274, -0.016217887401580811, 0.14824436604976654, -0.026755070313811302, 0.14733536541461945, 0.16761568188667297, 0.0065419557504355907, -0.0099057899788022041, 0.10562309622764587, 0.0037045981734991074, 0.013039194978773594, 0.0506911501288414, 0.01396490540355444, 0.0036961575970053673, 0.0051834122277796268, 0.092814706265926361, 0.036630462855100632, 0.24404071271419525, 0.031056497246026993, 0.28506374359130859, -0.018677094951272011, -0.051934808492660522, -0.046523716300725937, 0.014968446455895901, -0.19324631989002228, -0.1805337518453598, 0.12142951041460037, 0.089512169361114502, 0.0015300444792956114, 0.050434146076440811, 0.19551695883274078, -0.051348850131034851, -0.1406385600566864, -0.0063080466352403164, -0.14980208873748779, -0.080008342862129211, 0.17085476219654083, -0.0057582296431064606, 0.17245335876941681, 0.19348666071891785, 0.050833769142627716, 0.10607403516769409, 0.070409238338470459, 0.03681936115026474, -0.013899190351366997, 0.20787638425827026, 0.035165153443813324, -0.023730559274554253, 0.18249069154262543, 0.14100019633769989, 0.12729525566101074, -0.015568602830171585, 
  -0.085329592227935791, -0.03712695837020874, 0.048565618693828583, -0.10737691074609756, -0.14253957569599152, -0.088197395205497742, -0.029154563322663307, -0.13959863781929016, -0.072062849998474121, 0.017091529443860054, -0.064900152385234833, -0.16114498674869537, -0.0058759530074894428, -0.078159555792808533, 0.058932613581418991, -0.13642111420631409, -0.19127744436264038, 0.052320290356874466, 0.081465780735015869, -0.17805977165699005, -0.055323615670204163, -0.15831373631954193, -0.18029458820819855, 0.10558489710092545, -0.054979994893074036, 0.065817214548587799, -0.18113474547863007, -0.12436170876026154, -0.1242719441652298, -0.05471506342291832, -0.06695333868265152, -0.13567379117012024, 0.002855260856449604, 0.084052965044975281, -0.0077959364280104637, -0.0160055011510849, 0.061100617051124573, 0.027444979175925255, 0.022156085819005966, 0.033984225243330002, 0.0072598857805132866, 0.10819312185049057, 0.10488983988761902, -0.18040658533573151, -0.050183456391096115, -0.16678084433078766, -0.030432136729359627, -0.18746621906757355, -0.046052571386098862, -0.0022115479223430157, -0.19735459983348846, -0.010211825370788574, -0.11907330900430679, -0.097767658531665802, -0.005991895217448473, -0.073872603476047516, -0.038542881608009338, -0.14518345892429352, -0.10299608111381531, 0.096276476979255676, 0.046492170542478561, 0.020062902942299843, 0.019283851608633995, -0.17553530633449554, -0.10255994647741318, -0.033966872841119766, 0.096040591597557068, 0.023495525121688843, 0.059706315398216248, 0.099663659930229187, 0.072605080902576447, 0.096838295459747314, -0.078367874026298523, -0.16226169466972351, -0.082134321331977844, 0.045226108282804489, -0.040480103343725204, -0.02621019259095192, -0.12733523547649384, -0.10158292204141617, 0.048135284334421158, -0.21900083124637604, -0.18376576900482178, -0.087663382291793823, -0.14597341418266296, 0.033894911408424377, -0.23051223158836365, -0.035432044416666031, -0.17870493233203888, -0.18881240487098694, -0.27155867218971252, -0.15889780223369598, 0.0047147637233138084, -0.19593417644500732, -0.14305379986763, -0.078824102878570557, -0.038162015378475189, -0.13218916952610016, -0.092999555170536041, -0.12638433277606964, -0.017756003886461258, -0.14438082277774811, -0.040444038808345795, -0.013234416022896767, -0.013334962539374828, 0.03082939051091671, -0.12027884274721146, 0.09438728541135788, 0.053914602845907211, -0.096395976841449738, 0.027419088408350945, -0.027592826634645462, 0.11826470494270325, 0.087679415941238403, -0.14010019600391388, 0.0095151746645569801, 0.0042741419747471809, -0.10314814001321793, 0.0018875276437029243, -0.15824450552463531, -0.14740559458732605, 0.10562719404697418, -0.17355048656463623, 0.053334470838308334, -0.12606886029243469, -0.17958593368530273, -0.16413429379463196, 0.026644414290785789, -0.12031645327806473, -0.058739829808473587, 0.0010235277004539967, 0.083468280732631683, -0.058860477060079575, -0.11056393384933472, -0.066421344876289368, 0.080732144415378571, -0.13528305292129517, -0.11508350819349289, -0.017142998054623604, -0.02967696450650692, -0.035829976201057434, 0.095994472503662109, -0.087471447885036469, -0.097626052796840668, 0.028774157166481018, -0.027946408838033676, -0.04005344957113266, 0.084284029901027679, -0.0024331572931259871, 0.093450941145420074, 0.13079066574573517, 0.044922355562448502, -0.017018355429172516, -0.11551985144615173, 0.097005784511566162, -0.044389046728610992, -0.071783371269702911, -0.10898175835609436, -0.055977299809455872, -0.076749861240386963, -0.1875796765089035, -0.048314742743968964, -0.052289668470621109, 0.085900105535984039, -0.14117790758609772, -0.072692319750785828, -0.19157885015010834, -0.01309229526668787, 0.055589497089385986, 0.085269898176193237, -0.05581224337220192, 0.097379319369792938, -0.079148851335048676, 0.093815721571445465, -0.17737191915512085, 0.0033127772621810436, -0.014267825521528721, -0.11071857810020447, -0.096969515085220337, 0.094709694385528564, 0.014961532317101955, -0.12400786578655243, -0.022033598273992538, -0.066895253956317902, -0.11060398072004318, -0.1126246303319931, -0.11526437103748322, -0.061356514692306519, -0.096392132341861725, 0.1350092887878418, -0.12382017821073532, 0.081131100654602051, -0.063369117677211761, -0.00593985291197896, -0.055412136018276215, -0.11734777688980103, -0.06150919571518898, -0.097209438681602478, -0.050474133342504501, -0.14432334899902344, -0.0040316581726074219, -0.074468806385993958, 0.021157525479793549, 0.028809316456317902, -0.027755903080105782, 0.049662385135889053, -0.078921996057033539, -0.090809881687164307, -0.064001515507698059, -0.032915987074375153, 0.0078867422416806221, -0.010875812731683254, 0.088099338114261627, 0.0045102369040250778, 0.092472545802593231, 0.00016276934184134007, -0.01076026912778616, -0.023663956671953201, -0.14809317886829376, -0.15670900046825409, -0.11991008371114731, -0.081420779228210449, 
  0.058050673454999924, 0.044388573616743088, 0.076222367584705353, -0.025240233168005943, 0.21530322730541229, -0.075978808104991913, 0.20303434133529663, 0.011777129955589771, -0.033155184239149094, -0.0026741784531623125, 0.011569114401936531, 0.11179528385400772, 0.13472941517829895, -0.00082963827298954129, 0.0020857525523751974, 0.19647891819477081, 0.1030227467417717, 0.09731360524892807, 0.14338484406471252, 0.089896321296691895, 0.42338177561759949, 0.33773124217987061, 0.16646210849285126, -0.13871684670448303, 0.38910359144210815, 0.18445664644241333, -0.094190992414951324, 0.15172369778156281, 0.087688490748405457, 0.19757130742073059, -0.057614311575889587, 0.18941901624202728, 0.20332464575767517, 0.33331054449081421, 0.11598552763462067, 0.064903207123279572, 0.049660652875900269, 0.15836508572101593, -0.92325037717819214, -0.019660813733935356, -0.10852830111980438, -0.088881537318229675, 0.020198110491037369, 0.20235574245452881, 0.036167256534099579, 0.037888910621404648, -0.00057728990213945508, 0.014264387078583241, 0.03550121933221817, 0.12755696475505829, 0.16603389382362366, 0.14028362929821014, 0.064963974058628082, 0.18654204905033112, 0.16684302687644958, 0.14843609929084778, 0.24958065152168274, 0.29881435632705688, 0.11937026679515839, 0.43804121017456055, 0.39470264315605164, 0.43098151683807373, 0.36513841152191162, -0.20256111025810242, 0.55615639686584473, 0.27250272035598755, 0.40604507923126221, 0.45964998006820679, 0.25300589203834534, 0.47774651646614075, 0.44896847009658813, 0.2265687882900238, 0.32131120562553406, 0.64736050367355347, 0.083733409643173218, -0.094270668923854828, -0.39410248398780823, -0.018028570339083672, -0.0017394651658833027, 0.01995418407022953, 0.012038497254252434, 0.13586017489433289, 0.16739240288734436, 0.24082770943641663, 0.066016159951686859, 0.25170347094535828, 0.080472849309444427, 0.046270169317722321, 0.32986965775489807, 0.20322097837924957, 0.37153869867324829, 0.30652862787246704, 0.29408043622970581, 0.047372773289680481, -0.053181413561105728, -0.34882339835166931, 0.38217628002166748, -0.17414523661136627, -0.1006721556186676, 0.3433363139629364, 0.066804662346839905, 0.14652340114116669, -0.16193293035030365, 0.44353511929512024, 0.076205842196941376, 0.095732063055038452, 0.41524603962898254, 0.12740267813205719, 0.072131328284740448, -0.041593220084905624, 0.11768315732479095, 0.12351822108030319, 0.15694227814674377, -0.25250124931335449, 0.030702032148838043, -0.24502362310886383, 0.059045460075139999, -0.058864086866378784, -0.17321431636810303, -0.013606974855065346, 0.0647435262799263, -0.092206858098506927, -0.057278744876384735, -0.067021019756793976, 0.079531647264957428, 0.18220855295658112, -0.08195146918296814, -0.044533267617225647, 0.20612785220146179, 0.15066583454608917, 0.017015418037772179, 0.05042073130607605, -0.021115744486451149, 0.05998539924621582, 0.18815405666828156, 0.11081581562757492, -0.014276335947215557, 0.26242440938949585, 0.13088662922382355, 0.078604444861412048, 0.1199335902929306, -0.0013243609573692083, 0.14109534025192261, 0.099421732127666473, 0.20591558516025543, -0.0079262414947152138, 0.011848654597997665, 0.18055184185504913, -0.026447741314768791, -0.1979791522026062, -0.18225620687007904, -0.20804060995578766, -0.23474235832691193, -0.012742101214826107, 0.074480719864368439, -0.13189864158630371, -0.10025972127914429, -0.01886899396777153, 0.067986704409122467, -0.071722820401191711, -0.10786997526884079, -0.14763709902763367, 0.090599387884140015, -0.011079058051109314, 0.027351384982466698, -0.029872378334403038, -0.055162243545055389, -0.14729134738445282, -0.0281717199832201, 0.020310208201408386, -0.033853493630886078, -0.075956299901008606, -0.18987953662872314, 0.040184721350669861, -0.17292675375938416, -0.0011310914997011423, -0.20380936563014984, -0.099166974425315857, 0.0084822708740830421, -0.12413940578699112, -0.031695455312728882, -0.061774048954248428, -0.15922601521015167, 0.0090765394270420074, -0.16265213489532471, 0.090856552124023438, -0.12334191799163818, -0.29975992441177368, -0.045508842915296555, -0.27585092186927795, 0.0050500528886914253, 0.096375413239002228, 0.067026674747467041, 0.11783195286989212, 0.12116536498069763, -0.10811950266361237, -0.042896311730146408, 0.0026045769918709993, -0.071149714291095734, -0.035743836313486099, -0.1827428936958313, -0.09736313670873642, -0.11553212255239487, -0.0031639360822737217, 0.15136772394180298, -0.12417323887348175, 0.063819892704486847, 0.013248640112578869, 0.15875022113323212, 0.1283036470413208, -0.058355912566184998, -0.011803105473518372, -0.13310448825359344, -0.018310671672224998, 0.13309353590011597, -0.034435342997312546, -0.11925435811281204, -0.11137580126523972, -0.017435178160667419, -0.10328085720539093, 0.029774999246001244, -0.17132274806499481, 
  0.20347492396831512, 0.28052055835723877, -0.024400254711508751, -0.056635037064552307, 0.089553572237491608, 0.1657366007566452, 0.043686550110578537, 0.0045619811862707138, -0.070065349340438843, 0.12035924196243286, 0.12281735241413116, -0.067776232957839966, -0.22638140618801117, -0.17585274577140808, -0.17432007193565369, 0.070238731801509857, -0.1709602028131485, -0.020070195198059082, -0.27254840731620789, -0.026551233604550362, -0.35561272501945496, -0.26452547311782837, -0.16333159804344177, -0.19443820416927338, -0.32062599062919617, -0.13946710526943207, -0.043576020747423172, -0.18447498977184296, 0.039929658174514771, 0.04946865513920784, -0.13320225477218628, -0.091112077236175537, -0.030473684892058372, 0.14860638976097107, -0.0065906252712011337, -0.01210400927811861, 0.068956524133682251, 0.12932443618774414, -0.038195427507162094, 0.1957038938999176, 0.086063027381896973, -0.09882962703704834, 0.10321306437253952, 0.25272020697593689, -0.071852564811706543, -0.052804701030254364, 0.080230474472045898, 0.0090203508734703064, 0.22836098074913025, 0.24890710413455963, -0.033318240195512772, -0.017295539379119873, -0.045243039727210999, 0.13712389767169952, 0.087771303951740265, 0.15619024634361267, 0.16325056552886963, -0.092499494552612305, 0.14291517436504364, 0.03683813288807869, -0.15229389071464539, 0.064684145152568817, -0.015369311906397343, 0.019325779750943184, 0.079014435410499573, -0.020398426800966263, -0.19105732440948486, 0.050244327634572983, 0.13568463921546936, -0.039016678929328918, -0.099152952432632446, -0.1201794296503067, 0.068034820258617401, 0.18858170509338379, 0.17436520755290985, 0.21969178318977356, -0.07175184041261673, 0.11236198991537094, -0.047946926206350327, 0.17040270566940308, 0.23105999827384949, 0.095401912927627563, -0.030627474188804626, 0.06196536123752594, 0.26440057158470154, 0.23990193009376526, 0.12334970384836197, -0.047008160501718521, 0.055107511579990387, -0.061924532055854797, -0.07181202620267868, -0.16983458399772644, -0.071671850979328156, 0.08178449422121048, 0.034837458282709122, -0.29492726922035217, -0.10547488927841187, -0.17899240553379059, -0.18616576492786407, 0.10542448610067368, 0.084684498608112335, 0.24211397767066956, -0.19364593923091888, -0.10119860619306564, 0.092748329043388367, 0.012573417276144028, 0.087206728756427765, 0.11437052488327026, -0.092227287590503693, -0.22191320359706879, 0.18563997745513916, -0.09449382871389389, 0.053091805428266525, -0.042686872184276581, -0.082266099750995636, 0.078978240489959717, -0.081729434430599213, -0.051635280251502991, -0.034065570682287216, -0.12992730736732483, -0.07033335417509079, 0.11468225717544556, -0.036485873162746429, -0.13820798695087433, -0.00018396246014162898, -0.035478696227073669, -0.065173298120498657, 0.011998937465250492, 0.054399553686380386, -0.14113196730613708, 0.072443403303623199, 0.098235033452510834, -0.05764668807387352, -0.066639147698879242, -0.052052170038223267, 0.095105543732643127, 0.10033499449491501, 0.11199603974819183, -0.020573941990733147, 0.12275232374668121, -0.052606876939535141, -0.18301446735858917, 0.088720701634883881, -0.17656788229942322, -0.085415072739124298, -0.14213508367538452, 0.044437047094106674, -0.060012396425008774, 0.12815713882446289, -0.39407920837402344, 0.019758023321628571, 0.14733654260635376, 0.12305743992328644, 0.0084389625117182732, -0.084973998367786407, 0.024633428081870079, 0.10461926460266113, -0.16006733477115631, -0.0067028012126684189, -0.015130140818655491, -0.0094879139214754105, -0.1031700074672699, -0.17276141047477722, 0.05133945494890213, -0.047831010073423386, 0.0062339184805750847, -0.14275464415550232, -0.015105678699910641, -0.038389191031455994, -0.053772531449794769, 0.10178714990615845, -0.15730476379394531, -0.013569432310760021, -0.085279710590839386, 0.12941952049732208, 0.050587508827447891, -0.068392790853977203, -0.16047658026218414, 0.12368451803922653, -0.048130616545677185, 0.014618467539548874, 0.055756554007530212, -0.079289890825748444, 0.060364346951246262, -0.054610751569271088, -0.15719980001449585, 0.39708808064460754, -0.03796006366610527, -0.047984611243009567, 0.21172787249088287, 0.11578809469938278, 0.075927294790744781, 0.062082808464765549, -0.10143553465604782, 0.023198060691356659, -0.1081174910068512, -0.073730722069740295, 0.14452271163463593, 0.054016366600990295, -0.025880264118313789, 0.13747735321521759, 0.037204671651124954, 0.19316202402114868, -0.03592463955283165, 0.042932163923978806, 0.16174837946891785, -0.040404409170150757, 0.13293741643428802, -0.063212379813194275, -0.10122291743755341, -0.13770925998687744, -0.028109544888138771, 0.17808397114276886, 0.13432730734348297, 0.16163170337677002, -0.087326787412166595, -0.057973958551883698, -0.0075048734433948994, 0.037970360368490219, 0.15028597414493561, 0.18139129877090454, 0.065859310328960419, 
  -0.0412028469145298, -0.14647281169891357, -0.15782834589481354, -0.071671992540359497, 0.0074593685567378998, -0.010037092491984367, -0.074134133756160736, 0.084482632577419281, 0.051460038870573044, 0.097460895776748657, -0.089936017990112305, -0.051089257001876831, 0.11560975760221481, 0.021984759718179703, 0.063162244856357574, 0.13490983843803406, 0.055890452116727829, 0.092305116355419159, 0.1110113337635994, 0.14899832010269165, 0.19350056350231171, 0.15436549484729767, 0.21082749962806702, -0.027802813798189163, 0.0027890498749911785, 0.17036630213260651, 0.2112545520067215, 0.16746541857719421, 0.23792263865470886, -0.0012907781638205051, 0.10766953229904175, 0.13300658762454987, 0.1293305903673172, 0.12484419345855713, 0.11895380169153214, -0.026194415986537933, 0.22095157206058502, 0.017714414745569229, -0.10778288543224335, 0.016788547858595848, -0.15954810380935669, -0.029170963913202286, 0.13672786951065063, 0.0044316304847598076, 0.082668915390968323, -0.0028987675905227661, 0.03326420858502388, 0.15673728287220001, -0.087354898452758789, 0.12419413030147552, 0.16676245629787445, 0.1983049213886261, 0.17310090363025665, 0.090032041072845459, 0.22646798193454742, 0.12302608788013458, -0.050553798675537109, 0.17996992170810699, 0.043140426278114319, 0.088744759559631348, 0.011418568901717663, 0.075924582779407501, 0.14889043569564819, 0.0054963869042694569, 0.052154000848531723, 0.065828621387481689, 0.12424138933420181, -0.0087483823299407959, 0.010457612574100494, 0.1083485335111618, 0.012147741392254829, 0.028063377365469933, 0.21320025622844696, 0.22820910811424255, -0.051803328096866608, 0.09542778879404068, -0.10746841132640839, 0.031041039153933525, -0.13262563943862915, -0.077522739768028259, -0.080466039478778839, -0.11054391413927078, 0.034977979958057404, -0.10627865791320801, 0.11952667683362961, 0.003167017363011837, -0.043588262051343918, 0.13886377215385437, 0.039013471454381943, -0.054616332054138184, 0.22619307041168213, -0.022887334227561951, 0.042862817645072937, 0.083107523620128632, 0.095164135098457336, -0.026457978412508965, 0.14707759022712708, 0.18142792582511902, -0.021511131897568703, 0.14379344880580902, 0.22055816650390625, 0.084153853356838226, 0.21770413219928741, 0.17037241160869598, 0.012887604534626007, 0.088431492447853088, 0.044494632631540298, 0.062750324606895447, 0.21103912591934204, 0.10851578414440155, 0.029896829277276993, -0.021356886252760887, -0.018992383033037186, 0.027053201571106911, -0.092437870800495148, -0.034935321658849716, 0.11136877536773682, -0.087896533310413361, -0.14362421631813049, 0.045871764421463013, -0.11433974653482437, -0.17506121098995209, -0.14801302552223206, -0.0037145437672734261, 0.073577865958213806, -0.042952753603458405, 0.063950411975383759, -0.16122221946716309, 0.12447869777679443, -0.099329628050327301, -0.12319902330636978, 0.056027080863714218, 0.085351400077342987, 0.033949043601751328, -0.011832929216325283, -0.093316033482551575, -0.043740391731262207, -0.00392921082675457, 0.040000122040510178, -0.091779276728630066, -0.089578516781330109, -0.12190466374158859, -0.08282257616519928, -0.10276875644922256, 0.0057219965383410454, 0.12632641196250916, 0.03020983561873436, -0.15757644176483154, -0.17412672936916351, 0.0018609808757901192, 0.010831986553966999, 0.082717433571815491, 0.072596266865730286, 0.047251284122467041, -0.022005926817655563, -0.13841557502746582, -0.069043345749378204, -0.12626579403877258, 0.093478113412857056, 0.10351080447435379, 0.05033985897898674, -0.10207842290401459, 0.023163817822933197, 0.024134542793035507, -0.16063745319843292, 0.041161131113767624, -0.11783675104379654, -0.091881342232227325, 0.017586234956979752, 0.12164035439491272, -0.052170239388942719, -0.11817445605993271, 0.0002924510627053678, -0.096616432070732117, 0.022836195304989815, 0.12381161004304886, -0.045679099857807159, 0.10400278121232986, -0.068093128502368927, -0.023974193260073662, -0.13773226737976074, 0.064438782632350922, 0.12867927551269531, -0.09378410130739212, -0.049173690378665924, 0.085761383175849915, -0.081054255366325378, -0.1065814197063446, -0.15751644968986511, -0.0067327586002647877, -0.12429698556661606, -0.13381519913673401, -0.039049834012985229, 0.040482949465513229, -0.037275742739439011, -0.034430433064699173, -0.025223184376955032, -0.12855812907218933, -0.020559715107083321, -0.069238387048244476, 0.11536704748868942, 0.10419479012489319, 0.13457666337490082, 0.092769548296928406, -0.14211015403270721, 0.057124372571706772, 0.0062317289412021637, -0.087818779051303864, 0.075086243450641632, -0.021802825853228569, -0.14994557201862335, -0.15195757150650024, -0.10056579858064651, -0.044681474566459656, 0.10691861063241959, 0.076422490179538727, -0.052269700914621353, 0.035738512873649597, 0.067390315234661102, 0.077382057905197144, 0.14239419996738434, -0.041669368743896484, 
  0.065147444605827332, 0.015886100009083748, -0.020114438608288765, 0.01546922605484724, 0.14627856016159058, -0.17730861902236938, 0.24799160659313202, 0.15565031766891479, 0.068294927477836609, 0.16116918623447418, -0.018837142735719681, 0.16112346947193146, -0.018539797514677048, -0.050133600831031799, -0.17044740915298462, 0.042160656303167343, 0.092207901179790497, 0.055222243070602417, -0.083411060273647308, -0.28907451033592224, -0.10084867477416992, -0.12081300467252731, -0.10740363597869873, 0.087053224444389343, -0.055159624665975571, -0.037280760705471039, -0.11382991820573807, -0.080362424254417419, -0.12849070131778717, 0.036192078143358231, -0.15555764734745026, -0.11185146868228912, -0.15362244844436646, 0.063778527081012726, 0.017997896298766136, -0.13140144944190979, -0.14039528369903564, 0.23211349546909332, 0.075368061661720276, 0.13312733173370361, 0.057794660329818726, -0.17432117462158203, 0.045505672693252563, 0.15168583393096924, 0.21096085011959076, 0.022652748972177505, 0.31689560413360596, 0.15097025036811829, -0.009386853314936161, 0.19708356261253357, -0.072754338383674622, -0.20170466601848602, 0.22988530993461609, -0.01111406646668911, -0.086853951215744019, 0.073733150959014893, 0.12494081258773804, -0.22776632010936737, -0.19279080629348755, -0.30769693851470947, -0.10070021450519562, -0.078819170594215393, 0.12239909917116165, -0.15923808515071869, -0.066195271909236908, -0.16642214357852936, -0.30881932377815247, -0.20427706837654114, 0.037484172731637955, 0.10128264874219894, -0.01689615473151207, -0.007262122817337513, -0.13529257476329803, 0.081894464790821075, 0.15408392250537872, 0.049300350248813629, 0.17524248361587524, 0.013882230035960674, 0.08970922976732254, -0.026367053389549255, 0.06280902773141861, 0.14034964144229889, 0.32743397355079651, 0.28053480386734009, 0.17442454397678375, 0.15274593234062195, 0.18646407127380371, 0.058795426040887833, 0.18637485802173615, -0.22362574934959412, 0.17359577119350433, -0.01503410842269659, 0.016416383907198906, -0.07209429144859314, -0.36299335956573486, -0.1456039696931839, -0.17567001283168793, -0.023224800825119019, -0.12739171087741852, -0.10263241082429886, -0.16252751648426056, -0.12980297207832336, 0.050037018954753876, -0.21509860455989838, -0.21625317633152008, -0.1595265120267868, 0.2806994616985321, 0.0019986259285360575, 0.19873510301113129, -0.0094757992774248123, -0.1282692551612854, 0.017407823354005814, -0.46608579158782959, -0.10102620720863342, -0.12748543918132782, -0.21256305277347565, 0.070538654923439026, 0.061633218079805374, 0.16331286728382111, 0.21252405643463135, -0.038216684013605118, -0.083427421748638153, -0.056354004889726639, 0.025839177891612053, 0.090983100235462189, 0.020108301192522049, -0.063092805445194244, -0.0060776453465223312, 0.083423569798469543, -0.099416054785251617, 0.10458666831254959, -0.0090548843145370483, -0.030916424468159676, -0.010289764031767845, -0.2015320360660553, -0.057358816266059875, -0.079644538462162018, -0.13568077981472015, -0.17041021585464478, -0.067636832594871521, -0.18154683709144592, -0.16050413250923157, -0.044012907892465591, -0.10880520194768906, -0.033344238996505737, -0.087727241218090057, -0.058859772980213165, -0.11776763945817947, -0.086000457406044006, 0.158524289727211, 0.45647132396697998, 0.03929075226187706, -0.014844245277345181, 0.042432524263858795, -0.059951037168502808, 0.17186971008777618, 0.12080340832471848, 0.1821400374174118, 0.061323154717683792, 0.0371713787317276, 0.16075050830841064, 0.14590564370155334, 0.11031533777713776, 0.048208832740783691, -0.078118018805980682, 0.10957956314086914, -0.041979730129241943, 0.068378224968910217, 0.11883582174777985, 0.062021147459745407, 0.061416443437337875, -0.16568116843700409, -0.13539895415306091, 0.11490007489919662, 0.060028243809938431, -0.086542293429374695, -0.097705096006393433, -0.14971885085105896, 0.13262802362442017, -0.089839167892932892, -0.072565145790576935, -0.034112606197595596, -0.027048062533140182, 0.090529359877109528, -0.10694002360105515, 0.0091211898252367973, 0.24340403079986572, 0.19650216400623322, 0.1049247533082962, -0.26296457648277283, 0.012524752877652645, 0.045535795390605927, 0.14136162400245667, 0.055274020880460739, -0.012542125768959522, -0.12115759402513504, -0.12391406297683716, 0.0087579069659113884, 0.042616322636604309, 0.14711965620517731, -0.080225072801113129, 0.0066988952457904816, 0.050233785063028336, 0.019909145310521126, -0.045036718249320984, 0.057658825069665909, 0.053631696850061417, -0.14628602564334869, 0.073725417256355286, -0.18633539974689484, 0.015776544809341431, -0.05261516198515892, -0.19530406594276428, -0.1798463761806488, 0.066372297704219818, -0.12019042670726776, 0.01584053598344326, 0.091778784990310669, 0.0087337177246809006, -0.03374210000038147, -0.13175871968269348, -0.18723729252815247, 
  -0.045072276145219803, 0.087706990540027618, 0.1398376077413559, -0.067834466695785522, 0.038624603301286697, -0.10282927751541138, -0.10259256511926651, -0.16063214838504791, -0.16850921511650085, 0.0607278011739254, 0.0046024136245250702, -0.16698427498340607, -0.1301766037940979, -0.11418946087360382, -0.03683791309595108, -0.065941870212554932, -0.036072753369808197, -0.021612279117107391, 0.10074145346879959, 0.062282394617795944, -0.17074005305767059, 0.10892091691493988, 0.010181427001953125, -0.020977230742573738, -0.151752769947052, -0.10163616389036179, 0.10375215113162994, 0.011555973440408707, 0.076685048639774323, -0.067653864622116089, 0.020355843007564545, 0.03781195729970932, -0.063635721802711487, -0.044697292149066925, 0.012550769373774529, 0.080489106476306915, 0.063089683651924133, 0.050371717661619186, -0.062458489090204239, 0.224469393491745, -0.13436034321784973, -0.15110373497009277, 0.040101069957017899, -0.099968060851097107, -0.008712155744433403, -0.043482303619384766, -0.1826963871717453, 0.050209831446409225, 0.0084048667922616005, 0.071328073740005493, 0.068020723760128021, -0.061178926378488541, -0.17066305875778198, -0.23914362490177155, -0.05415026843547821, -0.20891301333904266, 0.027216577902436256, -0.18583530187606812, 0.018256274983286858, -0.13980419933795929, -0.1596236377954483, -0.032593138515949249, -0.060592494904994965, 0.021567936986684799, 0.080873116850852966, 0.01472531259059906, -0.13580243289470673, -0.045369774103164673, 0.092491306364536285, -0.01872616820037365, -0.19872191548347473, -0.18182423710823059, 0.027679748833179474, -0.009959295392036438, 0.10914237052202225, 0.042503569275140762, -0.14801853895187378, 0.039685651659965515, -0.0341656394302845, 0.019951866939663887, -0.16092522442340851, -0.19856046140193939, 0.064890161156654358, -0.19593027234077454, 0.056394830346107483, -0.21847184002399445, 0.024756256490945816, 0.027521660551428795, -0.063739657402038574, -0.14597338438034058, 0.029494099318981171, 0.019451247528195381, -0.23804473876953125, 0.0452301986515522, -0.052385605871677399, 0.0088223870843648911, -0.083692498505115509, 0.050626207143068314, -0.035125818103551865, -0.0086977938190102577, -0.074708864092826843, -0.054043542593717575, -0.03007178008556366, -0.018791377544403076, -0.0017161811701953411, -0.19804738461971283, -0.084253676235675812, -0.095372147858142853, -0.13921277225017548, -0.048267826437950134, -0.11788520216941833, -0.038013767451047897, -0.17678558826446533, 0.0080657787621021271, -0.16158345341682434, 0.10320383310317993, 0.061918195337057114, 0.042493809014558792, -0.0086292121559381485, 0.034588534384965897, 0.11417637765407562, -0.083197243511676788, -0.10846032947301865, 0.080058254301548004, 0.1081957221031189, 0.015856867656111717, -0.14196394383907318, 0.019816089421510696, -0.17070147395133972, -0.13131316006183624, 0.10473088920116425, -0.060646921396255493, -0.054162565618753433, -0.15944500267505646, -0.12665329873561859, 0.077710472047328949, 0.04981294646859169, 0.091088868677616119, 0.074897430837154388, 0.022200830280780792, -0.076336294412612915, -0.14038944244384766, -0.13909889757633209, -0.13927137851715088, -0.0044798990711569786, -0.1255611926317215, -0.18332313001155853, 0.011518443934619427, -0.051504537463188171, -0.16772519052028656, 0.052687577903270721, 0.059802144765853882, -0.064306452870368958, -0.17117325961589813, -0.0065075242891907692, 0.0077760578133165836, 0.043816469609737396, -0.16264183819293976, -0.14151152968406677, 0.016155989840626717, -0.14765968918800354, 0.041718930006027222, 0.016874171793460846, -0.18113993108272552, 0.10432160645723343, -0.18611094355583191, -0.047453943639993668, -0.13152536749839783, 0.02027597464621067, -0.16075111925601959, 0.067585006356239319, -0.11531661450862885, -0.1408451646566391, -0.015271065756678581, -0.023756183683872223, -0.0081907594576478004, 0.1049814373254776, -0.15545479953289032, -0.072130836546421051, 0.067957133054733276, -0.18937042355537415, -0.083491593599319458, 0.072072990238666534, 0.065894395112991333, -0.042161654680967331, -0.046608179807662964, -0.09323660284280777, 0.082632094621658325, -0.0042187641374766827, -0.025334099307656288, -0.078969523310661316, -0.10381912440061569, 0.095875874161720276, -0.15339240431785583, -0.093642592430114746, 0.061545874923467636, -0.072694540023803711, 0.0087710153311491013, 0.013631237670779228, -0.053292393684387207, 0.02668156661093235, -0.17403897643089294, -0.14137504994869232, -0.087331250309944153, -0.086302831768989563, -0.071051329374313354, 0.0050493031740188599, -0.03969389945268631, -0.19629018008708954, -0.18636587262153625, 0.054939985275268555, 0.044703647494316101, 0.0078778108581900597, -0.18301813304424286, -0.0081037580966949463, -0.13993895053863525, -0.039035402238368988, 0.020939217880368233, -0.19461517035961151, -0.16512382030487061, -0.16301661729812622, -0.062130853533744812, 
