/*
 * Copyright (c) 2024 EdgeImpulse Inc.
 *
 * Generated by Edge Impulse and licensed under the applicable Edge Impulse
 * Terms of Service. Community and Professional Terms of Service
 * (https://docs.edgeimpulse.com/page/terms-of-service) or Enterprise Terms of
 * Service (https://docs.edgeimpulse.com/page/enterprise-terms-of-service),
 * according to your product plan subscription (the “License”).
 *
 * This software, documentation and other associated files (collectively referred
 * to as the “Software”) is a single SDK variation generated by the Edge Impulse
 * platform and requires an active paid Edge Impulse subscription to use this
 * Software for any purpose.
 *
 * You may NOT use this Software unless you have an active Edge Impulse subscription
 * that meets the eligibility requirements for the applicable License, subject to
 * your full and continued compliance with the terms and conditions of the License,
 * including without limitation any usage restrictions under the applicable License.
 *
 * If you do not have an active Edge Impulse product plan subscription, or if use
 * of this Software exceeds the usage limitations of your Edge Impulse product plan
 * subscription, you are not permitted to use this Software and must immediately
 * delete and erase all copies of this Software within your control or possession.
 * Edge Impulse reserves all rights and remedies available to enforce its rights.
 *
 * Unless required by applicable law or agreed to in writing, the Software is
 * distributed on an "AS IS" BASIS, WITHOUT WARRANTIES OR CONDITIONS OF ANY KIND,
 * either express or implied. See the License for the specific language governing
 * permissions, disclaimers and limitations under the License.
 */
// Generated on: 24.10.2024 07:36:38

#include <stdio.h>
#include <stdlib.h>
#include "edge-impulse-sdk/tensorflow/lite/c/builtin_op_data.h"
#include "edge-impulse-sdk/tensorflow/lite/c/common.h"
#include "edge-impulse-sdk/tensorflow/lite/micro/micro_mutable_op_resolver.h"
#include "edge-impulse-sdk/porting/ei_classifier_porting.h"

#if EI_CLASSIFIER_PRINT_STATE
#if defined(__cplusplus) && EI_C_LINKAGE == 1
extern "C" {
    extern void ei_printf(const char *format, ...);
}
#else
extern void ei_printf(const char *format, ...);
#endif
#endif

#if defined (__GNUC__)  /* GNU compiler */
#define ALIGN(X) __attribute__((aligned(X)))
#define DEFINE_SECTION(x) __attribute__((section(x)))
#elif defined (_MSC_VER)
#define ALIGN(X) __declspec(align(X))
#elif defined (__TASKING__) /* TASKING Compiler */
#define ALIGN(X) __align(X)
#define DEFINE_SECTION(x) __attribute__(section(x)))
#elif defined (__ARMCC_VERSION) /* Arm Compiler */
#define ALIGN(X) __ALIGNED(x)
#define DEFINE_SECTION(x) __attribute__((section(x)))
#elif defined (__ICCARM__) /* IAR Compiler */
#define ALIGN(x) __attribute__((aligned(x)))
#define DEFINE_SECTION(x) __attribute__((section(x)))
#elif defined (__clang__) /* LLVM/Clang Compiler */
#define ALIGN(X) __ALIGNED(x)
#define DEFINE_SECTION(x) __attribute__((section(x)))
#endif

#ifndef EI_MAX_SCRATCH_BUFFER_COUNT
#ifndef CONFIG_IDF_TARGET_ESP32S3
#define EI_MAX_SCRATCH_BUFFER_COUNT 4
#else
#define EI_MAX_SCRATCH_BUFFER_COUNT 4
#endif // CONFIG_IDF_TARGET_ESP32S3
#endif // EI_MAX_SCRATCH_BUFFER_COUNT

#ifndef EI_MAX_OVERFLOW_BUFFER_COUNT
#define EI_MAX_OVERFLOW_BUFFER_COUNT 10
#endif // EI_MAX_OVERFLOW_BUFFER_COUNT

using namespace tflite;
using namespace tflite::ops;
using namespace tflite::ops::micro;

namespace {

#if defined(EI_CLASSIFIER_ALLOCATION_STATIC_HIMAX) || defined(EI_CLASSIFIER_ALLOCATION_STATIC_HIMAX_GNU)
constexpr int kTensorArenaSize = 2400;
#else
constexpr int kTensorArenaSize = 1376;
#endif

#if defined(EI_CLASSIFIER_ALLOCATION_STATIC)
#if defined (EI_TENSOR_ARENA_LOCATION)
#define STRINGIZE(x) #x
#define STRINGIZE_VALUE_OF(x) STRINGIZE(x)
uint8_t tensor_arena[kTensorArenaSize] ALIGN(16) DEFINE_SECTION(STRINGIZE_VALUE_OF(EI_TENSOR_ARENA_LOCATION));
#else
uint8_t tensor_arena[kTensorArenaSize] ALIGN(16);
#endif
#elif defined(EI_CLASSIFIER_ALLOCATION_STATIC_HIMAX)
#pragma Bss(".tensor_arena")
uint8_t tensor_arena[kTensorArenaSize] ALIGN(16);
#pragma Bss()
#elif defined(EI_CLASSIFIER_ALLOCATION_STATIC_HIMAX_GNU)
uint8_t tensor_arena[kTensorArenaSize] ALIGN(16) __attribute__((section(".tensor_arena")));
#else
#define EI_CLASSIFIER_ALLOCATION_HEAP 1
uint8_t* tensor_arena = NULL;
#endif

static uint8_t* tensor_boundary;
static uint8_t* current_location;

template <int SZ, class T> struct TfArray {
  int sz; T elem[SZ];
};

enum used_operators_e {
  OP_FULLY_CONNECTED, OP_SOFTMAX,  OP_LAST
};

struct TensorInfo_t { // subset of TfLiteTensor used for initialization from constant memory
  TfLiteAllocationType allocation_type;
  void* data;
  TfLiteIntArray* dims;
  size_t bytes;
};

typedef struct {
  TfLiteTensor tensor;
  int16_t index;
} TfLiteTensorWithIndex;

typedef struct {
  TfLiteEvalTensor tensor;
  int16_t index;
} TfLiteEvalTensorWithIndex;

TfLiteContext ctx{};
static const int MAX_TFL_TENSOR_COUNT = 4;
static TfLiteTensorWithIndex tflTensors[MAX_TFL_TENSOR_COUNT];
static const int MAX_TFL_EVAL_COUNT = 4;
static TfLiteEvalTensorWithIndex tflEvalTensors[MAX_TFL_EVAL_COUNT];
TfLiteRegistration registrations[OP_LAST];

namespace g0 {
const TfArray<2, int> tensor_dimension0 = { 2, { 1,222 } };
const ALIGN(16) float tensor_data1[20] = { -0.04094628244638443, -0.042538546025753021, 0.00094195909332484007, 0.017578456550836563, -0.15883196890354156, -0.016607891768217087, 0.0031273448839783669, -0.030127611011266708, -0.020097371190786362, -0.042446821928024292, 0.062605820596218109, -0.023518582805991173, 0.043413218110799789, -0.037309303879737854, 0.012608148157596588, -0.036076765507459641, -0.015594661235809326, 0.14641602337360382, -0.043711360543966293, 0.024233195930719376, };
const TfArray<1, int> tensor_dimension1 = { 1, { 20 } };
const ALIGN(16) float tensor_data2[40] = { -0.046997658908367157, -0.026667021214962006, -0.056649468839168549, -0.019718758761882782, -0.014069058932363987, 0, -0.035480331629514694, -0.024074364453554153, -0.014194274321198463, 0.039292935281991959, -0.051824457943439484, -0.078201435506343842, -0.017000177875161171, -0.046558894217014313, 0.03604419156908989, -0.039966806769371033, 0.025263043120503426, 0.076039016246795654, -0.051590088754892349, -0.0048344675451517105, -0.034021995961666107, 0.099348723888397217, -0.042578384280204773, -0.030366916209459305, -0.043200001120567322, -0.04494968056678772, -0.02434074878692627, -0.0072878091596066952, -0.063365206122398376, -0.027534639462828636, -0.043656554073095322, 0.032715827226638794, 0.0032819958869367838, -0.041067082434892654, -0.026794666424393654, 0.059345066547393799, -0.0044285617768764496, -0.035126425325870514, -0.0074259587563574314, -0.030872756615281105, };
const TfArray<1, int> tensor_dimension2 = { 1, { 40 } };
const ALIGN(16) float tensor_data3[4] = { 0.57338047027587891, -0.14313246309757233, 0.099069863557815552, -0.64725005626678467, };
const TfArray<1, int> tensor_dimension3 = { 1, { 4 } };
const ALIGN(16) float tensor_data4[40*222] = { 
  -0.064516879618167877, -0.033414572477340698, 0.09711156040430069, -0.0046118078753352165, 0.0018573267152532935, -0.063930779695510864, -0.19150827825069427, -0.088930763304233551, -0.015224292874336243, -0.10795161128044128, 0.12126971036195755, 0.12514773011207581, -0.12739895284175873, -0.051589317619800568, -0.077082738280296326, 0.067761890590190887, 0.1169075220823288, -0.10289193689823151, -0.060524370521306992, 0.025333473458886147, 0.10131297260522842, -0.07212531566619873, -0.091401539742946625, -0.012953137047588825, -0.056969288736581802, 0.01210393849760294, 0.098230287432670593, -0.087805651128292084, 0.18002492189407349, 0.18770338594913483, 0.096768416464328766, 0.056237157434225082, 0.017074767500162125, 0.042493484914302826, 0.16647809743881226, 0.0749211385846138, -0.053144600242376328, -0.090679235756397247, 0.076112866401672363, -0.072483092546463013, -0.0017636603442952037, -0.063096687197685242, -0.076633147895336151, -0.19836941361427307, -0.15873080492019653, -0.0054053501226007938, -0.1350921094417572, -0.076271578669548035, 0.084500662982463837, -0.15898583829402924, -0.06020636111497879, -0.017064832150936127, -0.06774592399597168, -0.06371038407087326, -0.069012612104415894, 0.15175507962703705, 0.034316971898078918, -0.049455810338258743, -0.03081185556948185, -0.1118905246257782, 0.10484978556632996, 0.071680009365081787, -0.10520551353693008, 0.12740258872509003, 0.15857855975627899, -0.088748559355735779, 0.18156717717647552, 0.15981216728687286, 0.046831723302602768, 0.011421769857406616, 0.1169537827372551, -0.053285982459783554, -0.012133192270994186, 0.0043182093650102615, -0.14622718095779419, -0.024300126358866692, -0.07724492996931076, -0.0042054424993693829, 0.061452336609363556, -0.20609728991985321, -0.0064271073788404465, -0.13977354764938354, -0.10822385549545288, -0.16697455942630768, 0.033538125455379486, -0.13919258117675781, -0.089507952332496643, -0.080426163971424103, 0.039352308958768845, -0.14293950796127319, -0.01858808845281601, -0.13226704299449921, 0.026560479775071144, -0.048544839024543762, 0.10915303975343704, 0.16941964626312256, 0.057956460863351822, 0.1053340956568718, -0.062743090093135834, -0.09668731689453125, -0.011783893220126629, 0.16818583011627197, 0.077390342950820923, 0.13263267278671265, 0.088888436555862427, 0.17403177917003632, 0.0096039101481437683, -0.012863903306424618, -0.0033378093503415585, -0.00044332450488582253, 0.080346986651420593, 0.025283398106694221, 0.11835972219705582, -0.04974832758307457, -0.18910689651966095, -0.078307092189788818, -0.10865505784749985, -0.17531062662601471, 0.081848420202732086, 0.0695682093501091, -0.10823890566825867, 0.022549688816070557, 0.063874520361423492, -0.126985102891922, -0.10929932445287704, -0.010832814499735832, -0.06963028758764267, -0.18407906591892242, -0.054678130894899368, -0.11773447692394257, -0.042106073349714279, -0.12043412774801254, -0.055867943912744522, -0.056102115660905838, 0.065686784684658051, 0.033584598451852798, -0.063612781465053558, -0.068126127123832703, -0.16754816472530365, -0.073306955397129059, 0.0892023965716362, -0.020981095731258392, -0.1307380348443985, -0.14292469620704651, -0.09293675422668457, -0.071095429360866547, -0.015992471948266029, 0.079394258558750153, -0.066340632736682892, -0.014501557685434818, -0.014167743735015392, -0.013291144743561745, 0.025185231119394302, 0.088048160076141357, 0.0040906686335802078, -0.096023716032505035, -0.06808868795633316, -0.050595078617334366, -0.05923115462064743, -0.050585925579071045, 0.0075362925417721272, -0.048791144043207169, -0.020079601556062698, -0.073704540729522705, -0.054450862109661102, -0.11668594181537628, -0.18007376790046692, -0.063485361635684967, -0.071021981537342072, -0.18984968960285187, -0.17664119601249695, -0.0087533984333276749, -0.10592672973871231, -0.15434513986110687, -0.023802623152732849, 0.05176829919219017, -0.16896969079971313, -0.017170989885926247, -0.073756642639636993, 0.022577673196792603, -0.088317826390266418, 0.020358044654130936, 0.0047202948480844498, -0.1577763557434082, -0.12534141540527344, -0.022233646363019943, 0.12584218382835388, -0.033365234732627869, -0.18597356975078583, 0.011255815625190735, 0.023115668445825577, -0.10874707251787186, 0.076169915497303009, -0.08024122565984726, 0.040582228451967239, 0.018519338220357895, -0.15953381359577179, -0.020811503753066063, -0.079506039619445801, -0.0076871686615049839, -0.0836377814412117, -0.01063323300331831, -0.028196370229125023, 0.047236356884241104, -0.046470995992422104, -0.020087892189621925, -0.020210020244121552, -0.093995831906795502, 0.10109526664018631, 0.103131964802742, 0.051321174949407578, -0.14027990400791168, 0.07040984183549881, 0.083658292889595032, -0.14837920665740967, 0.092197149991989136, 0.088306762278079987, -0.16951635479927063, 0.08524736762046814, -0.11987045407295227, -0.12861825525760651, -0.068911641836166382, 
  -0.14450256526470184, 0.16832175850868225, -0.10132966935634613, 0.020196536555886269, 0.037725720554590225, -0.056675504893064499, 0.055928289890289307, 0.12385623157024384, 0.13640864193439484, 0.19178487360477448, 0.004351017065346241, 0.14541439712047577, 0.12252819538116455, -0.0030584807973355055, -0.019812123849987984, -0.00017812188889365643, 0.1516735851764679, 0.13197422027587891, -0.098689466714859009, 0.064578160643577576, -0.040655717253684998, 0.17425815761089325, 0.11593713611364365, 0.14271937310695648, 0.042551223188638687, -0.11061844229698181, 0.034001633524894714, 0.015498802065849304, -0.10488509386777878, 0.15730713307857513, 0.0076534580439329147, -0.026007194072008133, 0.0037602828815579414, 0.14876237511634827, 0.12201527506113052, 0.17379167675971985, 0.12452472746372223, -0.0073946397751569748, -0.0008512099739164114, -0.013521312735974789, -0.051878612488508224, -0.11411543190479279, 0.088594429194927216, -0.010347836650907993, 0.020305883139371872, 0.02712017297744751, 0.11783341318368912, -0.0045802299864590168, -0.073158048093318939, 0.028640111908316612, 0.05585261806845665, 0.043054159730672836, -0.067145973443984985, 0.14297705888748169, 0.0083796950057148933, -0.01460847444832325, 0.17500191926956177, -0.020316286012530327, 0.057575047016143799, -0.089967012405395508, 0.055613607168197632, -0.027049412950873375, 0.093707159161567688, 0.021571148186922073, -0.096550807356834412, -0.025658246129751205, 0.11821312457323074, 0.16856004297733307, -0.065666332840919495, 0.0072239553555846214, -0.11208914220333099, 0.015315151773393154, 0.03313605859875679, 0.13373057544231415, -0.082833841443061829, -0.0048942877911031246, -0.11164488643407822, -0.07551322877407074, 0.073643088340759277, -0.058530796319246292, -0.066500335931777954, 0.079572126269340515, -0.13720308244228363, -0.12476665526628494, -0.1375231146812439, -0.027139337733387947, 0.058162398636341095, -0.018917987123131752, 0.085976399481296539, -0.060381259769201279, -0.087130114436149597, 0.068195797502994537, -0.012089480645954609, 0.022859441116452217, 0.11454205960035324, 0.13967736065387726, 0.13558244705200195, 0.003269851440563798, -0.054810460656881332, -0.10270830243825912, 0.13897794485092163, -0.096269048750400543, -0.049794789403676987, 0.10894268006086349, 0.10331376641988754, -0.047421958297491074, 0.032899864017963409, -0.081227600574493408, 0.079939819872379303, 0.026360111311078072, -0.085265614092350006, -0.0093614589422941208, 0.079435184597969055, -0.11440571397542953, -0.082107082009315491, 0.13411296904087067, 0.085905171930789948, -0.12931609153747559, -0.030886368826031685, -0.053450554609298706, -0.17457978427410126, 0.00048117822734639049, -0.049029789865016937, -0.040086861699819565, 0.0092565957456827164, 0.022987315431237221, -0.024083210155367851, 0.11138486117124557, -0.089865170419216156, -0.15605907142162323, -0.18814051151275635, 0.088196001946926117, 0.048278350383043289, -0.18631751835346222, 0.088799983263015747, -0.13233272731304169, 0.043569423258304596, 0.10205165296792984, 0.055626638233661652, 0.0028695403598248959, -0.14103648066520691, -0.022943388670682907, -0.0021547118667513132, 0.020183708518743515, 0.096174150705337524, -0.024306776002049446, -0.087403088808059692, -0.084587752819061279, -0.064555495977401733, 0.091067694127559662, 0.073417901992797852, -0.059022445231676102, 0.021171316504478455, -0.10619208216667175, -0.16845697164535522, -0.00258811772800982, 0.091420702636241913, 0.099381066858768463, 0.079083338379859924, -0.006184866651892662, -0.067035168409347534, 0.010235457681119442, 0.090722993016242981, 0.0038353470154106617, 0.070661097764968872, -0.10317616909742355, -0.049255825579166412, 0.059700343757867813, -0.086473852396011353, 0.083935268223285675, 0.092358343303203583, -0.047671642154455185, 0.003504385007545352, -0.0075238673016428947, -0.14775897562503815, 0.11258113384246826, 0.077556721866130829, 0.086626008152961731, -0.077795334160327911, -0.14854320883750916, -0.1614769846200943, 0.10998822003602982, -0.095721416175365448, 0.017375988885760307, -0.16739571094512939, -0.10980353504419327, 0.1069284975528717, -0.084030158817768097, -0.16647109389305115, 0.079062208533287048, -0.13459162414073944, -0.084062337875366211, 0.06185435876250267, -0.038720797747373581, -0.11713290959596634, -0.092695221304893494, -0.073851324617862701, 0.082743041217327118, 0.13438773155212402, -0.061106249690055847, 0.021276842802762985, -0.10804679244756699, -0.004190138541162014, -0.0144420200958848, -0.073342405259609222, 0.12218543142080307, -0.12449038028717041, -0.15673083066940308, -0.025891546159982681, -0.12687085568904877, -0.041848737746477127, 0.11602423340082169, -0.0046603786759078503, -0.075675256550312042, -0.0076791262254118919, 0.086778976023197174, -0.092814095318317413, 0.12236830592155457, 0.037061642855405807, 0.0869455486536026, 0.075007960200309753, -0.03017791360616684, 
  0.029553709551692009, -0.16270621120929718, 0.048301205039024353, 0.036000989377498627, 0.08781297504901886, -0.16075864434242249, -0.15949875116348267, -0.13631641864776611, 0.013061663135886192, -0.021665472537279129, 0.15817055106163025, 0.098267413675785065, 0.04773460328578949, 0.17501676082611084, -0.031066883355379105, -0.02834741398692131, 0.12475829571485519, 0.021696478128433228, -0.077268041670322418, 0.1380208283662796, 0.12913891673088074, -0.086326315999031067, 0.10668360441923141, -0.025670861825346947, 0.10556207597255707, 0.13004960119724274, 0.026544824242591858, 0.13140392303466797, 0.06958586722612381, 0.070790261030197144, 0.19057747721672058, 0.029195627197623253, 0.013088077306747437, 0.084512427449226379, 0.0088248150423169136, 0.045759409666061401, 0.063163787126541138, -0.082442097365856171, -0.15402776002883911, -0.12827950716018677, 0.0066498871892690659, -0.00051483325660228729, -0.03739972785115242, -0.089132837951183319, -0.16921685636043549, -0.15342038869857788, -0.013645409606397152, 0.10581028461456299, 0.012741589918732643, 0.0306871198117733, -0.15628348290920258, -0.077312782406806946, 0.082183308899402618, 0.15675416588783264, 0.043828148394823074, -0.036298751831054688, 0.05609547346830368, -0.045623466372489929, 0.12373633682727814, 0.017215792089700699, -0.022474385797977448, 0.2014976292848587, 0.18504257500171661, 0.093665100634098053, -0.071415089070796967, 0.13737879693508148, 0.082944594323635101, 0.13066969811916351, -0.01726124994456768, 0.14458650350570679, 0.034340795129537582, 0.19210562109947205, -0.06742684543132782, -0.070363104343414307, -0.10983389616012573, 0.084971509873867035, -0.098267704248428345, 0.0047969557344913483, 0.031478684395551682, 0.069613702595233917, -0.037661198526620865, -0.019108526408672333, -0.051670093089342117, -0.11021162569522858, -0.095345169305801392, -0.15270911157131195, -0.019591007381677628, -0.071431487798690796, 0.093165300786495209, -0.059649132192134857, 0.13114058971405029, 0.045411121100187302, -0.028935890644788742, 0.13139007985591888, 0.12260346859693527, 0.069377399981021881, 0.0032663915771991014, 0.056266617029905319, 0.088227130472660065, -0.049395699054002762, 0.1939108818769455, 0.08115021139383316, -0.068602629005908966, 0.096523933112621307, -0.084484957158565521, 0.16605480015277863, 0.00065373763209208846, 0.14826400578022003, -0.076360516250133514, 0.1843549907207489, 0.041999921202659607, 0.019388657063245773, -0.079651601612567902, -0.047797124832868576, -0.15757729113101959, -0.045862987637519836, -0.11261583864688873, 0.092680282890796661, 0.038718964904546738, 0.049427647143602371, -0.15726582705974579, -0.18989704549312592, -0.019308418035507202, -0.039930529892444611, 0.074663139879703522, -0.018372924998402596, 0.072977520525455475, 0.034203436225652695, -0.17776939272880554, -0.20333875715732574, 0.0050635640509426594, -0.0386691614985466, -0.12240975350141525, 0.042712684720754623, 0.0026439633220434189, 0.0013945890823379159, 0.046335551887750626, -0.045331504195928574, -0.09616117924451828, -0.15733525156974792, 0.036900047212839127, -0.12015661597251892, -0.14394275844097137, -0.024217875674366951, 0.032711617648601532, -0.10922516882419586, 0.090016596019268036, 0.075033150613307953, 0.057457219809293747, 0.13073736429214478, 0.058484580367803574, -0.0088651794940233231, -0.061477415263652802, -0.049185100942850113, 0.079021275043487549, -0.13709370791912079, -0.14774207770824432, 0.06820988655090332, 0.084013670682907104, -0.0806308314204216, -0.051821831613779068, -0.051100455224514008, 0.047657087445259094, -0.20764125883579254, -0.14689081907272339, -0.0066111702471971512, -0.023603495210409164, -0.1234162375330925, -0.15279150009155273, -0.0748429074883461, 0.070211634039878845, -0.086679965257644653, 0.061746735125780106, 0.00018390620243735611, 0.024508947506546974, -8.6380285210907459e-05, 0.055905446410179138, -0.1486503928899765, -0.13636049628257751, 0.067318007349967957, -0.16566562652587891, -0.044950883835554123, -0.13075026869773865, -0.092011526226997375, -0.10321742296218872, -0.047397539019584656, -0.15273261070251465, -0.08649173378944397, -0.1844659298658371, -0.18768364191055298, -0.02638675644993782, -0.12975051999092102, -0.12539185583591461, -0.13777913153171539, -0.102420374751091, -0.17556922137737274, -0.14892879128456116, -0.1064608171582222, 0.076614104211330414, -0.077777847647666931, 0.037068326026201248, 0.050971157848834991, 0.09011542797088623, 0.078268162906169891, -0.088209889829158783, -0.090256296098232269, -0.20148785412311554, 0.029277317225933075, -0.12855714559555054, -0.078449897468090057, 0.076890453696250916, -0.11749245226383209, -0.036457687616348267, -0.025726182386279106, 0.0079042268916964531, -0.082504376769065857, -0.055683691054582596, 0.09431447833776474, -0.062975957989692688, -0.078582093119621277, -0.1679559051990509, 0.094704240560531616, 
  -0.17930659651756287, -0.3414117693901062, -0.14456336200237274, -0.059534579515457153, 0.0071280836127698421, 0.054682839661836624, -0.041095532476902008, -0.055949650704860687, -0.17285127937793732, -0.022626733407378197, -0.15598785877227783, -0.20267333090305328, 0.019629308953881264, 0.0024433552753180265, 0.30056464672088623, -0.033697418868541718, 0.15389238297939301, 0.13735678791999817, 0.2229701429605484, 0.10243670642375946, -0.0097353486344218254, 0.051539894193410873, 0.21986374258995056, 0.10899733006954193, 0.14379690587520599, -0.0388018898665905, 0.053308706730604172, 0.080294676125049591, -0.10976582765579224, -0.026406895369291306, 0.19481924176216125, 0.13722845911979675, -0.10448072105646133, 0.08377537876367569, -0.12128125876188278, 0.065442182123661041, -0.071002952754497528, -0.063535794615745544, -0.0059507959522306919, -0.025334665551781654, -0.013762644492089748, 0.041013658046722412, -0.14866830408573151, -0.15934617817401886, 0.023455286398530006, 0.057283874601125717, -0.16133707761764526, -0.011583807878196239, -0.27555730938911438, -0.009549606591463089, -0.1543581485748291, 0.024019435048103333, -0.19110321998596191, -0.081825733184814453, -0.11889784783124924, -0.3414408266544342, -0.066606320440769196, -0.14989928901195526, -0.23490279912948608, 0.041984926909208298, -0.19305744767189026, -0.14133302867412567, -0.13308846950531006, -0.053771879523992538, 0.041536495089530945, -0.063191719353199005, 0.022232469171285629, -0.07179347425699234, -0.083162404596805573, -0.14029012620449066, 0.044871669262647629, 0.036924142390489578, -0.0041977684013545513, -0.19135467708110809, -0.076376698911190033, -0.046124286949634552, 0.21038168668746948, -0.12616142630577087, 0.067249767482280731, -0.25799843668937683, -0.20208805799484253, 0.055341634899377823, -0.11386968940496445, -0.047133326530456543, 0.01282893680036068, -0.28289958834648132, -0.092056900262832642, 0.0056473035365343094, -0.045538611710071564, 0.050256934016942978, -0.2423207014799118, 0.12212644517421722, -0.098886683583259583, -0.174684077501297, 0.053199667483568192, -0.0075048343278467655, -0.031271610409021378, 0.14015801250934601, -0.052753504365682602, -0.11506203562021255, -0.048493757843971252, -0.1553170382976532, 0.050662484019994736, -0.067397013306617737, 0.083968646824359894, 0.038049761205911636, -0.13651867210865021, -0.10000815242528915, -0.10429602116346359, -0.13394208252429962, 0.054586984217166901, 0.10440654307603836, -0.03317921981215477, 0.09934709221124649, -0.11023174971342087, -0.029269928112626076, -0.1737697422504425, -0.1220502108335495, -0.046076472848653793, 0.12752290070056915, -0.014938531443476677, 0.093601591885089874, -0.16510798037052155, -0.00096762552857398987, -0.17220832407474518, -0.1524830162525177, -0.038773342967033386, 0.032792281359434128, -0.092544473707675934, 0.11720921844244003, -0.021811004728078842, 0.062781304121017456, -0.098771549761295319, 0.0585487000644207, -0.022422332316637039, 0.058284848928451538, 0.064509660005569458, -0.069117337465286255, 0.12905010581016541, -0.055341113358736038, 0.18916206061840057, 0.14371563494205475, 0.12315573543310165, 0.1308702826499939, -0.091087900102138519, -0.066959261894226074, -0.13101539015769958, -0.017245862632989883, 0.098254457116127014, 0.068961955606937408, -0.0038678622804582119, -0.060809366405010223, -0.068742774426937103, -0.011244107037782669, 0.10299509763717651, 0.055125158280134201, 0.080644421279430389, 0.15141050517559052, 0.078363023698329926, -0.15790362656116486, -0.096300207078456879, -0.13932180404663086, -0.020794138312339783, 0.012162164784967899, -0.13447234034538269, 0.12354647368192673, 0.00095173477893695235, -0.014191295951604843, 0.01483005378395319, 0.00051577511476352811, 0.04318082332611084, -0.077619977295398712, 0.013837981037795544, -0.028631316497921944, -0.12470408529043198, 0.061641272157430649, -0.020653609186410904, 0.01408664882183075, -0.0090431002900004387, 0.049815185368061066, 0.01930687204003334, -0.10525742173194885, 0.027575867250561714, 0.070159919559955597, -0.073997147381305695, 0.058278679847717285, -0.046022407710552216, 0.2719363272190094, 0.086894586682319641, -0.037499029189348221, -0.16607652604579926, -0.15301962196826935, 0.03285650908946991, -0.078793905675411224, -0.012903417460620403, 0.028412923216819763, -0.061258628964424133, -0.085532456636428833, 0.029911929741501808, 0.1013403907418251, -0.024308335036039352, 0.03798375278711319, -0.12013758718967438, -0.147579625248909, 0.080246806144714355, -0.03961094468832016, 0.03879406675696373, -0.084002688527107239, -0.035238783806562424, 0.12368989735841751, -0.056790295988321304, -0.06260412186384201, 0.065105713903903961, -0.10140068829059601, -0.13707149028778076, -0.032636314630508423, -0.060938198119401932, -0.027262916788458824, -0.11778052151203156, -0.14722147583961487, -0.034222051501274109, 0.046073313802480698, 
  -0.042994007468223572, 0.13415610790252686, 0.43032944202423096, 0.065100550651550293, -0.17798267304897308, -0.023804059252142906, -0.1690342128276825, -0.10959429293870926, 0.15196132659912109, -0.079223901033401489, -0.0071792658418416977, 0.029019603505730629, 0.13757459819316864, 0.2385341078042984, -0.0012435882817953825, 0.20533767342567444, 0.24420900642871857, 0.013685379177331924, 0.062820360064506531, 0.21078813076019287, 0.11678428202867508, -0.095891460776329041, 0.11671631783246994, 0.14962115883827209, 0.11857476085424423, 0.19651545584201813, -0.049260113388299942, 0.012469799257814884, 0.14802823960781097, 0.17740128934383392, -0.060255758464336395, 0.17045736312866211, 0.060250133275985718, -0.061195142567157745, -0.13449829816818237, -0.063871778547763824, 0.16195470094680786, 0.10002022236585617, 0.29982522130012512, -0.082905098795890808, 0.13761991262435913, 0.1382548063993454, 0.073511295020580292, 0.02011369913816452, 0.073268607258796692, -0.044480402022600174, -0.028927810490131378, 0.058355748653411865, 0.048875249922275543, -0.017876684665679932, -0.015826454386115074, 0.087595246732234955, -0.040879800915718079, 0.00011468285811133683, -0.11250023543834686, -0.012235116213560104, 0.049988988786935806, 0.31238323450088501, 0.014218555763363838, -0.014835741370916367, 0.30751439929008484, 0.015858231112360954, -0.12088959664106369, 0.21553054451942444, 0.090126372873783112, 0.043078102171421051, 0.16014693677425385, 0.060757793486118317, 0.052383366972208023, -0.033879995346069336, 0.12880565226078033, 0.16761985421180725, 0.118747778236866, 0.18854346871376038, -0.15796642005443573, -0.28636699914932251, -0.055263146758079529, 0.1336069256067276, 0.27418059110641479, 0.11419178545475006, -0.15172457695007324, -0.1550452709197998, -0.21965369582176208, 0.029415467754006386, 0.10959629714488983, -0.16255605220794678, -0.25784188508987427, 0.045608293265104294, 0.030283527448773384, 0.13848298788070679, -0.049942426383495331, -0.0021727508865296841, 0.18917544186115265, 0.048208437860012054, 0.19100512564182281, 0.22561348974704742, 0.23419030010700226, 0.078034818172454834, 0.14639301598072052, 0.061727773398160934, 0.038770228624343872, 0.061944782733917236, -0.032916709780693054, 0.12136589735746384, -0.029240811243653297, 0.15934959053993225, 0.21720337867736816, 0.054533969610929489, 0.024135841056704521, 0.085661031305789948, -0.038997463881969452, 0.061443593353033066, 0.5524827241897583, 0.1739838570356369, -0.005600273609161377, -0.011980541981756687, 0.12971091270446777, 0.14430880546569824, -0.063021257519721985, -0.074873626232147217, 0.14637596905231476, -0.1100885272026062, 0.12306632101535797, 0.078437231481075287, 0.14138586819171906, 0.14089249074459076, 0.064518742263317108, 0.036883644759654999, 0.14992088079452515, 0.10753300786018372, 0.064499177038669586, -0.044459089636802673, 0.16046024858951569, -0.070118173956871033, 0.0029052472673356533, 0.093903690576553345, 0.016521943733096123, -0.034430664032697678, 0.085636734962463379, 0.17522566020488739, 0.19724626839160919, 0.14032340049743652, 0.13245819509029388, 0.063499629497528076, 0.16646708548069, 0.13216471672058105, -0.056926153600215912, 0.17951667308807373, -0.13155749440193176, 0.31245571374893188, -0.12033534795045853, -0.040651511400938034, -0.004504484124481678, -0.10678388178348541, -0.092951655387878418, -0.066673532128334045, -0.040407035499811172, 0.0016257382230833173, 0.040026426315307617, 0.09864237904548645, -0.17048177123069763, 0.096418380737304688, -0.040052589029073715, -0.070761285722255707, 0.2104661613702774, -0.030237363651394844, -0.092592492699623108, 0.031492624431848526, -0.029077725484967232, 0.044067766517400742, 0.10128547996282578, -0.0014029777375981212, 0.25750035047531128, 0.050238925963640213, 0.19679796695709229, 0.019976669922471046, -0.058762673288583755, 0.23309850692749023, 0.16035203635692596, -0.00011137058027088642, -0.068709656596183777, -0.021500494331121445, 0.047494601458311081, -0.08052121102809906, 0.028500812128186226, -0.063783712685108185, -1.0186794996261597, -0.32082825899124146, -0.035717461258172989, 0.03468983992934227, 0.054025072604417801, -0.015717517584562302, -0.13339173793792725, 0.0093785477802157402, -0.041383672505617142, 0.043629735708236694, 0.13813666999340057, -0.13108471035957336, -0.060485832393169403, 0.094679683446884155, 0.13753789663314819, 0.032249618321657181, -0.053307350724935532, 0.034817136824131012, -0.12275010347366333, 0.081612750887870789, 0.068473860621452332, -0.12744352221488953, 0.10368905961513519, -0.016864057630300522, 0.021206870675086975, 0.05455239862203598, 0.19124960899353027, 0.12924358248710632, 0.043648026883602142, -0.043204627931118011, -0.032722655683755875, 0.027590574696660042, 0.073687396943569183, 0.026388790458440781, 0.017515083774924278, 0.019078105688095093, 
  -0.044691786170005798, 0.026497066020965576, -0.050568729639053345, 0.014500617980957031, -0.058104589581489563, -0.13956642150878906, -0.14767418801784515, 0.02616061270236969, -0.13518062233924866, -0.046115495264530182, -0.11650384217500687, -0.014335870742797852, 0.10947500169277191, 0.040808111429214478, -0.071076996624469757, -0.029084749519824982, 0.11571304500102997, 0.034397467970848083, 0.10187198221683502, 0.061082407832145691, 0.10254649817943573, -0.10327580571174622, 0.02550525963306427, -0.11157706379890442, -0.0045757293701171875, 0.13151715695858002, 0.049489080905914307, 0.066244393587112427, 0.050444826483726501, 0.084320008754730225, 0.038575991988182068, 0.098220318555831909, -0.041309945285320282, -0.054598525166511536, 0.12942396104335785, 0.13943295180797577, 0.1021035760641098, -0.1489371657371521, -0.017766237258911133, 0.095244824886322021, -0.11637149751186371, -0.074193648993968964, -0.012618064880371094, 0.04358208179473877, 0.14773021638393402, 0.018027201294898987, -0.091867700219154358, 0.0060626417398452759, -0.018233329057693481, -0.0025637596845626831, -0.020496577024459839, 0.12072257697582245, 0.032531961798667908, 0.1457241028547287, 0.051269695162773132, -0.015473499894142151, 0.0446443110704422, 0.10507889091968536, 0.073090255260467529, 0.040312841534614563, -0.1480056494474411, -0.11554880440235138, 0.0059636086225509644, -0.024234890937805176, -0.072560966014862061, 0.011456474661827087, -0.094870015978813171, 0.029599785804748535, 0.066189408302307129, 0.1152312308549881, 0.082045421004295349, 0.00044706463813781738, 0.022542595863342285, 0.13185606896877289, 0.12985603511333466, 0.11377303302288055, 0.051735192537307739, 0.10505534708499908, -0.046639882028102875, -0.059159524738788605, 0.085038796067237854, 0.075215116143226624, 0.098090767860412598, 0.14352543652057648, 0.08274686336517334, -0.0082774758338928223, -0.12649515271186829, -0.12441442906856537, -0.11640321463346481, 0.14583165943622589, 0.12484221160411835, -0.14525231719017029, -0.021609857678413391, 0.0057903826236724854, 0.14842928946018219, -0.077908433973789215, 0.074845001101493835, 0.036958202719688416, 0.13562797009944916, 0.10648484528064728, -0.016111582517623901, 0.1026185005903244, -0.13443954288959503, -0.11418065428733826, 0.025964230298995972, 0.060591205954551697, -0.058904297649860382, 0.093257173895835876, -0.095985144376754761, 0.032370254397392273, -0.093661025166511536, -0.050154604017734528, 0.11365069448947906, -0.13907667994499207, -0.10698264837265015, -0.019741177558898926, 0.067352727055549622, -0.13372267782688141, 0.03718237578868866, -0.07791774719953537, 0.1064830869436264, 0.035227313637733459, 0.053225144743919373, 0.13353826105594635, -0.066569790244102478, 0.060079857707023621, 0.059828594326972961, 0.013610810041427612, 0.017459601163864136, 0.08424532413482666, -0.11844555288553238, -0.053982928395271301, -0.018111303448677063, -0.14187063276767731, 0.066067889332771301, 0.015918150544166565, 0.12129051983356476, 0.012534365057945251, -0.035092301666736603, 0.14217881858348846, -0.10194005072116852, -0.13894826173782349, 0.04822404682636261, -0.076892934739589691, -0.0096098035573959351, 0.043924257159233093, -0.11490102857351303, -0.017222553491592407, -0.12178856879472733, -0.13567106425762177, -0.12202940136194229, 0.14969010651111603, -0.052553340792655945, -0.15015688538551331, -0.10363595187664032, 0.14916731417179108, -0.00066769123077392578, -0.10048729181289673, -0.041379287838935852, -0.0075395703315734863, 0.069960609078407288, 0.099819645285606384, 0.11156342923641205, -0.01662774384021759, -0.0060178637504577637, 0.046252384781837463, 0.09110945463180542, 0.12402324378490448, -0.0065853297710418701, 0.081659302115440369, -0.016990840435028076, 0.016274124383926392, -0.11232470721006393, 0.14430452883243561, 0.13647754490375519, -0.018998980522155762, 0.063781112432479858, 0.0023742765188217163, -0.034468367695808411, -0.15079975128173828, -0.022851258516311646, -0.020445063710212708, 0.082953453063964844, 0.025595888495445251, -0.04435710608959198, 0.055158123373985291, -0.087030656635761261, 0.12522141635417938, 0.13687624037265778, -0.048891842365264893, -0.093989640474319458, -0.12678346037864685, -0.13254322111606598, 0.078268155455589294, 0.057282537221908569, 0.13351847231388092, 0.07574068009853363, -0.042386136949062347, 0.084693804383277893, -0.095827147364616394, 0.13112254440784454, 0.051138103008270264, -0.089648358523845673, -0.058867715299129486, 0.038939684629440308, 0.14538969099521637, 0.03326907753944397, 0.0046351850032806396, -0.052318677306175232, -0.0047795027494430542, 0.12717144191265106, 0.065048053860664368, -0.12376177310943604, 0.14228196442127228, 0.019507095217704773, -0.028847344219684601, 0.10422618687152863, -0.064014330506324768, -0.1103803962469101, 0.12632004916667938, -0.013279423117637634, -0.058451607823371887, 
  0.033512100577354431, 0.40138816833496094, 0.76070100069046021, -0.11402785032987595, -0.14121125638484955, 0.083333507180213928, 0.00042602431494742632, 0.11625906825065613, -0.036238059401512146, 0.10860209167003632, -0.056928627192974091, -0.021058039739727974, -0.075315840542316437, 0.22226743400096893, 0.14805451035499573, 0.28682601451873779, -0.0022549438290297985, -0.13633938133716583, -0.17440079152584076, 0.010538184083998203, 0.0082194535061717033, 0.076888702809810638, -0.017926197499036789, 0.08748239278793335, 0.007109242957085371, -0.097216010093688965, -0.097480989992618561, 0.11606837809085846, 0.019648870453238487, 0.10405407100915909, -0.088202051818370819, 0.13994815945625305, 0.13111427426338196, -0.13371007144451141, -0.070336289703845978, 0.064528122544288635, 0.034009911119937897, 0.048217199742794037, -0.11634901911020279, 0.14997729659080505, 0.13428957760334015, 0.097330041229724884, -0.012367350049316883, 0.13401263952255249, -0.041469193994998932, -0.10529180616140366, -0.092592060565948486, -0.084711536765098572, -0.046640511602163315, -0.086436808109283447, -0.15522819757461548, 0.089325994253158569, 0.091265738010406494, 0.054619219154119492, 0.0050428537651896477, 0.1301971822977066, 0.14036943018436432, 0.20346638560295105, 0.12854979932308197, -0.018203997984528542, 0.060488902032375336, -0.067851170897483826, 0.16233430802822113, 0.31154626607894897, 0.26142120361328125, 0.26901012659072876, 0.13774305582046509, 0.2260754406452179, 0.0072021437808871269, 0.4063478410243988, 0.17141202092170715, 0.20118288695812225, -0.0086370194330811501, 0.30237838625907898, 0.092479817569255829, -0.40437617897987366, -0.11842673271894455, 0.036168564110994339, 0.15961076319217682, 0.27116143703460693, 0.10338571667671204, -0.12296678870916367, -0.16164043545722961, -0.22200493514537811, -0.021383268758654594, -0.18089622259140015, -0.04836200550198555, -0.069343455135822296, -0.26842767000198364, 0.087856359779834747, 0.011280548758804798, -0.10507117956876755, -0.030024124309420586, 0.14146240055561066, 0.07405351847410202, 0.18708178400993347, 0.12510579824447632, -0.11669787764549255, 0.33037903904914856, 0.13396012783050537, 0.04689069464802742, 0.019938534125685692, 0.008489503525197506, 0.29730018973350525, 0.22240132093429565, 0.054141107946634293, 0.19753898680210114, -0.1811915785074234, 0.047022879123687744, 0.032024983316659927, 0.1027890145778656, 0.020672805607318878, 0.82067358493804932, 0.25780853629112244, 0.25637564063072205, 0.15249331295490265, 0.10897257924079895, -0.11461172252893448, -0.075251102447509766, -0.11262267827987671, -0.12927944958209991, -0.022496767342090607, -0.17480243742465973, -0.020409649237990379, 0.058862339705228806, -0.20885235071182251, -0.056258104741573334, -0.10424609482288361, 0.075875654816627502, 0.10164302587509155, 0.1273050457239151, -0.18350352346897125, 0.083932161331176758, -0.18225480616092682, -0.0075420993380248547, -0.12320087105035782, -0.12006339430809021, 0.049037132412195206, -0.0673995241522789, -0.15040738880634308, 0.12310059368610382, 0.065901927649974823, -0.089120931923389435, 0.053013782948255539, -0.053468640893697739, -0.020691318437457085, -0.099159792065620422, -0.15089736878871918, 0.059165380895137787, -0.36995211243629456, -0.34615877270698547, -0.055445242673158646, 0.15886498987674713, 0.018322840332984924, -0.13675075769424438, -0.14640900492668152, -0.20731137692928314, -0.053965263068675995, -0.00044457553303800523, -0.055307894945144653, -0.070752985775470734, 0.077137619256973267, -0.099596954882144928, 0.09578792005777359, -0.16339561343193054, 0.039028875529766083, 0.027043171226978302, -0.051451276987791061, 0.072436064481735229, -0.0080957831814885139, 0.025039484724402428, 0.11247488856315613, 0.24460847675800323, 0.021625610068440437, 0.086153142154216766, 0.15413309633731842, 0.12843017280101776, -0.04793369397521019, 0.11952964961528778, 0.0059855873696506023, -0.026513475924730301, -0.10107211768627167, -0.12411607056856155, 0.024505792185664177, 0.17894062399864197, -0.070086680352687836, 0.060908857733011246, 0.16293667256832123, -0.057719063013792038, 0.17855095863342285, -0.090581297874450684, -0.017231874167919159, 0.027688087895512581, 0.047016672790050507, -0.10551204532384872, -0.12073785066604614, -0.0018846744205802679, -0.025904394686222076, 0.024406086653470993, -0.11674289405345917, 0.027812780812382698, -0.11239361017942429, 0.10146195441484451, 0.16631439328193665, 0.022160079330205917, 0.10096319019794464, -0.024868028238415718, 0.075920134782791138, -0.097156770527362823, 0.069994650781154633, 0.084640495479106903, 0.14843070507049561, -0.10095889121294022, -0.080551475286483765, -0.049120843410491943, 0.025108976289629936, -0.068512849509716034, -0.0067488732747733593, -0.079595685005187988, 0.17306722700595856, -0.022311309352517128, -0.071244321763515472, 
  -0.093621745705604553, 0.022963834926486015, 0.77064520120620728, -0.0020147408358752728, -0.12081684172153473, -0.011012023314833641, -0.25194886326789856, -0.24380123615264893, -0.072846367955207825, -0.20756003260612488, -0.074658751487731934, -0.009373106062412262, 0.0080602951347827911, -0.11149801313877106, -0.025220129638910294, 0.058357872068881989, -0.00099014770239591599, -0.13971629738807678, -0.02465350367128849, 0.17967753112316132, -0.018287975341081619, 0.10336656868457794, 0.0096366191282868385, 0.018158858641982079, -0.00081392331048846245, -0.044770535081624985, -0.0043510403484106064, -0.069042764604091644, -0.10951845347881317, 0.13943228125572205, -0.025316353887319565, 0.064178109169006348, 0.094009459018707275, -0.050405051559209824, -0.1126524806022644, -0.1197349801659584, 0.0029346318915486336, 0.065482176840305328, 0.18078038096427917, -0.41475266218185425, 0.18256469070911407, 0.15855942666530609, 0.074533835053443909, -0.015837229788303375, 0.019204307347536087, -0.039492972195148468, -0.14928191900253296, -0.14885702729225159, 0.051198825240135193, 0.07790905237197876, -0.021740881726145744, 0.29166185855865479, -0.1349496990442276, 0.30472290515899658, 0.069492392241954803, -0.027671990916132927, 0.28670606017112732, 0.65719938278198242, 0.44369682669639587, 0.1859661191701889, 0.26885759830474854, 0.10111407190561295, 0.19216790795326233, 0.1976238489151001, 0.31249400973320007, 0.24476282298564911, 0.3111443817615509, 0.084822870790958405, 0.13740506768226624, 0.32669755816459656, 0.22627311944961548, 0.33542051911354065, 0.20219211280345917, 0.15767170488834381, -0.01806102879345417, -0.15824297070503235, 0.23814393579959869, 0.06965097039937973, -0.063575029373168945, -0.084727175533771515, -0.20559050142765045, -0.05718839168548584, -0.18517763912677765, -0.15461051464080811, -0.2171882838010788, 0.019833682104945183, -0.17220066487789154, -0.10798303782939911, 0.023929541930556297, 0.25245055556297302, -0.00097241881303489208, -0.024818019941449165, 0.047235414385795593, 0.12851624190807343, 0.15986035764217377, -0.063691891729831696, 0.15331356227397919, 0.08749767392873764, 0.32318639755249023, -0.0025119897909462452, 0.028977593407034874, -0.16487710177898407, 0.11755061894655228, 0.033372942358255386, -0.080449141561985016, 0.069001585245132446, -0.074113845825195312, -0.10561709851026535, 0.18719795346260071, 0.034306731075048447, -0.23243655264377594, -0.0031065451912581921, 0.71067750453948975, 0.098046354949474335, -0.079708769917488098, 0.096676692366600037, -0.10875464975833893, -0.056584559381008148, 0.0084925293922424316, 0.052896007895469666, 0.016884919255971909, -0.083085857331752777, 0.068549968302249908, -0.18262572586536407, -0.19888132810592651, -0.068474858999252319, -0.11622358858585358, 0.057896092534065247, -0.10309476405382156, -0.18905700743198395, -0.096729882061481476, 0.11227116733789444, -0.10798497498035431, 0.055748298764228821, 0.0035330746322870255, 0.071973137557506561, -0.060383826494216919, 0.068357601761817932, -0.19855186343193054, -0.013673707842826843, -0.02100505493581295, 0.13091179728507996, 0.12283755838871002, -0.030239511281251907, 0.06406877189874649, 0.079828649759292603, -0.12988555431365967, -0.058495637029409409, -0.0378231480717659, 1.0570309162139893, -0.50164180994033813, 0.13376100361347198, 0.13412748277187347, 0.016433153301477432, -0.020230239257216454, -0.07297699898481369, 0.078647062182426453, -0.1638726145029068, 0.094278052449226379, -0.14450566470623016, 0.054507452994585037, 0.025657474994659424, -0.10882516950368881, -0.063747592270374298, 0.075908809900283813, 0.082589156925678253, 0.01357570756226778, 0.16793610155582428, 0.046693760901689529, 0.10254164785146713, 0.19003601372241974, 0.080616191029548645, 0.13188214600086212, 0.087331771850585938, 0.031150391325354576, 0.13985848426818848, 0.21191196143627167, -0.02945873886346817, -0.081914961338043213, -0.03460804745554924, 0.12632188200950623, 0.1765877902507782, 0.00023418967612087727, -0.12017327547073364, -0.036554686725139618, 0.12485340237617493, -1.317844033241272, -0.78761774301528931, 0.10283241420984268, 0.026936465874314308, 0.029192330315709114, -0.16030730307102203, 0.0033204765059053898, 0.028692267835140228, -0.10419657826423645, 0.094980955123901367, -0.011801340617239475, 0.10751918703317642, 0.025293873623013496, 0.086104743182659149, -0.041114427149295807, -0.087911322712898254, 0.10714887082576752, 0.010539503768086433, -0.054962296038866043, 0.072021298110485077, 0.058741316199302673, -0.11630205810070038, 0.032443217933177948, 0.053702592849731445, -0.083571970462799072, 0.18864651024341583, 0.032263673841953278, -0.094228759407997131, -0.068933039903640747, -0.050043124705553055, 0.0069597261026501656, 0.05119139701128006, 0.062167283147573471, -0.043682627379894257, -0.019439036026597023, 0.047570060938596725, 
  0.048393566161394119, 0.034711781889200211, -0.092386163771152496, -0.034470133483409882, -0.030130654573440552, -0.018534330651164055, 0.051642820239067078, -0.0060396161861717701, 0.040224723517894745, 0.12445505708456039, 0.10891500860452652, 0.11279591917991638, 0.052409440279006958, 0.096319638192653656, 0.11319069564342499, 0.06811089813709259, -0.0081487633287906647, -0.13224555552005768, -0.12516230344772339, -0.11455148458480835, -0.082858771085739136, -0.14397987723350525, -0.14631713926792145, -0.060695603489875793, -0.085933730006217957, -0.14597254991531372, 0.14210200309753418, 0.067698664963245392, 0.0079303020611405373, -0.02466362901031971, 0.088396728038787842, 0.11727350950241089, -0.0047269281931221485, 0.11669149994850159, 0.083696350455284119, -0.072565712034702301, 0.016729312017560005, -0.061928264796733856, -0.13413938879966736, -0.15138384699821472, -0.076547764241695404, -0.10265228152275085, 0.10346626490354538, -0.032675471156835556, 0.064300484955310822, -0.012453810311853886, -0.1559910774230957, 0.087716124951839447, 0.11736207455396652, 0.045773345977067947, -0.12847195565700531, -0.10678067803382874, -0.015202317386865616, -0.062790222465991974, -0.012663733214139938, -0.097894132137298584, 0.01663362979888916, 0.061442200094461441, 0.02506483718752861, 0.1230270117521286, 0.092473611235618591, -0.017000854015350342, 0.072713792324066162, 0.029547600075602531, -0.15451885759830475, -0.14495252072811127, -0.15271300077438354, -0.11275208741426468, -0.11253567785024643, 0.029160179197788239, 0.11891456693410873, 0.106953464448452, -0.13071224093437195, 0.050651416182518005, -0.13733811676502228, 0.18049569427967072, -0.14562870562076569, -0.078193902969360352, -0.14282093942165375, 0.063065789639949799, 0.065202608704566956, 0.0078011699952185154, -0.043965592980384827, -0.13582263886928558, 0.019228376448154449, 0.11402978003025055, 0.01848871074616909, 0.10750635713338852, 0.10661207139492035, -0.15651439130306244, -0.13382439315319061, -0.10321910679340363, 0.022507211193442345, -0.098422713577747345, -0.10721822828054428, 0.10444521903991699, 0.0081912940368056297, -0.090792059898376465, -0.001971603836864233, -0.11232548207044601, 0.14692993462085724, -0.023425254970788956, 0.061834599822759628, 0.04174412414431572, 0.14010666310787201, 0.17214924097061157, -0.084981255233287811, 0.13941949605941772, 0.15835410356521606, -0.11418440192937851, 0.11702088266611099, 0.053049452602863312, -0.11013852059841156, -0.12058437615633011, 0.089661084115505219, 0.06443815678358078, -0.078429065644741058, 0.038425244390964508, -0.04050007089972496, 0.068014271557331085, -0.024661479517817497, 0.1241852194070816, 0.09705594927072525, 0.0010578783694654703, 0.11872022598981857, 0.033447597175836563, 0.12132800370454788, -0.092598162591457367, -0.14029644429683685, 0.12044540792703629, 0.066457532346248627, -0.02860330231487751, 0.098641112446784973, -0.074424207210540771, -0.14628756046295166, 0.14087505638599396, 0.014591539278626442, 0.10248900949954987, -0.10533516854047775, -0.13745720684528351, -0.089321352541446686, -0.052537437528371811, 0.14908252656459808, 0.025093652307987213, -0.11384905129671097, 0.074684403836727142, 0.14906364679336548, 0.01350860483944416, 0.075402155518531799, -0.10953199118375778, 0.051453150808811188, 0.022242717444896698, -0.087610200047492981, -0.16843993961811066, -0.084127821028232574, -0.0881238654255867, 0.047088604420423508, -0.12706594169139862, -0.1437755674123764, -0.078016266226768494, 0.10583809018135071, 0.10804047435522079, -0.026116045191884041, -0.12705354392528534, 0.025788288563489914, 0.034716337919235229, 0.060402363538742065, -0.15999123454093933, 0.054785899817943573, -0.15339937806129456, 0.12780913710594177, -0.11618224531412125, 0.053823646157979965, -0.0847359299659729, -0.018185857683420181, 0.046939976513385773, 0.049523361027240753, 0.092685677111148834, -0.15057387948036194, -0.096878692507743835, 0.10042674839496613, -0.10198744386434555, 0.025575106963515282, 0.12727454304695129, -0.031744856387376785, -0.16587367653846741, 0.00799565389752388, -0.10158864408731461, 0.075013808906078339, -0.13600687682628632, 0.050369512289762497, 0.12731754779815674, 0.080620773136615753, 0.10632830113172531, 0.10312759876251221, 0.048817604780197144, 0.10395031422376633, -0.076110728085041046, 0.071375630795955658, -0.010552147403359413, -0.085716933012008667, -0.04689880833029747, -0.15031608939170837, 0.11350158601999283, 0.10438818484544754, 0.0027768819127231836, -0.1343102902173996, -0.01654352992773056, -0.15421910583972931, 0.037392474710941315, 0.040928568691015244, -0.08659101277589798, 0.014688072726130486, -0.13131310045719147, 0.0073328651487827301, 0.089223794639110565, 0.047317206859588623, 0.11120970547199249, 0.10536106675863266, -0.14580495655536652, 0.10145168751478195, -0.051303789019584656, 
  -0.13180513679981232, -0.13027746975421906, -0.063331887125968933, -0.090709559619426727, -0.028936896473169327, -0.16385747492313385, -0.18194912374019623, -0.13437278568744659, -0.055499929934740067, 0.066182173788547516, -0.076864272356033325, -0.017044408246874809, 0.10146156698465347, -0.035035930573940277, -0.049516215920448303, -0.10827389359474182, -0.15288695693016052, 0.061498507857322693, 0.057781193405389786, -0.062058024108409882, -0.0047796713188290596, -0.12314485013484955, -0.10466437786817551, 0.053384348750114441, 0.084990613162517548, 0.035920292139053345, -0.18608669936656952, -0.13190813362598419, 0.041567616164684296, -0.18104328215122223, -0.1776280403137207, -0.14426873624324799, -0.03955388069152832, -0.18386469781398773, -0.14399024844169617, -0.13571345806121826, 0.087419301271438599, -0.044426247477531433, 0.098168469965457916, -0.13931868970394135, 0.11755901575088501, -0.077690340578556061, -0.14561660587787628, -0.13558356463909149, 0.03499206155538559, 0.086146235466003418, -0.078470423817634583, -0.01899113692343235, -0.042211327701807022, -0.1552901417016983, 0.051666710525751114, -0.17048870027065277, -0.024553908035159111, -0.19472916424274445, 0.020100990310311317, 0.027948075905442238, -0.10402042418718338, 0.086520619690418243, 0.075857415795326233, 0.057573571801185608, 0.073787622153759003, -0.11598195880651474, -0.12421473115682602, 0.062596872448921204, -0.11708261072635651, -0.1109437569975853, -0.0979958176612854, -0.16949565708637238, 0.090509980916976929, -0.017004275694489479, 0.074107915163040161, 0.012478490360081196, -0.025889042764902115, 0.09620966762304306, -0.17817479372024536, -0.11714834719896317, -0.065972037613391876, 0.16383606195449829, -0.096809171140193939, -0.17164812982082367, -0.065756112337112427, 0.039179898798465729, -0.02678331546485424, -0.088479034602642059, -0.043499153107404709, -0.010332226753234863, 0.0585823655128479, -0.17667369544506073, -0.033412348479032516, 0.063077777624130249, -0.19889591634273529, 0.036340825259685516, 0.017976352944970131, 0.098562218248844147, -0.081414990127086639, -0.03604377806186676, -0.11273320764303207, -0.025670265778899193, -0.11061715334653854, -0.18670366704463959, 0.030249141156673431, -0.14313629269599915, 0.015759143978357315, 0.058141287416219711, 0.077100746333599091, -0.030637048184871674, -0.015112563036382198, -0.0058682258240878582, 0.039323139935731888, 0.049680493772029877, -0.0046111494302749634, -0.15700909495353699, -0.020393902435898781, 0.006420445628464222, 0.042633093893527985, -0.097851864993572235, -0.061193618923425674, -0.09870302677154541, 0.12122493237257004, -0.076328136026859283, -0.073626220226287842, 0.04640650749206543, 0.046611335128545761, -0.059780746698379517, 0.017442392185330391, -0.079802706837654114, -0.041391965001821518, 0.037101313471794128, -0.12202515453100204, 0.10314694792032242, 0.10500264167785645, 0.052106816321611404, 0.083500221371650696, -0.049515437334775925, -0.074712656438350677, -0.10293126106262207, 0.10447805374860764, 0.0044048195704817772, 0.011938572861254215, 0.085831142961978912, -0.19289715588092804, -0.059432506561279297, 0.0019292208598926663, -0.15583382546901703, -0.052350237965583801, -0.015054387040436268, -0.031800117343664169, -0.098038189113140106, -0.12516231834888458, -0.11159373074769974, 0.16263814270496368, 0.15779212117195129, 0.075471416115760803, -0.070517748594284058, 0.025719534605741501, 0.045370142906904221, 0.10367028415203094, 0.041411042213439941, 0.03127254918217659, -0.065637335181236267, -0.04146769642829895, -0.023725928738713264, 0.099333047866821289, 0.051509737968444824, 0.090452522039413452, -0.063696548342704773, 0.025746254250407219, 0.042337898164987564, -0.051840849220752716, 0.047277580946683884, 0.060274634510278702, -0.028236269950866699, -0.08134181797504425, 0.076274201273918152, -0.091431044042110443, -0.031699568033218384, 0.11915648728609085, 0.029659181833267212, -0.075967244803905487, -0.028445975854992867, -0.048551194369792938, -0.021850906312465668, -0.0033777910284698009, 0.073153115808963776, 0.074367150664329529, -0.079195268452167511, 0.012673849239945412, 0.046471454203128815, 0.034652195870876312, 0.17406108975410461, 0.044217642396688461, -0.16004824638366699, 0.10236658155918121, -0.10089488327503204, -0.050305325537919998, 0.032058246433734894, -0.14452885091304779, 0.061773534864187241, -0.074348568916320801, -0.06765042245388031, -0.15822330117225647, 0.085251584649085999, -0.13986645638942719, 0.046384211629629135, 0.052147969603538513, -0.050947967916727066, 0.0855831578373909, 0.086648046970367432, 0.11985278129577637, -0.13325810432434082, -0.0378267802298069, -0.12666055560112, 0.042850159108638763, -0.041016515344381332, 0.032654698938131332, 0.035055883228778839, -0.10822383314371109, -0.062904469668865204, 0.11246084421873093, 0.079913772642612457, 0.058700021356344223, -0.096255719661712646, 
  0.091823183000087738, 0.068521864712238312, -0.078880451619625092, 0.03384770080447197, -0.062785334885120392, -0.15547309815883636, 0.0022359499707818031, 0.031653635203838348, -0.041944820433855057, 0.018922150135040283, -0.15329155325889587, -0.13193066418170929, 0.13258986175060272, -0.010842949151992798, 0.18257120251655579, -0.070483729243278503, -0.047775380313396454, 0.23602062463760376, 0.057170066982507706, -0.050631254911422729, 0.14526183903217316, 0.096216760575771332, 0.024936966598033905, 0.083675414323806763, 0.15213721990585327, 0.019329510629177094, 0.033183999359607697, 0.1692582368850708, -0.03440118208527565, 0.098493859171867371, 0.10314355790615082, 0.15365257859230042, 0.098491877317428589, -0.072053246200084686, 0.12910060584545135, 0.18222951889038086, 0.029068931937217712, -0.051955714821815491, 0.066344417631626129, 0.067729227244853973, -0.11025620251893997, 0.0019788776990026236, -0.10699634999036789, -0.095100633800029755, -0.097494311630725861, -0.044037103652954102, 0.028858337551355362, -0.05901717022061348, -0.1159280464053154, -0.16304123401641846, 0.11001359671354294, 0.099661529064178467, 0.070003889501094818, 0.046698160469532013, 0.15310008823871613, 0.040970627218484879, 0.16026945412158966, -0.072785131633281708, 0.020476173609495163, 0.047863539308309555, -0.0043787918984889984, -0.017134686931967735, 0.24317492544651031, -0.059846181422472, 0.138965904712677, 0.15295529365539551, -0.043895140290260315, 0.13082922995090485, 0.043787159025669098, 0.22055839002132416, -0.00057872169418260455, -0.0068977596238255501, 0.038099963217973709, 0.047508649528026581, 0.015521802008152008, 0.00073524116305634379, 0.11794649064540863, -0.13537465035915375, -0.11572755873203278, -0.065641641616821289, 0.080965012311935425, 0.076595515012741089, -0.051566708832979202, -0.0010697785764932632, -0.042478084564208984, 0.064546108245849609, -0.10499309748411179, 0.088668927550315857, 0.023053131997585297, 0.024881847202777863, 0.021281715482473373, 0.045195702463388443, -0.041627172380685806, -0.14509700238704681, 0.14059966802597046, -0.10860604792833328, 0.092484019696712494, -0.00033852842170745134, -0.0074571175500750542, -0.13908268511295319, 0.050263267010450363, 0.067932769656181335, -0.026642989367246628, 0.02877410501241684, 0.071769818663597107, 0.01631506159901619, 0.12829947471618652, 0.076311565935611725, -0.084989242255687714, 0.046143144369125366, 0.010065972805023193, -0.10002303123474121, 0.0042913644574582577, 0.10222963243722916, -0.095818266272544861, -0.071124821901321411, -0.055879466235637665, -0.18347595632076263, 0.011431676335632801, -0.029089173302054405, -0.096797443926334381, -0.13466793298721313, 0.052729714661836624, -0.14030231535434723, -0.12370900064706802, 0.010607581585645676, -0.18159981071949005, -0.081895828247070312, -0.05413118377327919, -0.10266207903623581, -0.18377551436424255, -0.043521355837583542, 0.038764405995607376, -0.079688362777233124, -0.13965044915676117, 0.068901337683200836, -0.17373088002204895, 0.036163296550512314, -0.031680773943662643, 0.079069636762142181, -0.027583763003349304, -0.082234717905521393, 0.0063773393630981445, -0.046769201755523682, 0.084984168410301208, -0.165047287940979, -0.11241789907217026, -0.17430201172828674, 0.037104669958353043, 0.11206509917974472, -0.083373978734016418, -0.057503804564476013, -0.095010869204998016, 0.050644967705011368, -0.037237469106912613, 0.063497595489025116, -0.1084277555346489, 0.022421084344387054, -0.13016189634799957, -0.029940104112029076, -0.021583279594779015, -0.096640169620513916, 0.036213014274835587, -0.16115725040435791, -0.15306241810321808, -0.1853032261133194, -0.1680348813533783, -0.09574214369058609, -0.13558389246463776, 0.035899624228477478, -0.087690338492393494, -0.1484733372926712, -0.019789567217230797, 0.056846357882022858, 0.063367143273353577, -0.099550686776638031, -0.066886782646179199, 0.10526803880929947, -0.10441950708627701, -0.036497402936220169, 0.024740668013691902, -0.18170748651027679, -0.13636514544487, -0.15614795684814453, -0.17602716386318207, -0.053632736206054688, -0.03721492737531662, -0.015268318355083466, -0.01370176300406456, -0.077703684568405151, 0.022391708567738533, 0.043385449796915054, 0.077510617673397064, -0.14555028080940247, -0.081933677196502686, -0.038495205342769623, -0.19438245892524719, -0.12340188026428223, -0.054396450519561768, 0.0034819457214325666, -0.054817397147417068, -0.029788343235850334, -0.070824049413204193, -0.041800040751695633, -0.10809730738401413, -0.15095148980617523, -0.15918713808059692, 0.073133260011672974, 0.072031736373901367, 0.077448606491088867, 0.050915025174617767, -0.19360579550266266, -0.070692792534828186, -0.091794781386852264, 0.081031754612922668, 0.033756058663129807, 0.081904523074626923, 0.029560606926679611, -0.07099759578704834, -0.050294339656829834, 0.029785910621285439, -0.18677230179309845, 
  -0.17237949371337891, 0.27596184611320496, 0.2738838791847229, 0.03020833432674408, -0.04888959601521492, 0.14230760931968689, -0.082540422677993774, -0.22519302368164062, -0.099912628531455994, 0.063614010810852051, -0.16540317237377167, 0.14887675642967224, 0.023456569761037827, 0.12273967266082764, 0.22314471006393433, 0.13233295083045959, -0.062282871454954147, -0.00018625450320541859, -0.048924572765827179, 0.16812519729137421, 0.14333006739616394, 0.20571757853031158, 0.010275491513311863, 0.071359038352966309, -0.058561429381370544, -0.071116812527179718, 0.11827964335680008, 0.19212554395198822, 0.12530533969402313, 0.068050950765609741, 0.18435375392436981, 0.02093164436519146, 0.17382161319255829, 0.088064104318618774, -0.014287233352661133, -0.12662969529628754, 0.007506820373237133, 0.03073430061340332, -0.3470461368560791, -0.11811837553977966, 0.12278208136558533, 0.074721366167068481, -0.17106646299362183, -0.25323602557182312, -0.11921136081218719, -0.0080135511234402657, -0.33202266693115234, -0.1860252171754837, 0.078845039010047913, 0.035843513906002045, 0.011737916618585587, 0.3416006863117218, -0.0077099683694541454, 0.17640183866024017, 0.043572995811700821, -0.13223364949226379, 0.081544853746891022, -0.064818002283573151, -0.02581481821835041, 0.2077254056930542, 0.21641513705253601, -0.12559348344802856, 0.23471397161483765, 0.19573719799518585, 0.42791754007339478, 0.06081688404083252, 0.30185633897781372, -0.056250326335430145, 0.12083424627780914, 0.13585783541202545, 0.13584427535533905, 0.21004402637481689, 0.17118591070175171, 0.085410222411155701, -0.26290145516395569, -0.16419316828250885, 0.13193732500076294, -0.037472758442163467, 0.077088229358196259, -0.027853729203343391, -0.096021257340908051, -0.2045665830373764, -0.48136445879936218, -0.23431423306465149, -0.079717330634593964, -0.021406456828117371, 0.023560520261526108, 0.070599421858787537, 0.063292361795902252, 0.1779235452413559, -0.19107751548290253, -0.018784128129482269, -0.099772408604621887, -0.056632429361343384, 0.35848194360733032, -0.022401353344321251, -0.1148378923535347, 0.024843355640769005, 0.31205129623413086, 0.045635942369699478, 0.11040423065423965, 0.050525728613138199, -0.043410584330558777, -0.10944021493196487, 0.11408694088459015, 0.11279625445604324, -0.21571467816829681, -0.18159389495849609, 0.017215901985764503, 0.057663571089506149, -0.010313423350453377, -0.079851575195789337, 0.57431644201278687, 0.30301597714424133, 0.092822834849357605, 0.0042711342684924603, 0.047703873366117477, -0.028093032538890839, -0.068070322275161743, -0.15811075270175934, -0.084718696773052216, -0.17864222824573517, -0.093273170292377472, -0.095799125730991364, -0.085161708295345306, -0.015723399817943573, -0.069243967533111572, -0.20864632725715637, 0.0071895481087267399, 0.045052699744701385, -0.076614789664745331, -0.0080944355577230453, 0.0032806333620101213, -0.09230775386095047, -0.062609449028968811, -0.15955676138401031, 0.12486530840396881, -0.10338788479566574, 0.069237731397151947, 0.075090527534484863, 0.079679690301418304, 0.17637123167514801, 0.057971764355897903, -0.064461462199687958, 0.035635549575090408, -0.049597349017858505, -0.16991941630840302, -0.053040545433759689, 0.017758389934897423, 0.48350748419761658, -0.15434466302394867, 0.060780361294746399, 0.26227518916130066, -0.055622979998588562, 0.030248744413256645, -0.063565522432327271, -0.093843169510364532, -0.24605707824230194, -0.06852027028799057, -0.11722411960363388, -0.1100894883275032, 0.03159729391336441, 0.019846018403768539, 0.10176530480384827, -0.17465853691101074, -0.14282999932765961, 0.10821399092674255, 0.0183380376547575, -0.021469848230481148, 0.12191323935985565, -0.027427846565842628, -0.042828153818845749, 0.13339665532112122, -0.040085315704345703, 0.14995329082012177, 0.16431355476379395, 0.025577966123819351, -0.013324674218893051, 0.12464519590139389, 0.023405691608786583, -0.025590604171156883, 0.046321302652359009, 0.024290623143315315, 0.0087593933567404747, -0.0062820105813443661, 0.10833059251308441, -0.22001610696315765, 0.034079629927873611, 0.043362561613321304, 0.31911328434944153, -0.030374791473150253, -0.068233281373977661, -0.091496117413043976, -0.028098678216338158, -0.19778268039226532, -0.22856810688972473, 0.09026017040014267, 0.10875110328197479, -0.0093304924666881561, 0.050322763621807098, 0.16202445328235626, -0.023532183840870857, -0.13973984122276306, 0.0016997870989143848, -0.12347928434610367, -0.080938063561916351, 0.17246821522712708, -0.031681746244430542, 0.15127314627170563, 0.20097266137599945, 0.066985547542572021, 0.12565226852893829, 0.079829372465610504, 0.03686746209859848, -0.00074872194090858102, 0.22000160813331604, 0.054114807397127151, 0.024968516081571579, 0.20728868246078491, 0.17582538723945618, 0.18606863915920258, 0.0061743082478642464, 
  -0.074773631989955902, 0.033376432955265045, 0.074851922690868378, -0.10316045582294464, -0.1333068460226059, -0.0378834567964077, 0.033054303377866745, -0.061473853886127472, -0.003267643740400672, 0.12738630175590515, 0.09585011750459671, -0.091274663805961609, 0.07600085437297821, 0.011465423740446568, 0.14331936836242676, -0.043431345373392105, -0.13060344755649567, 0.11470886319875717, 0.13713105022907257, -0.10420525819063187, 0.0002271045814268291, -0.099152654409408569, -0.13062696158885956, 0.15878649055957794, -0.00012019120185868815, 0.11830417066812515, -0.12888851761817932, -0.079156950116157532, -0.080645814538002014, -0.0061347582377493382, -0.02605421282351017, -0.092074237763881683, 0.047342196106910706, 0.12233693152666092, 0.035109493881464005, 0.02511071041226387, 0.093065448105335236, 0.031218638643622398, -0.039009846746921539, -0.1555340588092804, 0.0075380750931799412, 0.11135739833116531, 0.13014937937259674, -0.14809025824069977, -0.0099550811573863029, -0.12735088169574738, 0.016444729641079903, -0.11375953257083893, 0.035988681018352509, 0.091404356062412262, -0.10909707844257355, 0.07091531902551651, 0.014286159537732601, 0.0042413370683789253, 0.097026467323303223, 0.013234833255410194, 0.015447975136339664, -0.08672613650560379, -0.05461595207452774, 0.15527944266796112, 0.10629703849554062, 0.071799717843532562, 0.06859850138425827, -0.13001956045627594, -0.055105958133935928, 0.016591377556324005, 0.14129671454429626, 0.071671731770038605, 0.10343405604362488, 0.14197322726249695, 0.11866973340511322, 0.14256651699542999, -0.037476938217878342, -0.12409435957670212, -0.06377817690372467, 0.026126319542527199, -0.035348482429981232, -0.026096219196915627, -0.12136436998844147, -0.063903093338012695, 0.098068326711654663, -0.17410363256931305, -0.13533546030521393, -0.03061956912279129, -0.10550368577241898, 0.098614387214183807, -0.17516972124576569, 0.028946535661816597, -0.094206973910331726, -0.088743865489959717, -0.13644148409366608, -0.05856139212846756, 0.10724411159753799, -0.089792028069496155, -0.073041751980781555, -0.0022827321663498878, 0.040511272847652435, -0.063155762851238251, -0.033237908035516739, -0.06938452273607254, 0.038252539932727814, -0.094309233129024506, 0.020557448267936707, 0.045978836715221405, 0.037264645099639893, 0.085994705557823181, -0.057124048471450806, 0.14977172017097473, 0.11713866144418716, -0.039292443543672562, 0.072841227054595947, -0.024255316704511642, 0.12419143319129944, 0.075626134872436523, -0.13411566615104675, 0.020044798031449318, 0.021380795165896416, -0.089414983987808228, 0.015495304949581623, -0.14120006561279297, -0.13559992611408234, 0.12053859233856201, -0.15995098650455475, 0.067989364266395569, -0.11165423691272736, -0.16108210384845734, -0.14219638705253601, 0.047810617834329605, -0.099827960133552551, -0.039538946002721786, 0.023715931922197342, 0.10724008828401566, -0.037598270922899246, -0.089432850480079651, -0.040706843137741089, 0.10184226185083389, -0.1147000789642334, -0.09571654349565506, 0.00025582712260074914, -0.012204994447529316, -0.018020307645201683, 0.1162269115447998, -0.066192790865898132, -0.076102621853351593, 0.056624598801136017, -0.00051803071983158588, -0.01434370968490839, 0.10915813595056534, 0.011271258816123009, 0.1172989085316658, 0.097766555845737457, 0.053392741829156876, -0.0039644520729780197, -0.10277267545461655, 0.11074638366699219, -0.028113331645727158, -0.054010648280382156, -0.093189895153045654, -0.04134686291217804, -0.060983099043369293, -0.17220576107501984, -0.033305246382951736, -0.034935720264911652, 0.10667294263839722, -0.12279035151004791, -0.051747437566518784, -0.1723843514919281, 0.012164398096501827, 0.079501301050186157, 0.11050292104482651, -0.02891257032752037, 0.12511587142944336, -0.053735930472612381, 0.12224976718425751, -0.15032365918159485, 0.034087792038917542, 0.01596384309232235, -0.079492859542369843, -0.067094624042510986, 0.12776796519756317, 0.040865514427423477, -0.091429427266120911, 0.0078778788447380066, -0.034484654664993286, -0.078301131725311279, -0.097436912357807159, -0.12831179797649384, -0.053704492747783661, -0.093091130256652832, 0.14459946751594543, -0.10772159695625305, 0.098854966461658478, -0.045134793967008591, 0.012501474469900131, -0.036103274673223495, -0.09616425633430481, -0.039988599717617035, -0.076391458511352539, -0.026053441688418388, -0.11881435662508011, 0.024066861718893051, -0.045935943722724915, 0.048102006316184998, 0.05146857351064682, 0.0062168333679437637, 0.083630584180355072, -0.042318910360336304, -0.058224525302648544, -0.027229012921452522, 0.0021391771733760834, 0.043624933809041977, 0.020169839262962341, 0.12242460250854492, 0.040498264133930206, 0.131636843085289, 0.036933306604623795, 0.034950468689203262, 0.022726114839315414, -0.10522922873497009, -0.11343679577112198, -0.081375055015087128, -0.04157436266541481, 
  0.14510525763034821, -0.046874057501554489, -0.11424596607685089, -0.074102491140365601, 0.13776320219039917, -0.025280356407165527, 0.23710691928863525, 0.012528582476079464, -0.038597840815782547, 0.021951114758849144, 0.10406646132469177, 0.12362188100814819, 0.12825645506381989, -0.040941588580608368, 0.11787237972021103, 0.23456157743930817, 0.036877866834402084, 0.17961031198501587, 0.29214674234390259, 0.22014264762401581, 0.47644752264022827, 0.40134796500205994, 0.34629350900650024, 0.065411932766437531, 0.36734533309936523, 0.25332418084144592, 0.11926808953285217, 0.27624467015266418, 0.11415913701057434, 0.23977023363113403, 0.094069316983222961, 0.23632463812828064, 0.2822282612323761, 0.39041680097579956, 0.22318099439144135, 0.20485362410545349, 0.24412326514720917, 0.11936308443546295, -0.39843204617500305, 0.075406976044178009, -0.13279008865356445, -0.1244582012295723, 0.056608788669109344, 0.17314399778842926, 0.062721364200115204, 0.026477154344320297, -0.0095759695395827293, 0.013607023283839226, 0.073719166219234467, 0.15293592214584351, 0.15021660923957825, 0.076842591166496277, 0.067490905523300171, 0.16717413067817688, 0.15125380456447601, 0.19180312752723694, -0.025732636451721191, 0.10957901924848557, 0.19018737971782684, 0.45680597424507141, 0.49821844696998596, 0.62863850593566895, 0.24943150579929352, -0.023252710700035095, 0.46603071689605713, 0.28690844774246216, 0.3316710889339447, 0.55702364444732666, 0.32052147388458252, 0.20697952806949615, 0.40809810161590576, 0.33748477697372437, 0.41970372200012207, 0.68596792221069336, 0.098507493734359741, 0.027516219764947891, -0.3935776948928833, -0.020228702574968338, -0.0074157491326332092, 0.066910982131958008, 0.05216517299413681, 0.15423759818077087, 0.19440379738807678, 0.20695529878139496, 0.067043013870716095, 0.27503806352615356, 0.11227989941835403, 0.0094104092568159103, 0.14123840630054474, 0.054918866604566574, 0.29657036066055298, 0.28882098197937012, 0.27336135506629944, 0.25989174842834473, 0.22086584568023682, -0.058368023484945297, 0.51876205205917358, 0.00036422465927898884, -0.038900867104530334, 0.39534878730773926, 0.13655479252338409, 0.24944981932640076, 0.17591166496276855, 0.5520898699760437, 0.044525742530822754, 0.17279613018035889, 0.39210197329521179, 0.21670617163181305, 0.16605404019355774, 0.21836791932582855, 0.13198567926883698, 0.1058039516210556, -0.084371231496334076, -0.16811087727546692, -0.0043828985653817654, -0.31021153926849365, 0.045024197548627853, -0.068403802812099457, -0.15437597036361694, -0.010247126221656799, 0.047031354159116745, -0.083750396966934204, -0.061158265918493271, -0.08916211873292923, 0.042137935757637024, 0.16446864604949951, -0.098130680620670319, -0.10800596326589584, 0.13232788443565369, 0.1233939602971077, -0.055553283542394638, -0.026949670165777206, -0.053703721612691879, 0.02456945925951004, 0.18986016511917114, 0.050641432404518127, -0.080004535615444183, 0.17196838557720184, 0.052880842238664627, 0.016347428783774376, 0.072967909276485443, -0.043105408549308777, 0.10979511588811874, 0.059608418494462967, 0.17307314276695251, -0.013895513489842415, -0.018387535586953163, 0.14579536020755768, -0.025231558829545975, -0.36186674237251282, -0.026452649384737015, -0.18123097717761993, -0.18133632838726044, 0.0018780124373733997, 0.087819263339042664, -0.13584916293621063, -0.11774551123380661, -0.043340802192687988, 0.067785792052745819, -0.056927204132080078, -0.093588896095752716, -0.13146984577178955, 0.079425692558288574, -0.054068997502326965, 0.025794230401515961, 0.0078609632328152657, -0.055213913321495056, -0.13679060339927673, -0.016756527125835419, 0.029833361506462097, 0.015306354500353336, -0.046729613095521927, -0.14795856177806854, 0.06130257248878479, -0.14262054860591888, 0.043567799031734467, -0.16654856503009796, -0.088721908628940582, 0.036147881299257278, -0.10020399838685989, 0.039210472255945206, -0.059169147163629532, -0.12854534387588501, 0.073959603905677795, -0.12280408293008804, 0.11598655581474304, 0.12561033666133881, -0.0093690101057291031, -0.01393418200314045, -0.20163603127002716, 0.032972391694784164, 0.094768017530441284, 0.076660856604576111, 0.12770563364028931, 0.10912708193063736, -0.11034698784351349, -0.0018264601239934564, 0.0074756094254553318, -0.062327884137630463, -0.038387645035982132, -0.13454067707061768, -0.085937760770320892, -0.096463784575462341, 0.0046356050297617912, 0.17338383197784424, -0.12102334946393967, 0.10804667323827744, 0.068082757294178009, 0.21672634780406952, 0.16306158900260925, -0.013425269164144993, 0.047272417694330215, -0.077149346470832825, 0.011522436514496803, 0.17224018275737762, 0.008834443986415863, -0.09866892546415329, -0.087823241949081421, 0.024704659357666969, -0.065643079578876495, 0.033518224954605103, -0.16358478367328644, 
  0.26508051156997681, 0.11969324201345444, -0.068077251315116882, -0.0337541364133358, 0.10349041223526001, 0.22100214660167694, 0.058441095054149628, 0.042307354509830475, -0.057918179780244827, 0.19001097977161407, 0.27469214797019958, -0.017330469563603401, -0.1082257553935051, -0.068652823567390442, -0.10359194129705429, 0.075387611985206604, -0.13187937438488007, -0.072249047458171844, -0.2625347375869751, -0.011954986490309238, -0.30863773822784424, -0.22997750341892242, -0.13375020027160645, -0.20593716204166412, -0.28425785899162292, -0.14467866718769073, -0.059180721640586853, -0.1751733124256134, 0.069587863981723785, 0.041137129068374634, -0.1006636768579483, -0.098227433860301971, -0.017595948651432991, 0.13346926867961884, -0.0062125595286488533, 0.040272742509841919, 0.098333738744258881, 0.20787183940410614, 0.13286527991294861, 0.26082426309585571, 0.098797179758548737, -0.097774498164653778, 0.14820216596126556, 0.30914190411567688, -0.0062606199644505978, -0.024539949372410774, 0.1022280752658844, 0.015520370565354824, 0.21283970773220062, 0.18344716727733612, -0.057210963219404221, -0.093980029225349426, 0.038054227828979492, 0.075796112418174744, 0.15931297838687897, 0.25642511248588562, 0.17104345560073853, -0.013728950172662735, 0.20755051076412201, 0.14655378460884094, 0.045709848403930664, 0.26984220743179321, -0.036710817366838455, 0.074834786355495453, 0.098642677068710327, -0.065449759364128113, -0.12668280303478241, 0.17754262685775757, 0.09879002720117569, -0.020555244758725166, -0.033768504858016968, -0.093682870268821716, 0.19922365248203278, 0.27566733956336975, 0.1797243058681488, 0.032177925109863281, -0.048544075340032578, 0.16605322062969208, 0.035212710499763489, 0.16620500385761261, 0.28629598021507263, 0.13132937252521515, -0.00652692886069417, 0.097723126411437988, 0.17982232570648193, 0.18882961571216583, 0.025489263236522675, -0.055979352444410324, 0.14590393006801605, 0.017371371388435364, 0.024534821510314941, -0.10890033841133118, 0.062300547957420349, 0.2421143501996994, 0.17785616219043732, -0.11960066109895706, 0.037392754107713699, -0.19874913990497589, -0.13061323761940002, 0.12426922470331192, 0.096737585961818695, 0.27026501297950745, -0.19075523316860199, -0.01303343940526247, 0.15094031393527985, 0.029776718467473984, 0.13341397047042847, 0.15777657926082611, -0.088901497423648834, -0.096011176705360413, 0.24118624627590179, -0.076696105301380157, -0.017646759748458862, -0.056562937796115875, -0.066230736672878265, 0.080113224685192108, -0.045239049941301346, -0.024253843352198601, 0.012655369937419891, -0.09918610006570816, -0.013604322448372841, 0.16191990673542023, 0.0019187899306416512, -0.12155122309923172, 0.030243068933486938, 0.024972507730126381, -0.053953945636749268, -0.011875170283019543, 0.044705633074045181, -0.10245826095342636, 0.061047419905662537, 0.085607707500457764, -0.070626236498355865, -0.053729232400655746, -0.050356678664684296, 0.066384002566337585, 0.090580455958843231, 0.087603554129600525, -0.019967168569564819, 0.08269982784986496, -0.070417232811450958, -0.21163032948970795, 0.072293557226657867, -0.1913997083902359, -0.081686720252037048, -0.13459475338459015, 0.047722969204187393, -0.091260306537151337, 0.10811012238264084, -0.39178290963172913, 0.040366332978010178, 0.13283716142177582, 0.07165045291185379, 0.028292609378695488, -0.045935142785310745, 0.050785388797521591, 0.12488920986652374, -0.14310479164123535, -0.023517979308962822, -0.029476605355739594, -0.027664350345730782, -0.093834862112998962, -0.14497314393520355, 0.055695503950119019, -0.040632836520671844, 0.017874393612146378, -0.13649246096611023, -0.01330062560737133, -0.035769816488027573, -0.038600817322731018, 0.12791500985622406, -0.14749453961849213, -0.0018531437963247299, -0.078389033675193787, 0.13708275556564331, 0.043707039207220078, -0.081881634891033173, -0.16648727655410767, 0.11325016617774963, -0.057935237884521484, 0.027848931029438972, 0.069719694554805756, -0.074152857065200806, 0.058729056268930435, -0.068143278360366821, -0.14973503351211548, 0.12530364096164703, 0.10949165374040604, -0.074118971824645996, 0.14953327178955078, 0.1269189864397049, 0.094996027648448944, 0.085687905550003052, -0.082038551568984985, 0.03280254453420639, -0.070912085473537445, -0.068551227450370789, 0.11747824400663376, 0.061087053269147873, -0.0034599984064698219, 0.1310850977897644, 0.026707801967859268, 0.19483429193496704, -0.051120191812515259, 0.033348497003316879, 0.16726900637149811, -0.036392759531736374, 0.13034966588020325, -0.054337114095687866, -0.10928195714950562, -0.14052790403366089, -0.055934783071279526, 0.16601589322090149, 0.13297268748283386, 0.13628989458084106, -0.10973484814167023, -0.061894875019788742, -0.022449847310781479, 0.019879389554262161, 0.12390585988759995, 0.16647902131080627, 0.037896677851676941, 
  -0.043901577591896057, -0.12764626741409302, -0.12701784074306488, -0.056829597800970078, 0.016381891444325447, -0.042097460478544235, -0.11678308993577957, 0.030646037310361862, -0.012614291161298752, 0.023547347635030746, -0.15529942512512207, -0.14074563980102539, 0.035086356103420258, -0.037399772554636002, 0.0057473452761769295, 0.080409698188304901, -0.025739625096321106, 0.019407056272029877, 0.037952836602926254, 0.0688944011926651, 0.1267613023519516, 0.082709044218063354, 0.13433904945850372, -0.10394988209009171, -0.079507574439048767, 0.094987131655216217, 0.14182251691818237, 0.093553788959980011, 0.16342930495738983, -0.073626786470413208, 0.041208613663911819, 0.064224131405353546, 0.061281584203243256, 0.055515062063932419, 0.049169674515724182, -0.089224860072135925, 0.15618151426315308, 0.015675058588385582, -0.079940326511859894, 0.097084194421768188, -0.1481722891330719, -0.026033854112029076, 0.12120639532804489, -0.016123484820127487, 0.052489966154098511, -0.038390155881643295, -0.0032189914491027594, 0.12110862880945206, -0.14516262710094452, 0.059020321816205978, 0.10500802099704742, 0.14906671643257141, 0.11197027564048767, 0.049832295626401901, 0.19985285401344299, 0.095044121146202087, -0.098809890449047089, 0.12964734435081482, -0.0037382384762167931, 0.042420670390129089, -0.03480258584022522, 0.024091647937893867, 0.10213521867990494, -0.044175747781991959, 0.0034496982116252184, 0.021451501175761223, 0.078236296772956848, -0.049909781664609909, -0.035002086311578751, 0.067313291132450104, -0.027987556532025337, -0.019742399454116821, 0.16642619669437408, 0.18987445533275604, -0.053382132202386856, 0.10716335475444794, -0.099054768681526184, 0.058307670056819916, -0.0910610631108284, -0.098842978477478027, -0.11255317181348801, -0.14700782299041748, -0.0056336554698646069, -0.14722910523414612, 0.082939058542251587, -0.039474211633205414, -0.096023090183734894, 0.094060719013214111, -0.0053928378038108349, -0.081839300692081451, 0.20087145268917084, -0.049823272973299026, 0.0052850632928311825, 0.027123903855681419, 0.048882588744163513, -0.082828037440776825, 0.092680461704730988, 0.1232006698846817, -0.077993892133235931, 0.088616706430912018, 0.15808448195457458, 0.018372626975178719, 0.15857823193073273, 0.10933090001344681, -0.045683093369007111, 0.034857075661420822, -0.018233396112918854, 0.0070918896235525608, 0.14938826858997345, 0.051159609109163284, -0.027000756934285164, -0.030602134764194489, -0.039000421762466431, 0.025046957656741142, -0.069098532199859619, -0.0078991604968905449, 0.10302861779928207, -0.099083356559276581, -0.15517556667327881, 0.028356662020087242, -0.12724660336971283, -0.18710614740848541, -0.16098535060882568, -0.018819622695446014, 0.055047720670700073, -0.063755832612514496, 0.042709954082965851, -0.18289308249950409, 0.10350792109966278, -0.12224435806274414, -0.14626321196556091, 0.030335813760757446, 0.058605019003152847, 0.0081770634278655052, -0.042571410536766052, -0.12055308371782303, -0.076808035373687744, -0.035005301237106323, 0.0069677615538239479, -0.12167689949274063, -0.12562298774719238, -0.15304680168628693, -0.11437122523784637, -0.13621306419372559, -0.028533337637782097, 0.092489562928676605, -0.0018327014986425638, -0.18547762930393219, -0.17566336691379547, -0.0078056971542537212, 0.017008028924465179, 0.093605577945709229, 0.089594081044197083, 0.040889289230108261, -0.031029991805553436, -0.14951768517494202, -0.081522755324840546, -0.14036811888217926, 0.082115404307842255, 0.08928101509809494, 0.035276018083095551, -0.11740531772375107, 0.0085611967369914055, 0.007468078751116991, -0.17721818387508392, 0.022860808297991753, -0.13841784000396729, -0.11739399284124374, -0.0093217967078089714, 0.098156444728374481, -0.078028261661529541, -0.14362622797489166, -0.0283161960542202, -0.12319830060005188, -0.0086724730208516121, 0.092814721167087555, -0.074360787868499756, 0.074616767466068268, -0.097123958170413971, -0.056465767323970795, -0.16868594288825989, 0.0287514328956604, 0.095830559730529785, -0.12996383011341095, -0.080554850399494171, 0.082755789160728455, -0.06131754070520401, -0.094273358583450317, -0.14188134670257568, 0.0045765852555632591, -0.12991876900196075, -0.14112643897533417, -0.05085938423871994, 0.02943127416074276, -0.050195276737213135, -0.045991558581590652, -0.038200683891773224, -0.14208364486694336, -0.039469379931688309, -0.088204629719257355, 0.094542436301708221, 0.083465933799743652, 0.11469481885433197, 0.072079233825206757, -0.16581764817237854, 0.032467767596244812, -0.016781000420451164, -0.11404847353696823, 0.048091214150190353, -0.048264447599649429, -0.17655862867832184, -0.17922343313694, -0.13012589514255524, -0.073992326855659485, 0.078362621366977692, 0.044282253831624985, -0.086472369730472565, -0.00024118494184222072, 0.034989595413208008, 0.041076257824897766, 0.11295361071825027, -0.070719636976718903, 
  -0.0074868882074952126, -0.21190847456455231, 0.018522905185818672, 0.013826572336256504, 0.15353034436702728, -0.18493618071079254, 0.091792076826095581, -0.043540090322494507, -0.033735353499650955, 0.12332003563642502, -0.061716396361589432, 0.080675214529037476, 0.23836208879947662, 0.0073203993961215019, 0.0078031411394476891, 0.071122415363788605, 0.20844206213951111, 0.014833824709057808, 0.13934198021888733, -0.083287499845027924, 0.081853277981281281, 0.01507317740470171, -0.033405739814043045, 0.1927359402179718, 0.08152402937412262, 0.10401471704244614, -0.003778556827455759, -0.043298918753862381, 0.0045238304883241653, 0.14536836743354797, -0.051069650799036026, -0.032930377870798111, -0.11316724866628647, 0.07896491140127182, 0.07277466356754303, -0.070818617939949036, -0.079430818557739258, 0.12805642187595367, -0.11810918897390366, -0.25058066844940186, 0.043386377394199371, -0.16916370391845703, -0.049651343375444412, 0.0080972202122211456, 0.11637874692678452, -0.02184978686273098, 0.16518533229827881, 0.059286735951900482, 0.024669315665960312, 0.1254018098115921, 0.10138882696628571, 0.048926565796136856, 0.16528452932834625, 0.14636199176311493, -0.036941085010766983, 0.050273224711418152, 0.21668867766857147, -0.072725623846054077, 0.015358422882854939, -0.055097471922636032, 0.16241517663002014, 0.038435205817222595, 0.084183387458324432, -0.2554280161857605, 0.060143802314996719, -0.11437045037746429, -0.0024610753171145916, 0.012349992990493774, 0.088670380413532257, 0.063428089022636414, 0.15805211663246155, -0.0034983193036168814, -0.095275171101093292, 0.13783968985080719, 0.014133390039205551, -0.08368287980556488, 0.19235335290431976, -0.042141903191804886, 0.041876647621393204, -0.19916847348213196, -0.099859274923801422, 0.049167532473802567, 0.26153364777565002, 0.27933505177497864, 0.075492270290851593, 0.06171710416674614, 0.13432842493057251, 0.17228685319423676, 0.27225673198699951, -0.030613789334893227, 0.27971959114074707, 0.10339904576539993, 0.20171369612216949, -0.069420881569385529, -0.26615312695503235, -0.073260724544525146, -0.052377846091985703, 0.073890253901481628, -0.093966364860534668, -0.20004530251026154, -0.23081643879413605, -0.25394880771636963, 0.0483236163854599, -0.17812290787696838, -0.25594857335090637, -0.20807413756847382, 0.15839807689189911, -0.072693429887294769, 0.20210672914981842, -0.046964731067419052, -0.28284367918968201, 0.13349403440952301, -0.10231085866689682, -0.10110802948474884, -0.11917337775230408, -0.19698034226894379, 0.12672626972198486, 0.041516620665788651, 0.1868906170129776, 0.187504842877388, -0.031575709581375122, -0.082811295986175537, -0.051222912967205048, 0.031008303165435791, 0.098124295473098755, 0.02881443127989769, -0.090094730257987976, 0.0087494580075144768, 0.10890237241983414, -0.090918630361557007, 0.13502514362335205, 0.050571884959936142, 0.041683420538902283, 0.079078920185565948, -0.089787036180496216, -0.0052584074437618256, -0.042358569800853729, -0.061402056366205215, -0.10686832666397095, 0.01795305497944355, -0.094615809619426727, -0.009311099536716938, 0.015873150900006294, 0.00055584544315934181, 0.0087423902004957199, -0.016323676332831383, 0.04409906268119812, 0.010968005284667015, -0.072414621710777283, 0.18557748198509216, 0.20493490993976593, -0.012546112760901451, -0.071051605045795441, -0.0064351381734013557, -0.081549957394599915, 0.17399255931377411, 0.11250677704811096, 0.18197378516197205, 0.0052223866805434227, -0.0070525086484849453, 0.15638890862464905, 0.14082656800746918, 0.12995816767215729, 0.030250115320086479, -0.05008421465754509, 0.12301845848560333, -0.03049795888364315, 0.071104317903518677, 0.075584419071674347, 0.043784800916910172, 0.078005470335483551, -0.16149735450744629, -0.11313367635011673, 0.12316452711820602, 0.044195875525474548, -0.068499445915222168, -0.06498408317565918, -0.094432607293128967, 0.11007498949766159, -0.12412517517805099, -0.048803370445966721, -0.031809892505407333, -0.027074944227933884, 0.077967263758182526, -0.13234077394008636, 0.039712272584438324, -0.18057064712047577, -0.18365365266799927, 0.073807626962661743, -0.28546610474586487, -0.0032227386254817247, 0.021903691813349724, 0.13211221992969513, 0.075634501874446869, -0.053708750754594803, -0.098971180617809296, -0.14988882839679718, -0.016911353915929794, 0.045546330511569977, 0.14337073266506195, -0.066493451595306396, -0.0046719801612198353, 0.059420473873615265, 0.01203570980578661, -0.085714042186737061, 0.089831970632076263, 0.0663304403424263, -0.11349025368690491, 0.094061821699142456, -0.15522456169128418, 0.016747862100601196, -0.011905992403626442, -0.17614611983299255, -0.14307449758052826, 0.1222677007317543, -0.024248497560620308, 0.053967904299497604, 0.078391015529632568, 0.033750742673873901, -0.034273974597454071, -0.11504295468330383, -0.081392183899879456, 
  -0.19869460165500641, 0.090246550738811493, 0.55879974365234375, -0.030761551111936569, 0.041826516389846802, -0.25548505783081055, -0.23980924487113953, -0.26526600122451782, -0.17249219119548798, -0.05319967120885849, 0.18547661602497101, -0.25114831328392029, -0.018739212304353714, 0.11368326842784882, 0.26530224084854126, 0.089852266013622284, 0.087731093168258667, 0.079033590853214264, 0.26219409704208374, 0.22797092795372009, 0.02377350814640522, 0.1878899484872818, 0.13231974840164185, 0.17789126932621002, 0.0078036366030573845, 0.036709081381559372, 0.2233349084854126, 0.072997793555259705, 0.13118284940719604, -0.040825176984071732, 0.024661064147949219, 0.047182030975818634, -0.018832582980394363, -0.021617341786623001, -0.032563850283622742, 0.054340094327926636, -0.0071751424111425877, -0.09508872777223587, -0.022328596562147141, 0.054392851889133453, -0.061776332557201385, -0.04952457919716835, -0.20897479355335236, -0.31784754991531372, -0.088149495422840118, -0.12142495810985565, -0.090668052434921265, 0.021103510633111, -0.1257898211479187, -0.067108102142810822, -0.022375352680683136, -0.37387984991073608, -0.55435627698898315, -0.36397933959960938, -0.1848677396774292, -0.49157038331031799, 0.012455141171813011, -0.34715649485588074, -0.17870688438415527, -0.29076847434043884, -0.32763811945915222, -0.28868100047111511, -0.31322062015533447, -0.33502063155174255, -0.058020941913127899, -0.041596740484237671, -0.33336710929870605, -0.29444992542266846, -0.1229773536324501, -0.24449758231639862, -0.37769144773483276, -0.39000034332275391, -0.26650166511535645, -0.34755641222000122, 0.044142689555883408, -0.051084127277135849, -0.065793938934803009, 0.048552721738815308, 0.020580323413014412, -0.37101584672927856, -0.41035085916519165, -0.26259317994117737, 0.11305560171604156, -0.13466723263263702, 0.18950836360454559, -0.22896167635917664, -0.064217045903205872, -0.18154135346412659, -0.10080941766500473, -0.30307018756866455, -0.17425890266895294, -0.059797801077365875, -0.1400456428527832, -0.073812618851661682, -0.12469015270471573, -0.041463013738393784, -0.10333015024662018, 0.17818227410316467, -0.051898743957281113, -0.036147896200418472, -0.069871790707111359, -0.092198498547077179, -0.037253852933645248, -0.07217736542224884, -0.13747233152389526, -0.31517487764358521, -0.17667685449123383, -0.18654587864875793, -0.13031975924968719, -0.20884464681148529, -0.31532737612724304, 0.14820544421672821, 0.30822944641113281, 0.22260938584804535, -0.15982130169868469, 0.054189469665288925, 0.15398229658603668, 0.11162454634904861, 0.11482565850019455, 0.16970665752887726, 0.27135613560676575, 0.071547769010066986, 0.0090754181146621704, 0.25626841187477112, 0.29417958855628967, 0.2107149064540863, 0.067019186913967133, 0.25533536076545715, 0.10194163024425507, 0.073896929621696472, 0.33958467841148376, 0.16336610913276672, 0.17218327522277832, 0.10152557492256165, 0.068665415048599243, 0.2883380651473999, 0.34537941217422485, 0.37878790497779846, 0.34736549854278564, 0.27464479207992554, 0.1698615550994873, 0.10691478848457336, 0.0877222940325737, 0.14359098672866821, 0.26135021448135376, 0.094445303082466125, 0.018984181806445122, 0.23272107541561127, -0.018353451043367386, -0.53467094898223877, 0.065825201570987701, -0.025281006470322609, -0.26865863800048828, -0.1607537567615509, 0.11570030450820923, 0.18699128925800323, 0.25135371088981628, 0.037892628461122513, -0.006914160680025816, 0.12499786913394928, -0.044072765856981277, 0.045620165765285492, 0.091487109661102295, -0.14527551829814911, 0.15306766331195831, -0.13139337301254272, 0.0018163624918088317, -0.085257470607757568, 0.04537012055516243, -0.14427994191646576, 0.16764998435974121, -0.028336875140666962, -0.073231145739555359, 0.11485050618648529, 0.11820755898952484, 0.12669381499290466, 0.25084516406059265, -0.053073756396770477, -0.01041492260992527, 0.12179838120937347, -0.16960141062736511, -0.042711962014436722, 0.1281876266002655, 0.099127873778343201, -0.029799463227391243, -0.18293140828609467, -0.41047599911689758, 0.1210949644446373, -0.096843898296356201, -0.28259098529815674, -0.13594278693199158, -0.056508064270019531, 0.16405625641345978, -0.050132051110267639, 0.030474746599793434, 0.14722362160682678, -0.016041979193687439, 0.030348936095833778, 0.0030709642451256514, -0.028782511129975319, 0.069188758730888367, -0.19180013239383698, -0.16785641014575958, -0.13283176720142365, -0.055562105029821396, -0.046067036688327789, 0.066023632884025574, -0.11513970792293549, -0.19480031728744507, -0.099629916250705719, 0.077442273497581482, 0.086709603667259216, 0.0041130390018224716, -0.12158635258674622, -0.028002787381410599, -0.094925381243228912, -0.087665021419525146, -0.029695345088839531, -0.19517886638641357, -0.19212371110916138, -0.21793727576732635, -0.089732445776462555, 
